{"Layers":[{"$type":"MyMachineLearningLibrary.InputLayer","ActivationFunction":null,"LayerOutputs":{"Values":[[0],[0],[0],[0],[0]],"RowLength":5,"ColoumnLength":1,"ElementCount":5,"Sum":0,"Average":0},"NumberOfPerceptrons":5,"Gradients":{"Values":[[0],[0],[0],[0],[0]],"RowLength":5,"ColoumnLength":1,"ElementCount":5,"Sum":0,"Average":0}},{"$type":"MyMachineLearningLibrary.DenseLayer","ActivationFunction":{"$type":"MyMachineLearningLibrary.SigmoidActivationFunction"},"LayerOutputs":{"Values":[[0.9999900426051562],[1.9953769168760585E-05],[0.9999919847956961],[3.3507036810140605E-05],[1.8312416841316052E-05],[2.2563871568709803E-05],[2.9973878918600354E-05],[0.9999943418609062],[1.6747499161007552E-05],[3.4525458622660026E-37],[0.9999916422099133],[3.0377591686655398E-05],[1.7251990005293156E-05],[2.2082143241754693E-05],[2.783782167785126E-05],[3.0570506465850345E-05],[7.437292691479948E-06],[2.869437894353005E-05],[0.9999919145702206],[2.1906194288460642E-05],[0.999998166725818],[4.022223336421061E-05],[0.9999923403810207],[0.9999920671023322]],"RowLength":24,"ColoumnLength":1,"ElementCount":24,"Sum":8.000309938875896,"Average":0.3333462474531623},"Weights":{"Values":[[1.55902343124033,0.9165552183613189,0.8805983136739787,0.9919019896915731,1.3898036720702127],[-1.301795858659413,-0.6675119424317617,-1.6069256575497337,-1.7302254330476519,-0.8700373507344867],[3.3804538484422832,3.5988608882303232,3.5185368202317204,3.011983703645894,3.3423294976881666],[-2.050995218078824,-0.9419250803093393,-0.9227790168816847,-1.042300937506756,-2.159416650273298],[-1.0805919690084675,-1.4906476230686074,-1.0764832807797478,-1.6173889905097596,-0.8773152322550981],[-1.0398657784707888,-2.0286303323076362,-1.2172324291988557,-0.8026944521484277,-1.058934606204061],[-1.34584628713638,-1.8704348245657545,-0.9882258010708771,-0.8654024967330496,-1.6280300664882126],[3.868260338080976,3.27336807336062,3.3559369406718944,3.580486972127899,3.3645380461138674],[-1.5769283732217907,-1.0523922980125353,-1.0522906696885264,-2.191260727471158,-0.9726118686031208],[92.17829215639084,92.09253969655897,92.14776645360293,91.99746244012385,92.09331997006699],[3.5208028364108968,2.7935944025461144,3.357935475733862,2.7690426638550654,1.9909026831952688],[-1.2080161865092978,-1.0843459607010362,-1.5753616664608316,-0.8531834751952669,-1.1451037516390488],[-1.058428394031271,-1.1118628406579492,-1.0656326683374138,-0.8175969329934432,-1.3063765673962495],[-1.3783204564125635,-1.2092033851487791,-0.6789184253719271,-1.0615201363231372,-1.1458846883547573],[-1.1863565172950368,-0.9319691541723703,-1.632056962337256,-0.9523102964410488,-1.3517829142603768],[-1.197517360408125,-1.5540219430663151,-1.3971841756589694,-0.7055670763866518,-1.3753766358142718],[38.207534698394944,38.28142086171294,39.35762543575454,40.08114481833225,1.6187406000381306],[-1.0483295856725745,-0.6658054864616788,-1.468545034254638,-0.9754570192123034,-1.4692678382886515],[2.2702979426820558,2.293332355807824,2.1660995193133483,2.041690177882914,2.1181143059428957],[-1.297387233022465,-1.6324191315941532,-1.2117172077115719,-1.2165170895939719,-0.9228460245259259],[5.243926287812876,5.214961666558305,5.299559215858068,5.063232008008976,4.944060960547964],[-1.1263188616099118,-1.701870673983881,-0.6043204787704257,-0.9475751537248192,-1.412126949368124],[0.776640099907469,1.84532236495178,1.44711932514905,1.4884921101034685,0.695173515689437],[2.6568609329783253,1.4986541388492698,2.566689695086098,2.2516707909107128,1.821542502844477]],"RowLength":24,"ColoumnLength":5,"ElementCount":120,"Sum":640.4126792716497,"Average":5.3367723272637475},"Biases":{"Values":[[11.51718512501886],[-10.822072547740381],[11.734162266791165],[-10.303721579559282],[-10.907912899701326],[-10.699137969843749],[-10.41515428396908],[12.082409843661155],[-10.997244867021166],[-83.9565365507821],[11.69230815169905],[-10.401774958872807],[-10.967565806376149],[-10.720719191770575],[-10.4890871316802],[-10.395444283810873],[-11.80899622357511],[-10.458780615216412],[11.725438823264174],[-10.728719210478525],[13.209405185994388],[-10.1210504234217],[11.77954065742065],[11.744484250357706]],"RowLength":24,"ColoumnLength":1,"ElementCount":24,"Sum":-148.70898423961225,"Average":-6.19620767665051},"NumberOfPerceptrons":24,"Gradients":{"Values":[[0],[0],[0],[0],[0],[0],[0],[0],[0],[0],[0],[0],[0],[0],[0],[0],[0],[0],[0],[0],[0],[0],[0],[0]],"RowLength":24,"ColoumnLength":1,"ElementCount":24,"Sum":0,"Average":0}},{"$type":"MyMachineLearningLibrary.DenseLayer","ActivationFunction":{"$type":"MyMachineLearningLibrary.SigmoidActivationFunction"},"LayerOutputs":{"Values":[[1.2460041812492333E-05]],"RowLength":1,"ColoumnLength":1,"ElementCount":1,"Sum":1.2460041812492333E-05,"Average":1.2460041812492333E-05},"Weights":{"Values":[[-0.6180405125970215,0.2637907118255705,-0.8781593245632883,0.16369462161539436,0.2889706128530256,0.2338149370508933,0.1813809400071977,-1.2043727396292039,0.3241405264250172,-20.973057196508986,-0.8380518605650676,0.1724476060816917,0.2934675323590979,0.23017773089386864,0.19003603974290167,0.17453360945478505,20.296159933269088,0.17868264106987267,-0.8457461572155983,0.24439874505487574,-3.537858429440915,0.12814471416535606,-0.7863038191447389,-0.855362179153424]],"RowLength":1,"ColoumnLength":24,"ElementCount":24,"Sum":-7.173111316949606,"Average":-0.2988796382062336},"Biases":{"Values":[[-1.7293541253947833]],"RowLength":1,"ColoumnLength":1,"ElementCount":1,"Sum":-1.7293541253947833,"Average":-1.7293541253947833},"NumberOfPerceptrons":1,"Gradients":{"Values":[[0]],"RowLength":1,"ColoumnLength":1,"ElementCount":1,"Sum":0,"Average":0}}],"LearningRate":0.01,"NumberOfInputs":5,"LossFunction":{"$type":"MyMachineLearningLibrary.BinaryCrossEntropyLossFunction"}}