{"Layers":[{"$type":"MyMachineLearningLibrary.InputLayer","ActivationFunction":{"$type":"MyMachineLearningLibrary.SigmoidActivationFunction"},"LayerOutputs":{"Values":[[0.8151513414091673],[0.864154920304119],[0.8871488238748972],[0.1852904127571925],[0.7155198251260579],[0.7097553337527939],[0.10486806096131873],[0.5582026373650258],[0.5067177342954376],[0.4142621556412347]],"RowLength":10,"ColoumnLength":1,"ElementCount":10,"Sum":5.761071245487245,"Average":0.5761071245487245},"NumberOfPerceptrons":10,"Gradients":{"Values":[[0],[0],[0],[0],[0],[0],[0],[0],[0],[0]],"RowLength":10,"ColoumnLength":1,"ElementCount":10,"Sum":0,"Average":0}},{"$type":"MyMachineLearningLibrary.DenseLayer","NumberOfPerceptrons":20,"ActivationFunction":{"$type":"MyMachineLearningLibrary.SigmoidActivationFunction"},"Perceptrons":[{"$type":"MyMachineLearningLibrary.DensePerceptron","Output":0.0001731332620088863,"Weights":[-11.421628239476506,-10.86933687344243,-11.37251126891742,-11.38402297121333,-11.128006228554991,-11.336273943393849,-10.814347544274078,-11.033812562463071,-11.338742801726891,-11.410030488854728],"Bias":56.014089811637895,"ActivationFunction":{"$type":"MyMachineLearningLibrary.SigmoidActivationFunction"}},{"$type":"MyMachineLearningLibrary.DensePerceptron","Output":0.0011341527648697043,"Weights":[-8.897384034811653,-8.470750823309384,-8.986914908575192,-8.908544579380733,-8.781035086062074,-9.016873939052058,-8.621569213074444,-8.650981003647502,-8.806029547075083,-9.074734042404152],"Bias":44.052816818736325,"ActivationFunction":{"$type":"MyMachineLearningLibrary.SigmoidActivationFunction"}},{"$type":"MyMachineLearningLibrary.DensePerceptron","Output":0.9998688697892892,"Weights":[11.78970341291879,11.224578725597642,11.71990725455617,11.744969043329256,11.476094550578761,11.679678839445586,11.133664366035854,11.380436291929348,11.712225253482057,11.754270091512556],"Bias":-57.769895349060974,"ActivationFunction":{"$type":"MyMachineLearningLibrary.SigmoidActivationFunction"}},{"$type":"MyMachineLearningLibrary.DensePerceptron","Output":0.997769334712485,"Weights":[7.969422953185504,7.609937884357199,8.107240325798271,7.996479750554202,7.93813836950587,8.176117850576873,7.8131133877288335,7.77158791722134,7.8927104906605905,8.230367603597461],"Bias":-39.692540370108006,"ActivationFunction":{"$type":"MyMachineLearningLibrary.SigmoidActivationFunction"}},{"$type":"MyMachineLearningLibrary.DensePerceptron","Output":0.9990405395628877,"Weights":[9.125059025549145,8.683697980848505,9.203492768380258,9.133219503949594,8.988979517949412,9.224913452354512,8.820241936979514,8.86680826936551,9.03169547557787,9.282800769437506],"Bias":-45.12704603470202,"ActivationFunction":{"$type":"MyMachineLearningLibrary.SigmoidActivationFunction"}},{"$type":"MyMachineLearningLibrary.DensePerceptron","Output":0.9965180294117738,"Weights":[7.351111055847311,7.043816701487756,7.519056290705803,7.38654648922707,7.382624188372479,7.616278104042188,7.272409034390305,7.184464302444687,7.29058641448551,7.672292556122296],"Bias":-36.79547450438948,"ActivationFunction":{"$type":"MyMachineLearningLibrary.SigmoidActivationFunction"}},{"$type":"MyMachineLearningLibrary.DensePerceptron","Output":8.339369441527777E-05,"Weights":[-12.38653309203751,-11.803043033571354,-12.281006850752673,-12.327970021079823,-12.044140550838355,-12.23744702036063,-11.649874303221688,-11.94136125998869,-12.319585482721969,-12.314406320052676],"Bias":60.61879642049334,"ActivationFunction":{"$type":"MyMachineLearningLibrary.SigmoidActivationFunction"}},{"$type":"MyMachineLearningLibrary.DensePerceptron","Output":0.0011943956330023263,"Weights":[-8.826564605555149,-8.404650324007212,-8.919499522624536,-8.838637550723709,-8.716443959961378,-8.95223900348887,-8.559724602108341,-8.583801965756289,-8.736008137577132,-9.009976722014498],"Bias":43.71863746756668,"ActivationFunction":{"$type":"MyMachineLearningLibrary.SigmoidActivationFunction"}},{"$type":"MyMachineLearningLibrary.DensePerceptron","Output":0.0025500435824190124,"Weights":[-7.784424522011898,-7.440132279450762,-7.930588013424377,-7.813153351177054,-7.77204959253255,-8.007721209465625,-7.651102321010611,-7.595735215907744,-7.712135424668066,-8.063532753526093],"Bias":38.82432009869652,"ActivationFunction":{"$type":"MyMachineLearningLibrary.SigmoidActivationFunction"}},{"$type":"MyMachineLearningLibrary.DensePerceptron","Output":0.9988603908139594,"Weights":[8.890367620761113,8.464108819724066,8.980583675035227,8.902069157387297,8.774333603388591,9.010908504494076,8.61561785583134,8.64442050262493,8.799142735127433,9.067907906334032],"Bias":-44.0197132979265,"ActivationFunction":{"$type":"MyMachineLearningLibrary.SigmoidActivationFunction"}},{"$type":"MyMachineLearningLibrary.DensePerceptron","Output":0.001587694411329161,"Weights":[-8.437623368313302,-8.042730576030326,-8.551096444655055,-8.456606929275637,-8.36228101566901,-8.59957264225422,-8.221180094853288,-8.215446424780957,-8.35213836193842,-8.655607302151987],"Bias":41.890105802298976,"ActivationFunction":{"$type":"MyMachineLearningLibrary.SigmoidActivationFunction"}},{"$type":"MyMachineLearningLibrary.DensePerceptron","Output":0.99811441592293,"Weights":[8.200655200920652,7.823200087806786,8.326211494603552,8.223603095167775,8.147120114235626,8.384948841100716,8.014459671708037,7.990716860337677,8.119223530778646,8.439701085890364],"Bias":-40.775936731543275,"ActivationFunction":{"$type":"MyMachineLearningLibrary.SigmoidActivationFunction"}},{"$type":"MyMachineLearningLibrary.DensePerceptron","Output":0.9996477104167825,"Weights":[10.475854126149574,9.96190669511641,10.481098872142804,10.458634434680995,10.23904880665564,10.461793217235256,9.99434417409818,10.143035515487437,10.382689247407688,10.528771694284893],"Bias":-51.5177888251462,"ActivationFunction":{"$type":"MyMachineLearningLibrary.SigmoidActivationFunction"}},{"$type":"MyMachineLearningLibrary.DensePerceptron","Output":0.010452102887823079,"Weights":[-5.795926736774865,-5.647033087894238,-6.034723528948432,-5.846227585238688,-6.001861152221869,-6.202868764256269,-5.903395259302839,-5.70766301719769,-5.799587271910076,-6.280008637386384],"Bias":29.533375407875628,"ActivationFunction":{"$type":"MyMachineLearningLibrary.SigmoidActivationFunction"}},{"$type":"MyMachineLearningLibrary.DensePerceptron","Output":0.9998924047732436,"Weights":[12.051157883020474,11.47754556810166,11.966088398103812,12.000823031404593,11.724260150942035,11.923918001610318,11.360036498324737,11.626384265629584,11.977891111827404,11.999289837110302],"Bias":-59.017656877653245,"ActivationFunction":{"$type":"MyMachineLearningLibrary.SigmoidActivationFunction"}},{"$type":"MyMachineLearningLibrary.DensePerceptron","Output":0.001134121805972987,"Weights":[-8.896927224596114,-8.470383770149027,-8.985929007340271,-8.907522857336218,-8.780787817461212,-9.01596496045074,-8.620825237188185,-8.650331388482197,-8.805712639120667,-9.074213536375288],"Bias":44.04939705037669,"ActivationFunction":{"$type":"MyMachineLearningLibrary.SigmoidActivationFunction"}},{"$type":"MyMachineLearningLibrary.DensePerceptron","Output":0.9815385201421931,"Weights":[4.970736091142804,4.919605998904137,5.246762192627259,5.029005246860889,5.271641483419261,5.44717250155042,5.1697533461710945,4.9278630914512505,5.019783177085946,5.538733979383638],"Bias":-25.685367457484286,"ActivationFunction":{"$type":"MyMachineLearningLibrary.SigmoidActivationFunction"}},{"$type":"MyMachineLearningLibrary.DensePerceptron","Output":0.0019038824158607007,"Weights":[-8.188136079864396,-7.811792636680379,-8.314385282782647,-8.211135175355023,-8.136197951903842,-8.373521401063481,-8.003701672356831,-7.978908076699603,-8.107010872664093,-8.42903806297778],"Bias":40.71849680426746,"ActivationFunction":{"$type":"MyMachineLearningLibrary.SigmoidActivationFunction"}},{"$type":"MyMachineLearningLibrary.DensePerceptron","Output":0.0009478930652040347,"Weights":[-9.140957108278533,-8.698820134854804,-9.217147846632814,-9.147280242137152,-9.004195997524631,-9.23802656951936,-8.833244026055928,-8.881332945506077,-9.047740353849763,-9.29756869727782],"Bias":45.19956573543006,"ActivationFunction":{"$type":"MyMachineLearningLibrary.SigmoidActivationFunction"}},{"$type":"MyMachineLearningLibrary.DensePerceptron","Output":0.009066295603672846,"Weights":[-5.999997483335889,-5.828243456320128,-6.2299028066786475,-6.048749073848599,-6.182312273577167,-6.389282398521553,-6.084130021763333,-5.901214785462719,-5.993557959394568,-6.462578200718512],"Bias":30.485696121791655,"ActivationFunction":{"$type":"MyMachineLearningLibrary.SigmoidActivationFunction"}}],"Gradients":{"Values":[[0],[0],[0],[0],[0],[0],[0],[0],[0],[0],[0],[0],[0],[0],[0],[0],[0],[0],[0],[0]],"RowLength":20,"ColoumnLength":1,"ElementCount":20,"Sum":0,"Average":0},"Weights":{"Values":[[-11.421628239476506,-10.86933687344243,-11.37251126891742,-11.38402297121333,-11.128006228554991,-11.336273943393849,-10.814347544274078,-11.033812562463071,-11.338742801726891,-11.410030488854728],[-8.897384034811653,-8.470750823309384,-8.986914908575192,-8.908544579380733,-8.781035086062074,-9.016873939052058,-8.621569213074444,-8.650981003647502,-8.806029547075083,-9.074734042404152],[11.78970341291879,11.224578725597642,11.71990725455617,11.744969043329256,11.476094550578761,11.679678839445586,11.133664366035854,11.380436291929348,11.712225253482057,11.754270091512556],[7.969422953185504,7.609937884357199,8.107240325798271,7.996479750554202,7.93813836950587,8.176117850576873,7.8131133877288335,7.77158791722134,7.8927104906605905,8.230367603597461],[9.125059025549145,8.683697980848505,9.203492768380258,9.133219503949594,8.988979517949412,9.224913452354512,8.820241936979514,8.86680826936551,9.03169547557787,9.282800769437506],[7.351111055847311,7.043816701487756,7.519056290705803,7.38654648922707,7.382624188372479,7.616278104042188,7.272409034390305,7.184464302444687,7.29058641448551,7.672292556122296],[-12.38653309203751,-11.803043033571354,-12.281006850752673,-12.327970021079823,-12.044140550838355,-12.23744702036063,-11.649874303221688,-11.94136125998869,-12.319585482721969,-12.314406320052676],[-8.826564605555149,-8.404650324007212,-8.919499522624536,-8.838637550723709,-8.716443959961378,-8.95223900348887,-8.559724602108341,-8.583801965756289,-8.736008137577132,-9.009976722014498],[-7.784424522011898,-7.440132279450762,-7.930588013424377,-7.813153351177054,-7.77204959253255,-8.007721209465625,-7.651102321010611,-7.595735215907744,-7.712135424668066,-8.063532753526093],[8.890367620761113,8.464108819724066,8.980583675035227,8.902069157387297,8.774333603388591,9.010908504494076,8.61561785583134,8.64442050262493,8.799142735127433,9.067907906334032],[-8.437623368313302,-8.042730576030326,-8.551096444655055,-8.456606929275637,-8.36228101566901,-8.59957264225422,-8.221180094853288,-8.215446424780957,-8.35213836193842,-8.655607302151987],[8.200655200920652,7.823200087806786,8.326211494603552,8.223603095167775,8.147120114235626,8.384948841100716,8.014459671708037,7.990716860337677,8.119223530778646,8.439701085890364],[10.475854126149574,9.96190669511641,10.481098872142804,10.458634434680995,10.23904880665564,10.461793217235256,9.99434417409818,10.143035515487437,10.382689247407688,10.528771694284893],[-5.795926736774865,-5.647033087894238,-6.034723528948432,-5.846227585238688,-6.001861152221869,-6.202868764256269,-5.903395259302839,-5.70766301719769,-5.799587271910076,-6.280008637386384],[12.051157883020474,11.47754556810166,11.966088398103812,12.000823031404593,11.724260150942035,11.923918001610318,11.360036498324737,11.626384265629584,11.977891111827404,11.999289837110302],[-8.896927224596114,-8.470383770149027,-8.985929007340271,-8.907522857336218,-8.780787817461212,-9.01596496045074,-8.620825237188185,-8.650331388482197,-8.805712639120667,-9.074213536375288],[4.970736091142804,4.919605998904137,5.246762192627259,5.029005246860889,5.271641483419261,5.44717250155042,5.1697533461710945,4.9278630914512505,5.019783177085946,5.538733979383638],[-8.188136079864396,-7.811792636680379,-8.314385282782647,-8.211135175355023,-8.136197951903842,-8.373521401063481,-8.003701672356831,-7.978908076699603,-8.107010872664093,-8.42903806297778],[-9.140957108278533,-8.698820134854804,-9.217147846632814,-9.147280242137152,-9.004195997524631,-9.23802656951936,-8.833244026055928,-8.881332945506077,-9.047740353849763,-9.29756869727782],[-5.999997483335889,-5.828243456320128,-6.2299028066786475,-6.048749073848599,-6.182312273577167,-6.389282398521553,-6.084130021763333,-5.901214785462719,-5.993557959394568,-6.462578200718512]],"RowLength":20,"ColoumnLength":10,"ElementCount":200,"Sum":-149.65363814320867,"Average":-0.7482681907160433},"LayerOutputs":{"Values":[[0.0001731332620088863],[0.0011341527648697043],[0.9998688697892892],[0.997769334712485],[0.9990405395628877],[0.9965180294117738],[8.339369441527777E-05],[0.0011943956330023263],[0.0025500435824190124],[0.9988603908139594],[0.001587694411329161],[0.99811441592293],[0.9996477104167825],[0.010452102887823079],[0.9998924047732436],[0.001134121805972987],[0.9815385201421931],[0.0019038824158607007],[0.0009478930652040347],[0.009066295603672846]],"RowLength":20,"ColoumnLength":1,"ElementCount":20,"Sum":9.001477324672122,"Average":0.45007386623360607}},{"$type":"MyMachineLearningLibrary.DenseLayer","NumberOfPerceptrons":15,"ActivationFunction":{"$type":"MyMachineLearningLibrary.SigmoidActivationFunction"},"Perceptrons":[{"$type":"MyMachineLearningLibrary.DensePerceptron","Output":1.9272886046166145E-06,"Weights":[1.8472760781258453,0.4266885483565847,-3.0366522538147827,-0.707467214601068,-1.210075064142838,-0.34680810612846025,3.0013410505006206,1.993639215457027,1.7677524884319433,-1.9235510347621791,0.8223587002110678,-1.3578831126458395,-1.6804885393097801,-0.09546868212826477,-3.2841535968130176,1.1651998050812549,-0.18988888936279938,1.1182267967515445,1.7137680565756206,0.27437594302592727],"Bias":0.5482115202104096,"ActivationFunction":{"$type":"MyMachineLearningLibrary.SigmoidActivationFunction"}},{"$type":"MyMachineLearningLibrary.DensePerceptron","Output":0.9999999260614539,"Weights":[-3.537403435139072,-1.8133773723021747,3.0625142144810025,1.981160155567638,1.6633750531195994,0.9692028293880735,-3.8349887672522414,-1.7072882243103453,-0.8456255811150717,1.9282641018641657,-1.2042823742829687,1.3132069303661864,1.1381967205566095,-1.5004211611085803,3.180439950011017,-1.9692770086590055,0.15375021804406575,-0.225021301599559,-1.763074005107087,-1.043531483966683],"Bias":1.0865411687102287,"ActivationFunction":{"$type":"MyMachineLearningLibrary.SigmoidActivationFunction"}},{"$type":"MyMachineLearningLibrary.DensePerceptron","Output":1.8308071550344606E-05,"Weights":[2.470746383527618,1.124890330991466,-2.0834202122316094,-0.7111074722566696,-1.4263844316213747,-0.16094075888611029,0.7866937086990484,1.2303834279979824,1.284672252866123,-0.3290651178460842,1.7654374551396026,-0.3766454346407106,-2.2311671122695285,1.098973493575627,-2.359444676260422,1.0166518416328527,-0.7152641313734288,1.576263029493983,0.31636297431149535,-0.18239711515519227],"Bias":-0.5574336862111119,"ActivationFunction":{"$type":"MyMachineLearningLibrary.SigmoidActivationFunction"}},{"$type":"MyMachineLearningLibrary.DensePerceptron","Output":2.1384431653904617E-05,"Weights":[1.2559791685037847,1.434778867073076,-2.5193154367575588,-1.0513539230906417,-0.4314353658886313,-0.09374605624695748,2.0757924189321324,1.9287499574202207,1.2429548931930197,-1.900476339862274,1.145357331090239,-0.6131447854375105,-0.5391637272848555,0.8758388164953249,-2.1596603440517192,0.7690999622084742,-1.00642672452014,1.0593052732903336,0.4861735369624871,-0.04156363350545079],"Bias":-0.4852806136443581,"ActivationFunction":{"$type":"MyMachineLearningLibrary.SigmoidActivationFunction"}},{"$type":"MyMachineLearningLibrary.DensePerceptron","Output":0.9998733494891106,"Weights":[-0.8520708765306996,-1.4573277450084319,1.8024305861959624,1.5297744242236646,1.4583253586957408,0.13829356004471455,-1.9745121377342738,-0.348564705909619,-1.3659794637440312,0.3545699255828605,-0.7065609865573443,0.28924156854733607,0.9221339008997124,-0.6947883957116463,1.360607718659202,-0.4860235488995504,-0.17454360624700826,-1.463414558987349,-1.2243768116868294,-0.43066820635402014],"Bias":1.3194979127936477,"ActivationFunction":{"$type":"MyMachineLearningLibrary.SigmoidActivationFunction"}},{"$type":"MyMachineLearningLibrary.DensePerceptron","Output":1.6008638910486464E-06,"Weights":[2.3150772530997887,0.9724777654450972,-2.956746734405168,-0.18107945207930595,-1.0424809540892432,-0.9843714166301296,3.7511258294211807,0.8404543034312348,0.4035284923586857,-1.0622634239450475,1.4213097749964965,-1.5362439389042897,-2.5690137119764196,0.20008986414572213,-3.4870021787884045,2.205202687332507,0.30693747752743894,0.6108787764273219,1.5529558755978832,0.4350856351326603],"Bias":0.1450803378553579,"ActivationFunction":{"$type":"MyMachineLearningLibrary.SigmoidActivationFunction"}},{"$type":"MyMachineLearningLibrary.DensePerceptron","Output":0.00026466774621260414,"Weights":[1.6193859639797796,1.358968218967632,-0.6669105059134894,-1.559948997041451,-1.1171501303981621,-1.5388573753362795,1.0555145523315919,0.6653427986333902,-0.18394983467644016,-0.3677528470557782,1.6299037840405695,-0.46372824426557524,-1.3152448760118511,-0.44402000214814513,-1.0845754566065173,0.29841237492793615,-0.2749581417168733,1.170813709156968,0.17247262394165244,1.3743846721331072],"Bias":0.12003529741276484,"ActivationFunction":{"$type":"MyMachineLearningLibrary.SigmoidActivationFunction"}},{"$type":"MyMachineLearningLibrary.DensePerceptron","Output":0.9999997432765775,"Weights":[-2.7843094407272972,-1.3912624553916648,3.2957188922274883,1.8403259784179036,2.2487804150077846,1.1956766451221454,-3.211888379203903,-1.8149504082340784,-1.0906353888655658,1.3654525841176988,-0.9125339970622823,1.5229924483771744,1.597952046606483,-0.16619182863652596,1.992972605554659,-1.25039085476793,0.4191934635152951,-1.7936298099275287,-1.6278603774096607,-0.5739699315849891],"Bias":-0.25795405807152355,"ActivationFunction":{"$type":"MyMachineLearningLibrary.SigmoidActivationFunction"}},{"$type":"MyMachineLearningLibrary.DensePerceptron","Output":0.99999897842644,"Weights":[-3.442088109491089,-0.7368188930744072,2.270721761026575,0.6039603003352139,1.4823863504212316,1.5165479433865559,-2.901249116140864,-0.48788903689442853,-1.1546487498284543,1.2305126490545668,-0.7712301426165815,1.1210082651180768,2.3303473041881073,-0.7048947795111532,3.3577347211303605,-1.7459941482528294,0.4675223918355265,-1.411719619030475,-1.3163883008745139,-0.11513491662773512],"Bias":-0.5441466278478965,"ActivationFunction":{"$type":"MyMachineLearningLibrary.SigmoidActivationFunction"}},{"$type":"MyMachineLearningLibrary.DensePerceptron","Output":0.999991585092055,"Weights":[-2.1008331561919342,-1.667170289911485,1.0690719877767132,1.5474229911030166,1.9396131460083668,1.0163739926744926,-1.7577257883232003,-1.7586133515755646,-1.1284822126302136,1.511766076691911,-1.7286744627777608,0.9340721866764785,1.725053130374375,-0.009918342933023646,1.395689187305121,-0.6464218385444607,0.23283024329626023,-0.9269082215376592,-0.24255146312541714,-1.1655638325156845],"Bias":0.35465929333154556,"ActivationFunction":{"$type":"MyMachineLearningLibrary.SigmoidActivationFunction"}},{"$type":"MyMachineLearningLibrary.DensePerceptron","Output":1.4308180636981484E-06,"Weights":[1.3453457775501885,1.259790521853107,-3.0762781407557007,-1.1540516148810196,-1.1079332815697602,-0.43812659710285057,2.688425497681405,0.7704167609764159,0.7515223867192622,-0.7276366366993052,1.240890960583198,-0.42107934900103156,-2.7129516763868096,0.9494881996224257,-2.994291391510014,1.7539051370467682,-0.6246352654771858,1.032595168394513,2.11465257910815,1.2655587443819307],"Bias":-0.25432818188738937,"ActivationFunction":{"$type":"MyMachineLearningLibrary.SigmoidActivationFunction"}},{"$type":"MyMachineLearningLibrary.DensePerceptron","Output":2.2396366366840287E-06,"Weights":[2.374790907191396,1.9424514632057095,-2.7804892382042494,-0.42593955614919576,-0.9186328943354383,-1.1970715810740409,2.9844183999409766,1.5451393015340187,0.6255186335597087,-0.6674548550689959,0.9533517746816892,-1.6283810776248164,-2.1313977041406718,0.864091997951217,-1.992984728941526,0.8261194684321691,-1.2467207149690664,1.5546871688405774,0.9937726108960656,-0.20211021015627056],"Bias":-0.07415467864057505,"ActivationFunction":{"$type":"MyMachineLearningLibrary.SigmoidActivationFunction"}},{"$type":"MyMachineLearningLibrary.DensePerceptron","Output":0.999998820310355,"Weights":[-2.1421457952762415,-1.8587646874463957,2.6244146754521527,0.13658031199037632,0.7512560763261791,0.9554471571365792,-3.889600644695065,-0.56475903578836,-1.132926155747064,1.7742746957124473,-0.3854005482286712,1.2441015262490762,2.5553525073243843,-0.046295851978013135,3.295599131092203,-0.6281553623908929,1.1571712630236333,-0.7659967763479085,-2.4707909875636034,-0.5194275697302955],"Bias":-0.795572352162975,"ActivationFunction":{"$type":"MyMachineLearningLibrary.SigmoidActivationFunction"}},{"$type":"MyMachineLearningLibrary.DensePerceptron","Output":3.29103694995719E-05,"Weights":[2.173834756790118,1.6332578737711556,-1.865418091916054,-0.9831167114400544,-1.5873331549644836,-0.5220507283570512,2.161870032348612,0.757035668744224,1.0568632558073017,-0.35563093358578046,1.9256997919357481,-0.6161454676998942,-1.6662712751498854,-0.33662073450251573,-1.931394326179782,1.1519723108856021,0.4086623911594368,1.4233970528785773,0.5396103673021041,-0.020823283536480393],"Bias":-1.2134737542169438,"ActivationFunction":{"$type":"MyMachineLearningLibrary.SigmoidActivationFunction"}},{"$type":"MyMachineLearningLibrary.DensePerceptron","Output":5.396091837434347E-06,"Weights":[2.3192608425905177,0.57492791847996,-1.9140959854883126,-1.0351124382154586,-1.759014441515098,-0.3445679595735673,2.597369852305542,1.914230801713276,0.38244533233056555,-1.5306331054724405,1.8923771830505989,-0.20835353226212408,-2.224458530370304,0.3245510025774536,-3.254009349351018,0.77495092121954,0.23455586162605876,1.0962691511385136,0.5190961152119189,1.1067847227467746],"Bias":-0.12295000297222924,"ActivationFunction":{"$type":"MyMachineLearningLibrary.SigmoidActivationFunction"}}],"Gradients":{"Values":[[0],[0],[0],[0],[0],[0],[0],[0],[0],[0],[0],[0],[0],[0],[0]],"RowLength":15,"ColoumnLength":1,"ElementCount":15,"Sum":0,"Average":0},"Weights":{"Values":[[1.8472760781258453,0.4266885483565847,-3.0366522538147827,-0.707467214601068,-1.210075064142838,-0.34680810612846025,3.0013410505006206,1.993639215457027,1.7677524884319433,-1.9235510347621791,0.8223587002110678,-1.3578831126458395,-1.6804885393097801,-0.09546868212826477,-3.2841535968130176,1.1651998050812549,-0.18988888936279938,1.1182267967515445,1.7137680565756206,0.27437594302592727],[-3.537403435139072,-1.8133773723021747,3.0625142144810025,1.981160155567638,1.6633750531195994,0.9692028293880735,-3.8349887672522414,-1.7072882243103453,-0.8456255811150717,1.9282641018641657,-1.2042823742829687,1.3132069303661864,1.1381967205566095,-1.5004211611085803,3.180439950011017,-1.9692770086590055,0.15375021804406575,-0.225021301599559,-1.763074005107087,-1.043531483966683],[2.470746383527618,1.124890330991466,-2.0834202122316094,-0.7111074722566696,-1.4263844316213747,-0.16094075888611029,0.7866937086990484,1.2303834279979824,1.284672252866123,-0.3290651178460842,1.7654374551396026,-0.3766454346407106,-2.2311671122695285,1.098973493575627,-2.359444676260422,1.0166518416328527,-0.7152641313734288,1.576263029493983,0.31636297431149535,-0.18239711515519227],[1.2559791685037847,1.434778867073076,-2.5193154367575588,-1.0513539230906417,-0.4314353658886313,-0.09374605624695748,2.0757924189321324,1.9287499574202207,1.2429548931930197,-1.900476339862274,1.145357331090239,-0.6131447854375105,-0.5391637272848555,0.8758388164953249,-2.1596603440517192,0.7690999622084742,-1.00642672452014,1.0593052732903336,0.4861735369624871,-0.04156363350545079],[-0.8520708765306996,-1.4573277450084319,1.8024305861959624,1.5297744242236646,1.4583253586957408,0.13829356004471455,-1.9745121377342738,-0.348564705909619,-1.3659794637440312,0.3545699255828605,-0.7065609865573443,0.28924156854733607,0.9221339008997124,-0.6947883957116463,1.360607718659202,-0.4860235488995504,-0.17454360624700826,-1.463414558987349,-1.2243768116868294,-0.43066820635402014],[2.3150772530997887,0.9724777654450972,-2.956746734405168,-0.18107945207930595,-1.0424809540892432,-0.9843714166301296,3.7511258294211807,0.8404543034312348,0.4035284923586857,-1.0622634239450475,1.4213097749964965,-1.5362439389042897,-2.5690137119764196,0.20008986414572213,-3.4870021787884045,2.205202687332507,0.30693747752743894,0.6108787764273219,1.5529558755978832,0.4350856351326603],[1.6193859639797796,1.358968218967632,-0.6669105059134894,-1.559948997041451,-1.1171501303981621,-1.5388573753362795,1.0555145523315919,0.6653427986333902,-0.18394983467644016,-0.3677528470557782,1.6299037840405695,-0.46372824426557524,-1.3152448760118511,-0.44402000214814513,-1.0845754566065173,0.29841237492793615,-0.2749581417168733,1.170813709156968,0.17247262394165244,1.3743846721331072],[-2.7843094407272972,-1.3912624553916648,3.2957188922274883,1.8403259784179036,2.2487804150077846,1.1956766451221454,-3.211888379203903,-1.8149504082340784,-1.0906353888655658,1.3654525841176988,-0.9125339970622823,1.5229924483771744,1.597952046606483,-0.16619182863652596,1.992972605554659,-1.25039085476793,0.4191934635152951,-1.7936298099275287,-1.6278603774096607,-0.5739699315849891],[-3.442088109491089,-0.7368188930744072,2.270721761026575,0.6039603003352139,1.4823863504212316,1.5165479433865559,-2.901249116140864,-0.48788903689442853,-1.1546487498284543,1.2305126490545668,-0.7712301426165815,1.1210082651180768,2.3303473041881073,-0.7048947795111532,3.3577347211303605,-1.7459941482528294,0.4675223918355265,-1.411719619030475,-1.3163883008745139,-0.11513491662773512],[-2.1008331561919342,-1.667170289911485,1.0690719877767132,1.5474229911030166,1.9396131460083668,1.0163739926744926,-1.7577257883232003,-1.7586133515755646,-1.1284822126302136,1.511766076691911,-1.7286744627777608,0.9340721866764785,1.725053130374375,-0.009918342933023646,1.395689187305121,-0.6464218385444607,0.23283024329626023,-0.9269082215376592,-0.24255146312541714,-1.1655638325156845],[1.3453457775501885,1.259790521853107,-3.0762781407557007,-1.1540516148810196,-1.1079332815697602,-0.43812659710285057,2.688425497681405,0.7704167609764159,0.7515223867192622,-0.7276366366993052,1.240890960583198,-0.42107934900103156,-2.7129516763868096,0.9494881996224257,-2.994291391510014,1.7539051370467682,-0.6246352654771858,1.032595168394513,2.11465257910815,1.2655587443819307],[2.374790907191396,1.9424514632057095,-2.7804892382042494,-0.42593955614919576,-0.9186328943354383,-1.1970715810740409,2.9844183999409766,1.5451393015340187,0.6255186335597087,-0.6674548550689959,0.9533517746816892,-1.6283810776248164,-2.1313977041406718,0.864091997951217,-1.992984728941526,0.8261194684321691,-1.2467207149690664,1.5546871688405774,0.9937726108960656,-0.20211021015627056],[-2.1421457952762415,-1.8587646874463957,2.6244146754521527,0.13658031199037632,0.7512560763261791,0.9554471571365792,-3.889600644695065,-0.56475903578836,-1.132926155747064,1.7742746957124473,-0.3854005482286712,1.2441015262490762,2.5553525073243843,-0.046295851978013135,3.295599131092203,-0.6281553623908929,1.1571712630236333,-0.7659967763479085,-2.4707909875636034,-0.5194275697302955],[2.173834756790118,1.6332578737711556,-1.865418091916054,-0.9831167114400544,-1.5873331549644836,-0.5220507283570512,2.161870032348612,0.757035668744224,1.0568632558073017,-0.35563093358578046,1.9256997919357481,-0.6161454676998942,-1.6662712751498854,-0.33662073450251573,-1.931394326179782,1.1519723108856021,0.4086623911594368,1.4233970528785773,0.5396103673021041,-0.020823283536480393],[2.3192608425905177,0.57492791847996,-1.9140959854883126,-1.0351124382154586,-1.759014441515098,-0.3445679595735673,2.597369852305542,1.914230801713276,0.38244533233056555,-1.5306331054724405,1.8923771830505989,-0.20835353226212408,-2.224458530370304,0.3245510025774536,-3.254009349351018,0.77495092121954,0.23455586162605876,1.0962691511385136,0.5190961152119189,1.1067847227467746]],"RowLength":15,"ColoumnLength":20,"ElementCount":300,"Sum":3.4433942774804382,"Average":0.011477980924934794},"LayerOutputs":{"Values":[[1.9272886046166145E-06],[0.9999999260614539],[1.8308071550344606E-05],[2.1384431653904617E-05],[0.9998733494891106],[1.6008638910486464E-06],[0.00026466774621260414],[0.9999997432765775],[0.99999897842644],[0.999991585092055],[1.4308180636981484E-06],[2.2396366366840287E-06],[0.999998820310355],[3.29103694995719E-05],[5.396091837434347E-06]],"RowLength":15,"ColoumnLength":1,"ElementCount":15,"Sum":6.000212267973944,"Average":0.40001415119826295}},{"$type":"MyMachineLearningLibrary.DenseLayer","NumberOfPerceptrons":10,"ActivationFunction":{"$type":"MyMachineLearningLibrary.SigmoidActivationFunction"},"Perceptrons":[{"$type":"MyMachineLearningLibrary.DensePerceptron","Output":0.9986725228987395,"Weights":[-1.5750166477318546,2.0520483517522643,-0.4218533737322304,-0.7645512438746647,0.232643613819315,-1.003327082718753,-0.05461611491575414,1.3887282151265992,1.0679191161615647,1.0064781709604618,-1.21110386579573,-1.0508387692058498,0.7283155667525587,-1.1123063291033741,0.020580913536175204],"Bias":0.14713780429582998,"ActivationFunction":{"$type":"MyMachineLearningLibrary.SigmoidActivationFunction"}},{"$type":"MyMachineLearningLibrary.DensePerceptron","Output":0.9959043510348765,"Weights":[-1.227804668805327,1.2045250433943389,-0.9829454754015401,0.06759088216313346,1.2541495001709224,-0.499784361943348,-0.5860933815769118,0.3375150911049902,0.8171504561881218,0.8417626491989963,-1.0153109523647676,-0.18530594716644577,1.4605860451196069,-0.1698704977318767,-0.7916187536435366],"Bias":-0.4216075255792806,"ActivationFunction":{"$type":"MyMachineLearningLibrary.SigmoidActivationFunction"}},{"$type":"MyMachineLearningLibrary.DensePerceptron","Output":0.0032274908212938927,"Weights":[0.6780532890048007,-1.5923230816638791,0.5615777318395656,0.6347838847410237,-0.3115882600911483,0.4131928732913464,-0.5353185832910734,-1.3210566810533046,-0.9537494420309013,-0.8155214592978925,1.7878707501351883,1.9625009045726252,-0.9021599818570905,0.36694276916461127,0.1461499013172305],"Bias":0.16362855596083437,"ActivationFunction":{"$type":"MyMachineLearningLibrary.SigmoidActivationFunction"}},{"$type":"MyMachineLearningLibrary.DensePerceptron","Output":0.004173741127719806,"Weights":[1.6548977089164445,-0.2542898512661223,0.12080249163491762,0.05775797793419549,0.02619135735211776,1.318573956315845,0.4769844244246295,-2.067764368101226,-2.0648398858520656,0.042754295120599604,0.8325853481672315,0.06450271285379516,-1.222903818475118,0.654871018713683,0.5763062962366065],"Bias":0.065930842862431,"ActivationFunction":{"$type":"MyMachineLearningLibrary.SigmoidActivationFunction"}},{"$type":"MyMachineLearningLibrary.DensePerceptron","Output":0.0007481176707429284,"Weights":[1.6470582229408295,-2.0599573084571743,0.023929193061100907,0.21364887727728005,-0.5819022157563065,1.6399967255222194,0.7496928175450952,-1.4225415806724604,-0.5848729417527165,-0.42673044304378205,0.8713298146459301,1.1754149499850859,-1.6115700638099826,0.6142314572966389,0.8171884832598875],"Bias":-0.5099453620553588,"ActivationFunction":{"$type":"MyMachineLearningLibrary.SigmoidActivationFunction"}},{"$type":"MyMachineLearningLibrary.DensePerceptron","Output":0.9967479512736379,"Weights":[-0.6732028755245465,0.6591369495911488,-1.8108720231626827,0.0854774589491036,0.06673578734450623,-0.3648772910270378,-0.24541943976673064,1.3234011727046875,1.2922734485920133,0.19946169505352285,-0.5721815308859741,-0.4254821245059703,1.551762657519953,-1.3447991828511259,-1.3676788827427484],"Bias":0.6326062858260411,"ActivationFunction":{"$type":"MyMachineLearningLibrary.SigmoidActivationFunction"}},{"$type":"MyMachineLearningLibrary.DensePerceptron","Output":0.9976737704192197,"Weights":[-0.5127342409590308,0.5193963937657492,-0.7192936291917029,-0.25631349165671097,0.6623470388622467,-1.5671636503953303,-0.08621000545342375,1.493848367951869,0.2893992829084215,1.2155187974473267,-1.4433853125986296,-1.2555826838872093,1.1820955423148638,-1.0178399554390583,-0.25209777042987025],"Bias":0.6987530909820175,"ActivationFunction":{"$type":"MyMachineLearningLibrary.SigmoidActivationFunction"}},{"$type":"MyMachineLearningLibrary.DensePerceptron","Output":0.991791232817047,"Weights":[-0.2118987973537803,1.0718977129814433,-0.6360259150238898,0.17261401298204934,0.02567793575879075,-0.8146729140309958,0.5777391398715888,0.6514713241874682,0.6800571285350667,0.29602392419741663,-1.2693046987718362,-0.16406028807428544,1.6884883044017476,-1.4994157921278681,-1.7087353995380739],"Bias":0.3806197353666841,"ActivationFunction":{"$type":"MyMachineLearningLibrary.SigmoidActivationFunction"}},{"$type":"MyMachineLearningLibrary.DensePerceptron","Output":0.001281352811945847,"Weights":[0.7639974881559968,-2.1765883729461892,0.2337066962841013,1.0279903178970544,-0.011969757824549232,1.4231172379603725,0.9336354857938103,-1.5249497752624857,-2.226766301750561,-0.384055590718328,0.27264565809187025,0.45164841257275334,-0.9028784676425174,-0.3608793157299878,1.5817963076413926],"Bias":0.5683677498555195,"ActivationFunction":{"$type":"MyMachineLearningLibrary.SigmoidActivationFunction"}},{"$type":"MyMachineLearningLibrary.DensePerceptron","Output":0.002925775530416467,"Weights":[0.14425295384579465,-1.5829575576615973,1.0739555459624968,1.2475658336627624,-0.37752051151430366,1.483715284710767,-0.4241517156022236,-0.47742283447837136,-0.969960247615944,-0.7034175372820941,1.229574914018272,0.8633406376510228,-1.0114382983169243,-0.217152435431387,1.5846531026970587],"Bias":-0.7085466313887241,"ActivationFunction":{"$type":"MyMachineLearningLibrary.SigmoidActivationFunction"}}],"Gradients":{"Values":[[0],[0],[0],[0],[0],[0],[0],[0],[0],[0]],"RowLength":10,"ColoumnLength":1,"ElementCount":10,"Sum":0,"Average":0},"Weights":{"Values":[[-1.5750166477318546,2.0520483517522643,-0.4218533737322304,-0.7645512438746647,0.232643613819315,-1.003327082718753,-0.05461611491575414,1.3887282151265992,1.0679191161615647,1.0064781709604618,-1.21110386579573,-1.0508387692058498,0.7283155667525587,-1.1123063291033741,0.020580913536175204],[-1.227804668805327,1.2045250433943389,-0.9829454754015401,0.06759088216313346,1.2541495001709224,-0.499784361943348,-0.5860933815769118,0.3375150911049902,0.8171504561881218,0.8417626491989963,-1.0153109523647676,-0.18530594716644577,1.4605860451196069,-0.1698704977318767,-0.7916187536435366],[0.6780532890048007,-1.5923230816638791,0.5615777318395656,0.6347838847410237,-0.3115882600911483,0.4131928732913464,-0.5353185832910734,-1.3210566810533046,-0.9537494420309013,-0.8155214592978925,1.7878707501351883,1.9625009045726252,-0.9021599818570905,0.36694276916461127,0.1461499013172305],[1.6548977089164445,-0.2542898512661223,0.12080249163491762,0.05775797793419549,0.02619135735211776,1.318573956315845,0.4769844244246295,-2.067764368101226,-2.0648398858520656,0.042754295120599604,0.8325853481672315,0.06450271285379516,-1.222903818475118,0.654871018713683,0.5763062962366065],[1.6470582229408295,-2.0599573084571743,0.023929193061100907,0.21364887727728005,-0.5819022157563065,1.6399967255222194,0.7496928175450952,-1.4225415806724604,-0.5848729417527165,-0.42673044304378205,0.8713298146459301,1.1754149499850859,-1.6115700638099826,0.6142314572966389,0.8171884832598875],[-0.6732028755245465,0.6591369495911488,-1.8108720231626827,0.0854774589491036,0.06673578734450623,-0.3648772910270378,-0.24541943976673064,1.3234011727046875,1.2922734485920133,0.19946169505352285,-0.5721815308859741,-0.4254821245059703,1.551762657519953,-1.3447991828511259,-1.3676788827427484],[-0.5127342409590308,0.5193963937657492,-0.7192936291917029,-0.25631349165671097,0.6623470388622467,-1.5671636503953303,-0.08621000545342375,1.493848367951869,0.2893992829084215,1.2155187974473267,-1.4433853125986296,-1.2555826838872093,1.1820955423148638,-1.0178399554390583,-0.25209777042987025],[-0.2118987973537803,1.0718977129814433,-0.6360259150238898,0.17261401298204934,0.02567793575879075,-0.8146729140309958,0.5777391398715888,0.6514713241874682,0.6800571285350667,0.29602392419741663,-1.2693046987718362,-0.16406028807428544,1.6884883044017476,-1.4994157921278681,-1.7087353995380739],[0.7639974881559968,-2.1765883729461892,0.2337066962841013,1.0279903178970544,-0.011969757824549232,1.4231172379603725,0.9336354857938103,-1.5249497752624857,-2.226766301750561,-0.384055590718328,0.27264565809187025,0.45164841257275334,-0.9028784676425174,-0.3608793157299878,1.5817963076413926],[0.14425295384579465,-1.5829575576615973,1.0739555459624968,1.2475658336627624,-0.37752051151430366,1.483715284710767,-0.4241517156022236,-0.47742283447837136,-0.969960247615944,-0.7034175372820941,1.229574914018272,0.8633406376510228,-1.0114382983169243,-0.217152435431387,1.5846531026970587]],"RowLength":10,"ColoumnLength":15,"ElementCount":150,"Sum":-2.3225902457741023,"Average":-0.015483934971827349},"LayerOutputs":{"Values":[[0.9986725228987395],[0.9959043510348765],[0.0032274908212938927],[0.004173741127719806],[0.0007481176707429284],[0.9967479512736379],[0.9976737704192197],[0.991791232817047],[0.001281352811945847],[0.002925775530416467]],"RowLength":10,"ColoumnLength":1,"ElementCount":10,"Sum":4.993146306405639,"Average":0.4993146306405639}},{"$type":"MyMachineLearningLibrary.DenseLayer","NumberOfPerceptrons":5,"ActivationFunction":{"$type":"MyMachineLearningLibrary.SigmoidActivationFunction"},"Perceptrons":[{"$type":"MyMachineLearningLibrary.DensePerceptron","Output":0.9917303615206907,"Weights":[2.0426461222257375,0.13672449764727854,-1.323146930887884,0.26262755681431815,-2.061910580857648,1.1493340809485995,0.9949670364024258,-0.01708722887080328,-1.7466907472493687,-0.5182621755177119],"Bias":0.49793074669178056,"ActivationFunction":{"$type":"MyMachineLearningLibrary.SigmoidActivationFunction"}},{"$type":"MyMachineLearningLibrary.DensePerceptron","Output":0.9859252469028695,"Weights":[1.3623077383578417,1.1101013323302398,-0.8267750413161398,-0.5186435878371559,-0.7326018720259623,-0.24501727988947972,1.2581053496439745,0.8274978194833563,-1.01485055651632,-1.2040715557792843],"Bias":-0.03831507647703613,"ActivationFunction":{"$type":"MyMachineLearningLibrary.SigmoidActivationFunction"}},{"$type":"MyMachineLearningLibrary.DensePerceptron","Output":0.9812289159375092,"Weights":[0.1882256852991425,0.3830354455554855,-0.16520725045439372,-1.007429924404114,-0.9450752508501074,1.8230732263481058,0.9585058528824302,0.14205442188718628,-1.264828939720968,-1.2570565257164312],"Bias":0.4834802503398849,"ActivationFunction":{"$type":"MyMachineLearningLibrary.SigmoidActivationFunction"}},{"$type":"MyMachineLearningLibrary.DensePerceptron","Output":0.9934945163122295,"Weights":[1.7133769351808976,1.258531601392771,-0.2548648161126096,-0.9126934099493873,-1.5751153534763487,0.7103180758368852,0.7952172920423257,0.9808953633381727,-0.7112177012044574,-1.25225641363417],"Bias":-0.3997299966871776,"ActivationFunction":{"$type":"MyMachineLearningLibrary.SigmoidActivationFunction"}},{"$type":"MyMachineLearningLibrary.DensePerceptron","Output":0.06376518011124974,"Weights":[-0.21749989555081958,-0.253642978214806,1.3232653664432068,1.619041696844345,0.49100227056819573,-0.0854823701008297,-0.507414379621571,-0.49492951334819774,1.399346474061151,-0.24786005465761915],"Bias":-1.1470020716964002,"ActivationFunction":{"$type":"MyMachineLearningLibrary.SigmoidActivationFunction"}}],"Gradients":{"Values":[[0],[0],[0],[0],[0]],"RowLength":5,"ColoumnLength":1,"ElementCount":5,"Sum":0,"Average":0},"Weights":{"Values":[[2.0426461222257375,0.13672449764727854,-1.323146930887884,0.26262755681431815,-2.061910580857648,1.1493340809485995,0.9949670364024258,-0.01708722887080328,-1.7466907472493687,-0.5182621755177119],[1.3623077383578417,1.1101013323302398,-0.8267750413161398,-0.5186435878371559,-0.7326018720259623,-0.24501727988947972,1.2581053496439745,0.8274978194833563,-1.01485055651632,-1.2040715557792843],[0.1882256852991425,0.3830354455554855,-0.16520725045439372,-1.007429924404114,-0.9450752508501074,1.8230732263481058,0.9585058528824302,0.14205442188718628,-1.264828939720968,-1.2570565257164312],[1.7133769351808976,1.258531601392771,-0.2548648161126096,-0.9126934099493873,-1.5751153534763487,0.7103180758368852,0.7952172920423257,0.9808953633381727,-0.7112177012044574,-1.25225641363417],[-0.21749989555081958,-0.253642978214806,1.3232653664432068,1.619041696844345,0.49100227056819573,-0.0854823701008297,-0.507414379621571,-0.49492951334819774,1.399346474061151,-0.24786005465761915]],"RowLength":5,"ColoumnLength":10,"ElementCount":50,"Sum":1.568568907769484,"Average":0.03137137815538968},"LayerOutputs":{"Values":[[0.9917303615206907],[0.9859252469028695],[0.9812289159375092],[0.9934945163122295],[0.06376518011124974]],"RowLength":5,"ColoumnLength":1,"ElementCount":5,"Sum":4.016144220784549,"Average":0.8032288441569098}},{"$type":"MyMachineLearningLibrary.DenseLayer","NumberOfPerceptrons":1,"ActivationFunction":{"$type":"MyMachineLearningLibrary.SigmoidActivationFunction"},"Perceptrons":[{"$type":"MyMachineLearningLibrary.DensePerceptron","Output":0.9842115498906258,"Weights":[2.0522889398963526,1.1013369449638284,1.0648972699223431,1.8793913632599082,-1.1226435870391849],"Bias":-1.8290783918739737,"ActivationFunction":{"$type":"MyMachineLearningLibrary.SigmoidActivationFunction"}}],"Gradients":{"Values":[[0]],"RowLength":1,"ColoumnLength":1,"ElementCount":1,"Sum":0,"Average":0},"Weights":{"Values":[[2.0522889398963526,1.1013369449638284,1.0648972699223431,1.8793913632599082,-1.1226435870391849]],"RowLength":1,"ColoumnLength":5,"ElementCount":5,"Sum":4.975270931003248,"Average":0.9950541862006496},"LayerOutputs":{"Values":[[0.9842115498906258]],"RowLength":1,"ColoumnLength":1,"ElementCount":1,"Sum":0.9842115498906258,"Average":0.9842115498906258}}],"LearningRate":1E-05,"NumberOfInputs":10,"LossFunction":{"$type":"MyMachineLearningLibrary.BinaryCrossEntropyLossFunction"}}