{"Layers":[{"$type":"MyMachineLearningLibrary.InputLayer","ActivationFunction":null,"LayerOutputs":{"Values":[[0.8769525102883721],[0.1344959935319674],[0.4022738994473021],[0.7200825890757965],[0.7496800212703817],[0.42396619760739707],[0.8693064740119265],[0.6529489376334021],[0.20246391947144404],[0.49214774459899735]],"RowLength":10,"ColoumnLength":1,"ElementCount":10,"Sum":5.524318286936987,"Average":0.5524318286936987},"NumberOfPerceptrons":10,"Gradients":{"Values":[[0],[0],[0],[0],[0],[0],[0],[0],[0],[0]],"RowLength":10,"ColoumnLength":1,"ElementCount":10,"Sum":0,"Average":0}},{"$type":"MyMachineLearningLibrary.DenseLayer","ActivationFunction":{"$type":"MyMachineLearningLibrary.SigmoidActivationFunction"},"LayerOutputs":{"Values":[[2.3199184980599095E-08],[1],[2.714831538433443E-27],[3.2463310164502908E-06],[1.6546270413443366E-13],[1],[1],[6.679420931177251E-13],[0.9405103135346642],[0.9999999999999962],[3.5715503246855774E-34],[0.9999999068389209],[1],[4.389390913208814E-34],[1],[0.9999999999381479],[1.5621069786863176E-33],[1.77427275689799E-31],[5.256500747666529E-13],[7.135733461476296E-16]],"RowLength":20,"ColoumnLength":1,"ElementCount":20,"Sum":8.94051348984329,"Average":0.4470256744921645},"Weights":{"Values":[[-39.163048119327364,-38.70700250230463,-55.318167564912926,-41.061860382866264,-42.844191352273356,-41.583590010971555,-48.95177038546571,-42.77627207124666,-46.695878441764634,-47.264318774695425],[-18.332240775061493,-30.928312461484847,-37.512780531285074,-17.76101660971949,-28.95275882835731,-35.12912830507727,-27.472348473896908,-22.41390348594928,-28.187502509007974,-36.77418409220142],[19.76976235880244,23.29453700815706,35.04738137206394,33.1591053578843,40.31444562766715,27.388023499794123,18.05025351572008,20.86006597118286,27.577509256644912,28.138698469371587],[-33.94769879192903,-39.31051103673963,-39.84049742149424,-34.77504703917307,-39.57037106874976,-39.99410753673653,-40.14074794319081,-37.06405483369264,-30.24251585590297,-41.17643125283972],[-48.42316589598926,-44.224598408852735,-32.41624281722451,-37.94521559839954,-32.38464074370924,-32.12122969175007,-36.884150956524465,-43.11311896723581,-38.31080588767333,-35.94495456257376],[54.83402280629634,45.25284597337009,66.36801972499462,37.17827885149883,56.41693962525101,59.16641084579116,51.72879358225013,32.67573298245925,56.38551444742237,53.44217292279683],[63.04315581199763,42.30401059921959,45.05456713957238,38.00360956960646,36.918581144251334,45.1730574272067,49.44697999239467,45.49690465632147,52.50930338469748,56.09149565352067],[-41.10177768826295,-31.247242941697777,-41.761969525095246,-44.6254735871549,-43.512521940653336,-36.346211927199604,-33.11244225303957,-34.29838634225018,-31.86285683544241,-34.824393395360275],[32.03169643619327,42.93449610392401,57.634310768907405,39.19071108145003,41.551978807604684,30.304696675737986,33.21315798794418,33.60542592390987,29.04226932488641,46.81425246750112],[-35.45752681202869,-42.90613582708699,-34.16733495735697,-35.67898264821811,-37.012938912709544,-24.774322686963586,-29.5433772619461,-28.93038735991,-30.222778765215423,-22.25049964832143],[-42.51818738047221,-43.43274091692769,-57.95847512933468,-63.935831637889564,-49.61671614492484,-49.67037093823683,-57.154320735852956,-50.401905068218895,-54.29202457885221,-64.91791581119851],[44.59034593789655,52.50582540860413,44.10132392662378,59.994239625846426,38.061227502993894,46.07939156538258,46.7288112025731,55.71032754592222,49.33114717810332,37.76485703970868],[-16.001064085440813,-29.381331263526643,-34.51389088747847,-15.0638883553196,-26.488095966467103,-25.22315295772832,-19.130387490520434,-32.86029192997661,-18.408368130429164,-22.7943157366666],[32.21300120024701,18.656083411568,21.99979066836015,13.992854485889692,46.066308480991104,30.824787882861326,20.086705810749702,18.66922862424395,9.446099990065562,29.441702232478864],[-23.432810109827745,-19.256876479214032,-44.737872931021485,-44.56308678023344,-38.66716764193561,-26.39525217319299,-48.27578695174888,-30.083460839272973,-21.55183833386744,-31.485748176234402],[64.24813620369484,35.0604419149781,22.03113957332618,31.705260632850347,52.87315781452928,43.20950127811334,53.10819250164407,21.604901086106803,21.503925789680732,27.41653338233966],[13.672715204589261,30.431273048751386,37.557825556167344,16.005779559265342,27.753016356403815,33.240998950548956,26.35554905377974,19.34818985674014,28.062251240054128,34.35581373207621],[34.590930048385374,19.170351124764178,30.631478224489104,38.71631648349362,36.19387895974958,26.64559040331216,23.642402300917933,24.349403497582454,16.538011087842836,30.796148484634937],[15.366673611811619,9.595473565246946,5.036025749246851,7.365379630266187,12.48927396169594,11.107613858903798,12.967522205972195,6.124820962913455,7.050351245561025,11.949308460183394],[21.055007705518523,22.463545539057797,47.2225705589027,54.091423154983396,46.59464788964221,19.591819064766476,41.59842417849576,32.16222629518751,52.59488931892262,28.488079385808657]],"RowLength":20,"ColoumnLength":10,"ElementCount":200,"Sum":467.9003057051005,"Average":2.3395015285255023},"Biases":{"Values":[[226.74144876138996],[216.08326369242215],[-210.19531183594682],[195.59206188446217],[182.90422956158199],[-228.63688971738924],[-212.62472748139538],[183.9459526172122],[-206.24304121028626],[209.38898851060213],[219.25842083939855],[-244.5592923777979],[180.09304919033318],[-220.15047330545823],[250.76190084013973],[-205.32300115939793],[-211.2895957523235],[-237.3075489083936],[-87.02250504243874],[-239.37677286036813]],"RowLength":20,"ColoumnLength":1,"ElementCount":20,"Sum":-437.9598437536537,"Average":-21.897992187682682},"NumberOfPerceptrons":20,"Gradients":{"Values":[[0],[0],[0],[0],[0],[0],[0],[0],[0],[0],[0],[0],[0],[0],[0],[0],[0],[0],[0],[0]],"RowLength":20,"ColoumnLength":1,"ElementCount":20,"Sum":0,"Average":0}},{"$type":"MyMachineLearningLibrary.DenseLayer","ActivationFunction":{"$type":"MyMachineLearningLibrary.SigmoidActivationFunction"},"LayerOutputs":{"Values":[[0.9999695424405207],[0.00023534636643402038],[0.00016724857026238996],[9.340326860534984E-09],[0.9999962770581313],[0.00021993992449573634],[0.000986933246237605],[2.1114976556101836E-08],[0.9999690217958276],[0.9999375029870403],[0.9999999992974977],[0.9999999995573294],[2.387889784145148E-05],[2.7820920297707176E-05],[0.9999648706615173]],"RowLength":15,"ColoumnLength":1,"ElementCount":15,"Sum":7.001498412178736,"Average":0.46676656081191575},"Weights":{"Values":[[-3.666106555606336,-1.17690107252818,3.299050759008928,-3.353135953495923,-3.776489071418569,4.329202058201451,3.837523715651166,-2.9558951377076017,3.376922874887267,-3.052577802731542,-4.158722551819944,5.153121697193589,-1.3772492656504638,4.304932698260435,-4.138544576999337,3.522623568792664,3.7244259066164225,4.552495228260347,0.8763411527748887,3.882524727496763],[3.007711231257714,1.513095442335711,-3.2248945414519206,3.0493250083707895,3.2561916047937265,-3.7339069955292277,-3.7570765301354148,2.629765907031167,-3.341908628931631,3.328728967285744,3.563950188330058,-4.800765731828589,1.3437052277491859,-4.201699221023802,4.564335448040886,-3.1281681029766335,-3.5674759291713314,-4.825939615083369,0.018335327609156096,-4.088399183321555],[2.902384345398571,0.444891802160456,-1.5511621986592639,2.791171086780156,2.9207959101008374,-2.7060427100869338,-4.184384068384303,3.4500922663372435,-2.0067502609020758,3.4873069778606287,4.205944199089145,-1.4609398439462897,0.9230905099347544,-1.9389286575779854,2.7583568153848232,-2.237901616163691,-2.351743949609993,-3.0582011858046823,-1.1856525028613114,-2.8667151754146354],[3.6707767839962235,1.0926382854322192,-3.6696960360947672,3.804890475224366,2.4460673469773604,-5.627917223980428,-4.618158093910444,0.4729993217907606,-4.497886976451038,3.6761744321855607,2.968669741328467,-3.9376331512460863,0.31211846017653383,-4.4259258000574215,4.2294281207087625,-2.7067124825511586,-4.747736390556422,-5.029292345286944,-2.4845430249723397,-5.318366180518642],[-3.9784390039561224,-1.1325632663049634,3.4568419580800906,-3.8305012733720645,-4.0097697217823205,4.858976870225572,4.36428065720907,-3.7756134870657783,3.735507058792643,-2.5475876443393575,-4.917066661539533,5.29533852507378,-1.019195284716911,4.396244709745176,-4.764228392415474,3.344038425628512,2.9532486864871754,4.9055110409562435,1.269392677094879,4.1708429787450925],[0.8686536099746425,0.6723151069891922,-1.3848391784749752,2.4262743046075874,0.6172010415434597,-2.4077400120979697,-3.3859782817558273,1.6607699547738646,-2.3470758452915534,2.600858488967483,0.390605501058699,-2.051767593951173,-0.8676536138993872,-2.5263446801035596,1.871579929790865,-1.4013294949502768,-1.3137298339359804,-2.4173550240155253,0.013403203636231764,-2.436969783024731],[2.5113347385840967,1.5004118805998796,-1.48562092863473,1.324340395256093,4.705111844704911,-2.2424793003730206,-2.2101372465640536,1.87862328388883,-1.6956171295835811,2.3298604581836355,3.762553055617352,-1.450855068758533,0.5086241327436106,-3.340513371533487,2.153094125204368,-2.935482853015847,-1.2577696626007095,-1.645274606753098,-0.9354613940695735,-2.566673409778733],[3.510676102593809,0.8306924278221851,-4.639078782211614,2.5937974753117277,2.621843318805235,-3.4150188848851952,-4.541722699263103,0.8189363837235597,-4.925330548905513,3.4912893346121088,3.176963605325,-3.603377561157732,-0.11025359752257902,-4.1770364236393425,3.608996785654141,-2.4882585316968013,-4.251329942232221,-4.271783830832367,-3.35336507655193,-4.336688068987949],[-3.235793662261639,-0.7762145053701847,2.2745874415366827,-2.9176100321961362,-4.385742969738513,3.968013136432927,4.012209242755705,-3.3533546760080526,2.881950072618775,-3.229476648795784,-3.7642509843083527,5.17421226816617,-0.9249534124492691,3.31490813918108,-3.8575691841750355,3.0465864781841994,3.2108473601616265,3.9238635420946353,1.1599389348326363,3.817200206150976],[-3.833006603705776,-0.8525691448718032,1.0350416051037918,-3.145034893839207,-4.694508471184143,3.3018415364092384,2.792829900895963,-2.4950355573841603,2.1808156628857684,-3.8348302067654836,-3.398365260805885,5.10141257255366,-0.5144301334879323,2.6215493535729197,-3.231254986300235,2.6250845774412186,2.223548109814729,1.5131535142886436,0.4528297333366101,3.0034362270509583],[-4.569684174111567,-0.6288703359381705,3.555169335428937,-4.117462503744478,-2.4632232844705144,5.571844720933929,5.211439674464906,-0.8370875717119503,3.8886729096122337,-3.9221459364425244,-3.3437861186210287,4.301964886641447,-0.25012232855726174,5.241792238854576,-3.9877922938928543,3.716707092199363,4.9937386272870885,5.2461677108030065,2.241136330510041,6.7454003229266535],[-4.589957205662621,-0.09773968945024207,5.678905618961905,-3.27202228474862,-1.8783839317373159,5.28821436466959,5.864564622548537,-0.8868944016089092,4.776373516347066,-3.459483696302335,-4.1668223221455545,3.9819268801984333,-0.227418967062655,5.1553662337206285,-4.7430363891624685,3.3362572913758988,4.06543053147678,3.8982142752410645,4.422448935499323,5.723777441806392],[3.3000355451249224,1.7538158615916701,-4.373021732673381,3.7438317130557,3.463478952096141,-4.38923545323331,-4.979788023835706,3.55495521502041,-3.5292525105768875,3.127404386521513,4.6564439265195485,-5.4949690955768675,1.0831314875748468,-4.0651926603584245,5.387817489174453,-3.882932863292083,-3.8054761205321306,-5.498978288714634,-0.5648057118281085,-4.621332119529475],[1.468128670464042,-0.15397183794297628,-1.9700066866636625,1.4884891341171795,1.8483444004174119,-2.0403721488507283,-2.522306506068427,2.3290402808613395,-1.9692945924908467,2.074401346384326,-0.14793447757868897,-3.410381354404909,-0.506881909549775,-2.731598263021446,2.2759067201377197,-2.1484255550232896,-2.0089115337242904,-1.5382950861243934,-0.07896704147213919,-1.784968980564477],[-4.086675854837912,-1.83773149663971,3.433553968048363,-4.801622636304937,-4.117975279337934,4.55267583848565,4.6023629931929015,-2.8633705536572323,4.333118415920573,-3.5622680542142193,-6.007875265010191,5.075934309741438,-1.4891991393579875,4.534247098012616,-5.6412161161778736,4.1103440596267635,4.694581725653427,6.676045265624418,0.8155614261125693,4.233615158403015]],"RowLength":15,"ColoumnLength":20,"ElementCount":300,"Sum":4.2055852065042565,"Average":0.014018617355014189},"Biases":{"Values":[[0.12592821283839006],[-0.5410754532741825],[-3.8328799481721876],[-6.678566640645619],[0.5886628695251684],[-1.2447797246215866],[-2.9782159112875326],[-6.813315170107816],[0.25889459909164103],[2.2411763270476097],[7.406023798941273],[7.102693636115906],[0.07155031004236982],[-2.2055265333590612],[0.37020999036876556]],"RowLength":15,"ColoumnLength":1,"ElementCount":15,"Sum":-6.1292196374968615,"Average":-0.4086146424997908},"NumberOfPerceptrons":15,"Gradients":{"Values":[[0],[0],[0],[0],[0],[0],[0],[0],[0],[0],[0],[0],[0],[0],[0]],"RowLength":15,"ColoumnLength":1,"ElementCount":15,"Sum":0,"Average":0}},{"$type":"MyMachineLearningLibrary.DenseLayer","ActivationFunction":{"$type":"MyMachineLearningLibrary.SigmoidActivationFunction"},"LayerOutputs":{"Values":[[0.00026019168393621176],[0.9999580203757298],[1.0487185385242247E-05],[0.0005017963245436153],[0.9999879049555664],[0.0006486534844551211],[0.0002045148610604027],[0.9998665893907658],[0.0013271526367952923],[0.9996014569500774]],"RowLength":10,"ColoumnLength":1,"ElementCount":10,"Sum":4.002366767848316,"Average":0.4002366767848316},"Weights":{"Values":[[-1.398157085514706,0.9972860874178017,0.4610645606919749,1.014382482000885,-1.0334766405495042,0.9586356723389157,0.9363418441683422,1.4190228725807457,-1.3177729284225383,-1.129469222140231,-0.6042528234667637,-1.662589705006545,0.7878180025471252,0.9866393239483728,-2.078118485356819],[1.2108511999961316,-0.08684256054345037,-1.5958080791614695,-0.8856545179497545,1.7180831646041426,-0.030835724338981733,-1.5146954500495804,-1.3119997323541708,1.0177708592075705,0.6960319644658083,2.6659666607712387,1.7889553123940303,-0.3872373086716259,0.031596192500187394,1.4273481573221725],[-0.10739405208021074,0.5587613162544275,0.2414664793155476,2.94980361589528,-0.48826292908343044,-0.06652568751192169,-0.04679211944371099,2.0321608305380803,-0.49034227803802444,-0.9422961227874124,-3.534855457463095,-3.4493066718361582,0.36595576636929467,0.35949787304020964,-2.146930246525984],[-0.7962160899003897,1.8445336892852748,0.22818090281396722,1.7688014933869884,-1.4054703032791112,0.2234373351791663,0.812360595919829,1.4177031745242403,-1.2412520086754373,-0.598703279245013,0.06854430158478228,-1.254115237382677,1.9382514433000941,1.6288900020374597,-1.7883615835471216],[1.5255552985577183,-0.04049300464204532,-1.6364777130266113,-2.408607306773843,0.323780899265279,-0.7739946155488401,-1.1259188930920054,-1.0365945385545488,0.6679808817390948,1.225477728129868,3.133679417583271,2.4259198715092385,-1.0431708914212812,0.1666394627369509,0.4257910036984975],[-0.23688689610275002,1.1073628769900037,1.7553746720981145,0.7894154222946902,-1.6040435055734248,0.6716865474680649,0.8998974878307913,0.18880145813177954,-0.28213267447888896,-0.8487392160203171,-1.2473888535720916,-1.3986978963132337,0.7827388191433707,0.7759832173741469,-0.7262908911932784],[-0.6642225161936861,-0.003120784828097043,1.5222778729468067,1.0593581258554807,-0.5527811792209213,0.8637222243194159,0.9715639901013898,0.8066317164526596,-1.003167549612213,-1.576676692624833,-2.0515558943299848,-0.4665390320104602,1.3853433506883348,0.5300031782787914,-1.2207501292276566],[1.1377443329330357,-0.08205373155048423,-1.203744082715895,-0.7099649439100957,1.562227379142899,-1.0255664828455777,-0.47036059264126606,-1.6496393390409936,0.3362250111103301,1.6206393019007137,1.5721336834136639,1.1190981893675924,0.1321054073618209,-1.6190655000690481,1.0584460821938837],[-1.1820576930395859,0.3986510086097576,1.2697849150514458,0.5990227884828777,-1.7854618452231457,0.16549959063910205,0.009017213617677272,0.7679012119785891,-1.2946718514625921,-0.6937504963335235,-0.21482013450951304,-1.2515040416329442,2.0846094476818724,0.9528082549145693,-0.3102010715412836],[1.07698960919455,-1.8416124395186921,-1.207643739825674,-0.2690958372073185,1.8871932523231854,-1.2429945866880179,0.07318943846726016,-1.7547065360309053,1.6083358611216643,1.2717740334799543,0.563714143838193,1.223055469862458,-1.981336321052095,0.05662765847417673,0.9042278921058144]],"RowLength":10,"ColoumnLength":15,"ElementCount":150,"Sum":4.879913605335432,"Average":0.032532757368902876},"Biases":{"Values":[[0.9682812482281293],[-0.44475723297640357],[-0.3062427197632685],[-0.5828231024047361],[1.596262442810121],[-0.9975139517634499],[-0.960617726207437],[0.5165731956621857],[0.10851085344727669],[-0.7069106307407976]],"RowLength":10,"ColoumnLength":1,"ElementCount":10,"Sum":-0.8092376237083798,"Average":-0.08092376237083798},"NumberOfPerceptrons":10,"Gradients":{"Values":[[0],[0],[0],[0],[0],[0],[0],[0],[0],[0]],"RowLength":10,"ColoumnLength":1,"ElementCount":10,"Sum":0,"Average":0}},{"$type":"MyMachineLearningLibrary.DenseLayer","ActivationFunction":{"$type":"MyMachineLearningLibrary.SigmoidActivationFunction"},"LayerOutputs":{"Values":[[0.0014517186221133555],[0.9979014486895774],[0.9982799296850857],[0.9980524834624709],[0.0018084323732985084]],"RowLength":5,"ColoumnLength":1,"ElementCount":5,"Sum":2.997494012832546,"Average":0.5994988025665091},"Weights":{"Values":[[1.593386308228684,-1.2900358512046772,2.45258534190466,1.5043639317770736,-1.804247396364821,0.47984209202352623,0.41477004155536473,-1.228823209336332,-0.3400533765649336,-1.7498925582780531],[-1.5289117995202748,1.3381647978268765,-0.6244728967504823,-1.9815791063157044,2.4426135711059422,-0.7876793585847219,-0.5760796792666606,1.0014151608393964,0.5551843503703622,1.789643567993598],[-1.140226480912295,2.2808254323471364,-1.913310411850405,-1.4213702359631928,1.1921751764105206,-0.18968697875505616,-0.9303689887468543,1.4856592181057264,-0.6541531815015884,0.8593848875671263],[-2.0058419872878077,1.8330905418184618,-2.0634789601560874,-0.13829001380625383,2.1338054539920948,-0.2626253674686781,-1.6804865721660607,0.2505103670580094,-1.0433315560868748,0.7505595076554464],[1.4574918885608468,-0.3471080663679787,1.9629747787278522,1.460373999026448,-2.2152519454102113,0.37708122304234204,0.13918916528156888,-1.6124530084651936,0.509479714256218,-1.8280682036522742]],"RowLength":5,"ColoumnLength":10,"ElementCount":50,"Sum":-1.093256673308191,"Average":-0.02186513346616382},"Biases":{"Values":[[-0.4626326675569817],[-0.4052066203758436],[0.5484861712592987],[1.2742319479611652],[-0.3136704962051179]],"RowLength":5,"ColoumnLength":1,"ElementCount":5,"Sum":0.6412083350825207,"Average":0.12824166701650414},"NumberOfPerceptrons":5,"Gradients":{"Values":[[0],[0],[0],[0],[0]],"RowLength":5,"ColoumnLength":1,"ElementCount":5,"Sum":0,"Average":0}},{"$type":"MyMachineLearningLibrary.DenseLayer","ActivationFunction":{"$type":"MyMachineLearningLibrary.SigmoidActivationFunction"},"LayerOutputs":{"Values":[[0.9886681758656639],[0.9894385718674762]],"RowLength":2,"ColoumnLength":1,"ElementCount":2,"Sum":1.9781067477331402,"Average":0.9890533738665701},"Weights":{"Values":[[-1.8646026706916268,1.0036023734840418,1.4711959037010782,2.387348604337359,-2.026993151437057],[-2.147774006607804,1.9723421697676635,2.0603217676564665,1.190930158010775,-1.3773350897656518]],"RowLength":2,"ColoumnLength":5,"ElementCount":10,"Sum":2.669036058455244,"Average":0.2669036058455244},"Biases":{"Values":[[-0.37774455405203045],[-0.668053825945209]],"RowLength":2,"ColoumnLength":1,"ElementCount":2,"Sum":-1.0457983799972395,"Average":-0.5228991899986197},"NumberOfPerceptrons":2,"Gradients":{"Values":[[0],[0]],"RowLength":2,"ColoumnLength":1,"ElementCount":2,"Sum":0,"Average":0}}],"LearningRate":0.0001,"NumberOfInputs":10,"LossFunction":{"$type":"MyMachineLearningLibrary.BinaryCrossEntropyLossFunction"}}