{"Optimizer":{"$type":"MyMachineLearningLibrary.AdamOptimizer","M":[{"Values":[[0.053122279284644136],[0.1094071703597517],[0.5060048468518286],[0.21426212335946365],[0.4248873293111112],[-0.16587210833119337],[-0.0046819441688559565],[-0.20173635061998685],[0.21677226532148977],[-0.02493576075251583],[-0.0012134079819689017],[-0.07204806302588611],[0.5765156859028122],[0.00018334183722773],[0.026834200517022067],[-0.0001091652964244404],[0.21644832820273194],[0.00012517651765427433],[0.0008118910913552215],[-0.08109225919633238],[5.192602101037403E-05],[-0.00020841961229301644],[-0.000321839751264374],[0.05817505840445558],[0.3913452401293185]],"RowLength":25,"ColoumnLength":1,"ElementCount":25,"Sum":2.242727544375155,"Average":0.0897091017750062,"Max":0.5765156859028122},{"Values":[[-0.08397404429574709],[-0.0910951258544942],[0.08718537476159238],[0.007971744232045167],[0.17698626900866554],[0.19854369353408075],[-0.00011676319532538725],[0.00369001608620611],[3.942478661021389E-05],[0.05899011314534377],[-0.00013023473218427693],[0.006479879701287407],[0.0016966027096892771],[0.12755891057202207],[0.05969142447238023],[-0.011803578942498243],[4.951642419209303E-06],[-9.903605644399151E-05],[-9.038820287432045E-05],[-0.07864212981669211]],"RowLength":20,"ColoumnLength":1,"ElementCount":20,"Sum":0.4628871035560825,"Average":0.023144355177804124,"Max":0.19854369353408075},{"Values":[[0.035297590996444334],[0.04762049829295501],[6.313538234429736E-05],[-3.225640675134277E-05],[0.02966705437050813],[-0.0002998594868234122],[0.054822803073064495],[0.003762073414195981],[-7.424124375328034E-06],[-2.537319651292761E-05],[0.033350811263877456],[5.912774511276663E-05],[0.03312435067038308],[-5.970753738443555E-05],[-3.898959628449388E-05]],"RowLength":15,"ColoumnLength":1,"ElementCount":15,"Sum":0.2373038348607536,"Average":0.015820255657383573,"Max":0.054822803073064495},{"Values":[[4.219123704686361E-05],[-0.024995087420353102],[0.005247395684004457],[-0.031228782483475583],[-2.5488168911687416E-05],[0.03370278626490095],[0.032732156279403006],[0.01779863102806117],[0.019987766738281034],[0.02529572955008241]],"RowLength":10,"ColoumnLength":1,"ElementCount":10,"Sum":0.07855729870903952,"Average":0.007855729870903952,"Max":0.03370278626490095},{"Values":[[-0.033232111863477715],[-1.001008416010734E-05],[0.02173500514091365],[0.019604683137790086],[-4.930409940802825E-05]],"RowLength":5,"ColoumnLength":1,"ElementCount":5,"Sum":0.008048262231657886,"Average":0.0016096524463315772,"Max":0.02173500514091365},{"Values":[[-0.013094895815863095]],"RowLength":1,"ColoumnLength":1,"ElementCount":1,"Sum":-0.013094895815863095,"Average":-0.013094895815863095,"Max":-0.013094895815863095}],"V":[{"Values":[[0.28333330869649564],[0.42755318540926884],[3.223682131140113],[1.5841549040437222],[1.591951138356427],[0.920070843824687],[0.0017790574788073459],[1.1597231351716344],[0.3122503627650914],[0.021350202507550032],[0.7666245768588543],[0.1764114005722],[11.341161812105698],[4.242164751669745E-05],[0.02535015186206749],[4.2151485338613124E-07],[1.5508814165852953],[5.509187092478269E-07],[0.19053774029710277],[0.23115572770341056],[0.0007880035818713293],[0.010589108820706331],[0.02341289259698573],[0.2640178149848374],[5.401248945669881]],"RowLength":25,"ColoumnLength":1,"ElementCount":25,"Sum":29.508071255113784,"Average":1.1803228502045513,"Max":11.341161812105698},{"Values":[[0.3645382104025927],[0.33334767019544714],[0.12348620418454419],[0.0021197994371303544],[1.0652427412725505],[0.3453169740075306],[4.821919070055521E-07],[0.0022717050252894127],[5.541239722096724E-08],[0.1985232831971449],[0.0009394045709150001],[0.0013751350894153959],[0.008895335044842712],[0.574206283271556],[0.4100947322638338],[0.0017323105249575658],[8.467388663049666E-10],[0.0043800254067250955],[2.886702328943433E-07],[0.1237919254666825]],"RowLength":20,"ColoumnLength":1,"ElementCount":20,"Sum":3.560262566482434,"Average":0.1780131283241217,"Max":1.0652427412725505},{"Values":[[0.044029279748568725],[0.011617847204452232],[1.397515451628761E-07],[3.6748896086146063E-08],[0.031423815412811404],[0.004114769953512077],[0.03061527973547333],[0.001197563035238368],[1.924351298972635E-09],[0.00010048055474369843],[0.1607577752085471],[0.00036948014006608367],[0.00826427814130376],[1.25828542160951E-07],[5.35367652238108E-08]],"RowLength":15,"ColoumnLength":1,"ElementCount":15,"Sum":0.2924909269248167,"Average":0.019499395128321113,"Max":0.1607577752085471},{"Values":[[0.002624686848696636],[0.005585678523743956],[0.0009662550932643028],[0.034202368657215605],[2.2893329080871123E-08],[0.01983601571260777],[0.0376656710413319],[0.011727661302349517],[0.01837073554637904],[0.02240261043945111]],"RowLength":10,"ColoumnLength":1,"ElementCount":10,"Sum":0.1533817060583689,"Average":0.01533817060583689,"Max":0.0376656710413319},{"Values":[[0.03887116862093526],[3.5419711161394086E-09],[0.016470614789854256],[0.03192729973533585],[0.00014941668773766015]],"RowLength":5,"ColoumnLength":1,"ElementCount":5,"Sum":0.08741850337583415,"Average":0.01748370067516683,"Max":0.03887116862093526},{"Values":[[0.008546095967092089]],"RowLength":1,"ColoumnLength":1,"ElementCount":1,"Sum":0.008546095967092089,"Average":0.008546095967092089,"Max":0.008546095967092089}],"Beta1":0.9,"Beta2":0.999,"Epsilon":1E-08},"Layers":[{"$type":"MyMachineLearningLibrary.InputLayer","ActivationFunction":{"$type":"MyMachineLearningLibrary.SigmoidActivationFunction"},"LayerOutputs":{"Values":[[0.4726432231257458],[0.9843948499335623],[0.4684430955187455],[0.5513170117535365],[0.41144987294752944]],"RowLength":5,"ColoumnLength":1,"ElementCount":5,"Sum":2.8882480532791197,"Average":0.577649610655824,"Max":0.9843948499335623},"NumberOfPerceptrons":5,"Gradients":{"Values":[[0],[0],[0],[0],[0]],"RowLength":5,"ColoumnLength":1,"ElementCount":5,"Sum":0,"Average":0,"Max":0}},{"$type":"MyMachineLearningLibrary.DenseLayer","LayerIndex":1,"Alpha":0.01,"Beta1":0.9,"Beta2":0.999,"DecayRate":1,"M":{"Values":[[0],[0],[0],[0],[0],[0],[0],[0],[0],[0],[0],[0],[0],[0],[0],[0],[0],[0],[0],[0],[0],[0],[0],[0],[0]],"RowLength":25,"ColoumnLength":1,"ElementCount":25,"Sum":0,"Average":0,"Max":0},"V":{"Values":[[0],[0],[0],[0],[0],[0],[0],[0],[0],[0],[0],[0],[0],[0],[0],[0],[0],[0],[0],[0],[0],[0],[0],[0],[0]],"RowLength":25,"ColoumnLength":1,"ElementCount":25,"Sum":0,"Average":0,"Max":0},"Epsilon":1E-08,"NumberOfPerceptrons":25,"ActivationFunction":{"$type":"MyMachineLearningLibrary.ReluActivationFunction","Leak":0.001},"Perceptrons":[{"$type":"MyMachineLearningLibrary.DensePerceptron","Output":-1.1044122529583158,"Weights":[-0.7940804136406169,-0.9637203478734087,0.6299982864691716,-0.9677328518021996,0.8960778549750318],"Bias":0.08929669711866023,"ActivationFunction":{"$type":"MyMachineLearningLibrary.ReluActivationFunction","Leak":0.001}},{"$type":"MyMachineLearningLibrary.DensePerceptron","Output":2.0981241749147768,"Weights":[0.9515800445114584,0.7706013158358545,-0.5155740707313067,0.7222284276334631,0.011808961838982624],"Bias":0.7282597094483183,"ActivationFunction":{"$type":"MyMachineLearningLibrary.ReluActivationFunction","Leak":0.001}},{"$type":"MyMachineLearningLibrary.DensePerceptron","Output":0.3276996683901507,"Weights":[0.6299655171930417,-0.0008864255116621219,0.680410783664341,0.5094240240070231,0.7603780487011004],"Bias":-0.8816424330567446,"ActivationFunction":{"$type":"MyMachineLearningLibrary.ReluActivationFunction","Leak":0.001}},{"$type":"MyMachineLearningLibrary.DensePerceptron","Output":0.7812120033186306,"Weights":[0.3681934878637767,-0.12717149603696712,-0.48643478330404705,0.8294724172789723,-0.8617861198743197],"Bias":0.8575090128746597,"ActivationFunction":{"$type":"MyMachineLearningLibrary.ReluActivationFunction","Leak":0.001}},{"$type":"MyMachineLearningLibrary.DensePerceptron","Output":0.5187441182253203,"Weights":[0.3783899226747941,0.8192152916977571,0.7228114143326044,-0.6550374013672261,0.646275759337495],"Bias":-0.7099278919034169,"ActivationFunction":{"$type":"MyMachineLearningLibrary.ReluActivationFunction","Leak":0.001}},{"$type":"MyMachineLearningLibrary.DensePerceptron","Output":0.658318776377756,"Weights":[0.869501365088839,0.9678678553378166,-0.4403229872820231,-0.8615251245737547,-0.16503243181339106],"Bias":0.043745555469588304,"ActivationFunction":{"$type":"MyMachineLearningLibrary.ReluActivationFunction","Leak":0.001}},{"$type":"MyMachineLearningLibrary.DensePerceptron","Output":-0.4980916292869817,"Weights":[-0.7470729931692979,0.6517280079989267,-0.8361628105563284,-0.30742788479037986,-0.7493508448021525],"Bias":0.08296294444516962,"ActivationFunction":{"$type":"MyMachineLearningLibrary.ReluActivationFunction","Leak":0.001}},{"$type":"MyMachineLearningLibrary.DensePerceptron","Output":0.7238612577187199,"Weights":[0.9451331936604116,0.8054326433805978,0.022103534336406827,-0.7333302617196454,-0.48519801498294485],"Bias":0.07787816515076422,"ActivationFunction":{"$type":"MyMachineLearningLibrary.ReluActivationFunction","Leak":0.001}},{"$type":"MyMachineLearningLibrary.DensePerceptron","Output":-0.35537539138452295,"Weights":[-0.07976223029776665,-0.33852652693862545,-0.46003965078735287,0.27181203148421557,0.6105579211014684],"Bias":-0.17002686546487705,"ActivationFunction":{"$type":"MyMachineLearningLibrary.ReluActivationFunction","Leak":0.001}},{"$type":"MyMachineLearningLibrary.DensePerceptron","Output":1.2010726821763196,"Weights":[-0.01193714506317972,0.9699980551045874,0.17622437745019173,-0.712549696411124,-0.1017548608292106],"Bias":0.6040226847706568,"ActivationFunction":{"$type":"MyMachineLearningLibrary.ReluActivationFunction","Leak":0.001}},{"$type":"MyMachineLearningLibrary.DensePerceptron","Output":0.17699439441200815,"Weights":[0.27272874877978287,-0.35043480624713497,0.6417871850213089,-0.11267348215535537,-0.9174246189097028],"Bias":0.5320095933565968,"ActivationFunction":{"$type":"MyMachineLearningLibrary.ReluActivationFunction","Leak":0.001}},{"$type":"MyMachineLearningLibrary.DensePerceptron","Output":1.0258931559566835,"Weights":[0.2769697218390519,0.46394629299660206,-0.5630434521587021,0.9198434779617574,-0.7051773859528077],"Bias":0.4850650030742285,"ActivationFunction":{"$type":"MyMachineLearningLibrary.ReluActivationFunction","Leak":0.001}},{"$type":"MyMachineLearningLibrary.DensePerceptron","Output":0.5843304962640175,"Weights":[-0.8969025189633533,-0.7814869148885748,0.895587510466497,0.8211502361165149,0.7054161686981357],"Bias":0.6150353953024612,"ActivationFunction":{"$type":"MyMachineLearningLibrary.ReluActivationFunction","Leak":0.001}},{"$type":"MyMachineLearningLibrary.DensePerceptron","Output":-0.3109268308210397,"Weights":[-0.40150053738364905,-0.5952451265331452,0.5456285826346989,-0.23452497802774297,0.10298078376827222],"Bias":0.29612410950841006,"ActivationFunction":{"$type":"MyMachineLearningLibrary.ReluActivationFunction","Leak":0.001}},{"$type":"MyMachineLearningLibrary.DensePerceptron","Output":0.7930648883491939,"Weights":[-0.045508987372492836,-0.2571948117259445,0.3609561675943526,0.29072444676425196,-0.0638225315207852],"Bias":0.7646344385801231,"ActivationFunction":{"$type":"MyMachineLearningLibrary.ReluActivationFunction","Leak":0.001}},{"$type":"MyMachineLearningLibrary.DensePerceptron","Output":-1.7062424271733674,"Weights":[-0.696143012689214,-0.32292333736686113,0.4032068424862793,-0.8219033375770112,-0.8215313030419358],"Bias":-0.45705010056503664,"ActivationFunction":{"$type":"MyMachineLearningLibrary.ReluActivationFunction","Leak":0.001}},{"$type":"MyMachineLearningLibrary.DensePerceptron","Output":0.39786201795918225,"Weights":[-0.6253904938102752,-0.06604408791831044,0.682059352765411,0.9663791476465522,0.80743287252195],"Bias":-0.4260559638344414,"ActivationFunction":{"$type":"MyMachineLearningLibrary.ReluActivationFunction","Leak":0.001}},{"$type":"MyMachineLearningLibrary.DensePerceptron","Output":-1.1409337714787817,"Weights":[0.7710745366054004,-0.1997013540311724,-0.5253572237133051,-0.004273121223769129,-0.6441033184134594],"Bias":-0.7953321390849276,"ActivationFunction":{"$type":"MyMachineLearningLibrary.ReluActivationFunction","Leak":0.001}},{"$type":"MyMachineLearningLibrary.DensePerceptron","Output":-0.8369700612803374,"Weights":[-0.3130178826072585,-0.7861153299926474,-1.0134642763078245,0.7893353077303413,-0.3460812658695004],"Bias":0.2667949195457974,"ActivationFunction":{"$type":"MyMachineLearningLibrary.ReluActivationFunction","Leak":0.001}},{"$type":"MyMachineLearningLibrary.DensePerceptron","Output":1.9980757461634944,"Weights":[-0.004255780370054983,0.9388309287088262,0.12795918647599108,0.1586448256314963,-0.06085978516984221],"Bias":0.9535546793504565,"ActivationFunction":{"$type":"MyMachineLearningLibrary.ReluActivationFunction","Leak":0.001}},{"$type":"MyMachineLearningLibrary.DensePerceptron","Output":-1.1480320977059035,"Weights":[0.10691544790892579,-0.9831280711600944,0.10729560917782285,-0.3646485347793868,-0.3221538244446107],"Bias":0.052546319643070646,"ActivationFunction":{"$type":"MyMachineLearningLibrary.ReluActivationFunction","Leak":0.001}},{"$type":"MyMachineLearningLibrary.DensePerceptron","Output":-0.7005471103401119,"Weights":[0.26494158909769167,-0.30700399002164735,-0.06471377772775559,-0.3553191442219332,0.6061272143577325],"Bias":-0.5467394174918611,"ActivationFunction":{"$type":"MyMachineLearningLibrary.ReluActivationFunction","Leak":0.001}},{"$type":"MyMachineLearningLibrary.DensePerceptron","Output":-1.6445593160299112,"Weights":[-0.5226956288783475,-0.9624830848565333,-0.9980766260546639,-0.12408918501459701,0.8336159044916421],"Bias":-0.2570837998513468,"ActivationFunction":{"$type":"MyMachineLearningLibrary.ReluActivationFunction","Leak":0.001}},{"$type":"MyMachineLearningLibrary.DensePerceptron","Output":-0.34327121850676146,"Weights":[-0.6422736156986527,0.49072647719661383,0.6578208655033329,-0.2678671847922008,0.14165316926086038],"Bias":-0.7415368625114253,"ActivationFunction":{"$type":"MyMachineLearningLibrary.ReluActivationFunction","Leak":0.001}},{"$type":"MyMachineLearningLibrary.DensePerceptron","Output":0.9177621525206354,"Weights":[-0.04675109440120839,0.25947825698707405,-0.02892181949141874,0.16728754608959864,-0.6844199586722264],"Bias":0.8873417260444709,"ActivationFunction":{"$type":"MyMachineLearningLibrary.ReluActivationFunction","Leak":0.001}}],"Gradients":{"Values":[[0],[0],[0],[0],[0],[0],[0],[0],[0],[0],[0],[0],[0],[0],[0],[0],[0],[0],[0],[0],[0],[0],[0],[0],[0]],"RowLength":25,"ColoumnLength":1,"ElementCount":25,"Sum":0,"Average":0,"Max":0},"Weights":{"Values":[[-0.7940804136406169,-0.9637203478734087,0.6299982864691716,-0.9677328518021996,0.8960778549750318],[0.9515800445114584,0.7706013158358545,-0.5155740707313067,0.7222284276334631,0.011808961838982624],[0.6299655171930417,-0.0008864255116621219,0.680410783664341,0.5094240240070231,0.7603780487011004],[0.3681934878637767,-0.12717149603696712,-0.48643478330404705,0.8294724172789723,-0.8617861198743197],[0.3783899226747941,0.8192152916977571,0.7228114143326044,-0.6550374013672261,0.646275759337495],[0.869501365088839,0.9678678553378166,-0.4403229872820231,-0.8615251245737547,-0.16503243181339106],[-0.7470729931692979,0.6517280079989267,-0.8361628105563284,-0.30742788479037986,-0.7493508448021525],[0.9451331936604116,0.8054326433805978,0.022103534336406827,-0.7333302617196454,-0.48519801498294485],[-0.07976223029776665,-0.33852652693862545,-0.46003965078735287,0.27181203148421557,0.6105579211014684],[-0.01193714506317972,0.9699980551045874,0.17622437745019173,-0.712549696411124,-0.1017548608292106],[0.27272874877978287,-0.35043480624713497,0.6417871850213089,-0.11267348215535537,-0.9174246189097028],[0.2769697218390519,0.46394629299660206,-0.5630434521587021,0.9198434779617574,-0.7051773859528077],[-0.8969025189633533,-0.7814869148885748,0.895587510466497,0.8211502361165149,0.7054161686981357],[-0.40150053738364905,-0.5952451265331452,0.5456285826346989,-0.23452497802774297,0.10298078376827222],[-0.045508987372492836,-0.2571948117259445,0.3609561675943526,0.29072444676425196,-0.0638225315207852],[-0.696143012689214,-0.32292333736686113,0.4032068424862793,-0.8219033375770112,-0.8215313030419358],[-0.6253904938102752,-0.06604408791831044,0.682059352765411,0.9663791476465522,0.80743287252195],[0.7710745366054004,-0.1997013540311724,-0.5253572237133051,-0.004273121223769129,-0.6441033184134594],[-0.3130178826072585,-0.7861153299926474,-1.0134642763078245,0.7893353077303413,-0.3460812658695004],[-0.004255780370054983,0.9388309287088262,0.12795918647599108,0.1586448256314963,-0.06085978516984221],[0.10691544790892579,-0.9831280711600944,0.10729560917782285,-0.3646485347793868,-0.3221538244446107],[0.26494158909769167,-0.30700399002164735,-0.06471377772775559,-0.3553191442219332,0.6061272143577325],[-0.5226956288783475,-0.9624830848565333,-0.9980766260546639,-0.12408918501459701,0.8336159044916421],[-0.6422736156986527,0.49072647719661383,0.6578208655033329,-0.2678671847922008,0.14165316926086038],[-0.04675109440120839,0.25947825698707405,-0.02892181949141874,0.16728754608959864,-0.6844199586722264]],"RowLength":25,"ColoumnLength":5,"ElementCount":125,"Sum":-0.057373030072942255,"Average":-0.000458984240583538,"Max":0.9699980551045874},"LayerOutputs":{"Values":[[-0.001104412252958316],[2.0981241749147768],[0.3276996683901507],[0.7812120033186306],[0.5187441182253203],[0.658318776377756],[-0.0004980916292869817],[0.7238612577187199],[-0.00035537539138452294],[1.2010726821763196],[0.17699439441200815],[1.0258931559566835],[0.5843304962640175],[-0.00031092683082103973],[0.7930648883491939],[-0.0017062424271733674],[0.39786201795918225],[-0.0011409337714787817],[-0.0008369700612803374],[1.9980757461634944],[-0.0011480320977059035],[-0.0007005471103401119],[-0.0016445593160299113],[-0.0003432712185067615],[0.9177621525206354]],"RowLength":25,"ColoumnLength":1,"ElementCount":25,"Sum":12.193226170639925,"Average":0.487729046825597,"Max":2.0981241749147768}},{"$type":"MyMachineLearningLibrary.DenseLayer","LayerIndex":2,"Alpha":0.01,"Beta1":0.9,"Beta2":0.999,"DecayRate":1,"M":{"Values":[[0],[0],[0],[0],[0],[0],[0],[0],[0],[0],[0],[0],[0],[0],[0],[0],[0],[0],[0],[0]],"RowLength":20,"ColoumnLength":1,"ElementCount":20,"Sum":0,"Average":0,"Max":0},"V":{"Values":[[0],[0],[0],[0],[0],[0],[0],[0],[0],[0],[0],[0],[0],[0],[0],[0],[0],[0],[0],[0]],"RowLength":20,"ColoumnLength":1,"ElementCount":20,"Sum":0,"Average":0,"Max":0},"Epsilon":1E-08,"NumberOfPerceptrons":20,"ActivationFunction":{"$type":"MyMachineLearningLibrary.ReluActivationFunction","Leak":0.001},"Perceptrons":[{"$type":"MyMachineLearningLibrary.DensePerceptron","Output":2.5184283845474673,"Weights":[0.45676759358586744,0.8295962887168414,0.28210798341741555,0.2590971266101768,-0.3426472497117082,0.9771028131985792,0.8256130796693048,0.4973186580457481,-0.4352188397820592,0.3018663388653259,0.26842982323012704,-0.45654416704102724,-0.7280835827341442,0.2300549910051353,-0.5770908174434162,0.24408173356139126,-0.17121732697814054,0.16445469598692922,0.5236122556983072,0.35409206446847347,-0.5027762082834281,0.699507701436573,0.5080276351562772,-0.7018594972617026,-0.6404242757604892],"Bias":0.5497036766109327,"ActivationFunction":{"$type":"MyMachineLearningLibrary.ReluActivationFunction","Leak":0.001}},{"$type":"MyMachineLearningLibrary.DensePerceptron","Output":3.296699455629761,"Weights":[-0.6250022396559628,0.10273941041712627,-0.7209890195008073,0.3963614842563054,0.8161249851263935,0.8438810286772915,-0.9202198873449896,0.9701521872447583,0.5515376038757057,0.7151985566541182,-0.11620451901166326,0.341300532079134,0.11986149716524795,-0.013028139233591139,-0.7377460834222546,-0.4631629406665781,0.5746024894990767,-0.6083501695835217,-0.040046853712789175,0.05026250873438726,-0.25991276101487576,0.5899528021140784,0.15863229128500425,-0.9925644231114304,0.9899996402497251],"Bias":-0.5869290601301097,"ActivationFunction":{"$type":"MyMachineLearningLibrary.ReluActivationFunction","Leak":0.001}},{"$type":"MyMachineLearningLibrary.DensePerceptron","Output":0.6675675597246825,"Weights":[0.7263892394110609,-0.24795658652006064,-0.3663365283252668,0.03733908023331548,0.556765727949504,-0.5405420877653715,0.5179048347300415,-0.8466288650675615,-0.03829073088306908,0.7934905038809816,-0.35509075423106173,-0.10050559277003332,0.2362684496282662,0.3041546692061926,0.4233537666832315,0.15907775211699304,-0.5847452246740318,0.8024716120792121,-0.3113012206930117,0.6389074563207918,0.4421008688792586,0.5110317461536169,-0.7450269192671464,0.3965182498108998,-0.10872583804503103],"Bias":-0.244734671996885,"ActivationFunction":{"$type":"MyMachineLearningLibrary.ReluActivationFunction","Leak":0.001}},{"$type":"MyMachineLearningLibrary.DensePerceptron","Output":2.8193244058769436,"Weights":[0.2775393392269996,-0.24534792352177423,0.24559121812961773,-0.6439705357620819,0.949571648017868,0.23884867595856477,-0.6761953554308471,0.09993456362488519,-0.10591685456884294,-0.06922014150580344,0.1779877756527043,0.7788973734516241,0.43633290422837395,-0.8048083857216424,0.6973131429369815,0.5147868072806766,0.575197171296398,-0.3159489689140858,0.7330338649890837,0.6292973176290615,0.37085405802975174,0.42905394567804567,-0.038046098789962735,-0.568108773336323,-0.9830834100569962],"Bias":0.8963399994811334,"ActivationFunction":{"$type":"MyMachineLearningLibrary.ReluActivationFunction","Leak":0.001}},{"$type":"MyMachineLearningLibrary.DensePerceptron","Output":0.8539599819713098,"Weights":[0.9956200989214553,0.4631234288383953,0.8708054693387701,0.13546461476738686,-0.19706640160701955,-0.6517150827499372,0.9028776737009787,0.30090964743681636,-0.39205532093800144,0.4969569291826169,-0.3806694844188003,-0.5476766785704368,0.8780986932456865,-0.9340819561657305,-0.49509472392812504,-0.8279200789752807,0.7275687051008184,0.557765947526078,-0.3349281016380726,-0.27809162313741026,-0.7581449810517588,-0.27624313814781387,0.021572399299379416,0.7865519245467291,0.8529800150496414],"Bias":-0.8009984774872906,"ActivationFunction":{"$type":"MyMachineLearningLibrary.ReluActivationFunction","Leak":0.001}},{"$type":"MyMachineLearningLibrary.DensePerceptron","Output":-2.017319271816973,"Weights":[0.34765006640379315,-0.618319907622074,0.9596631285635231,0.45454393108959457,0.8441131379661794,0.20555914253567423,0.6130389722161637,-0.8205699464358533,0.968589879312467,-0.9688190035305737,0.8637533627014505,0.8428211612191088,0.583566497628977,0.5725964038089469,0.2417329358972201,0.36814244422653,0.5652833800921685,0.5360767336749535,-0.8902077042758331,-0.645034923064644,0.05608405375003297,0.41549700861254935,-0.5765113585894339,0.021950949680312724,-0.8061769508164216],"Bias":0.049374434617343865,"ActivationFunction":{"$type":"MyMachineLearningLibrary.ReluActivationFunction","Leak":0.001}},{"$type":"MyMachineLearningLibrary.DensePerceptron","Output":-3.9981577826622257,"Weights":[0.8277202291462198,-0.862165353854125,0.927103222508346,0.9787567114653121,-0.38775207212353663,0.3685330429153314,0.30848964825893554,-0.3453133424106058,0.22717907576389412,-0.6205738095968041,-0.971837184086056,-0.9967920920804639,-1.0081834902872786,-0.9654008127113107,-0.30124344854651114,-0.8808307119990985,-0.0484225706458826,0.4260382697759465,-0.9844406291937065,-0.3255770409101141,-0.9684925887289808,-0.15419434021115874,-0.3629356625643514,-0.6903688843993023,-0.5217740683699956],"Bias":0.8644976391256278,"ActivationFunction":{"$type":"MyMachineLearningLibrary.ReluActivationFunction","Leak":0.001}},{"$type":"MyMachineLearningLibrary.DensePerceptron","Output":-0.2725984349371474,"Weights":[-0.37175224199856083,0.391597466010466,0.28772036433334836,0.19995854385387868,0.8552851837579044,0.592775250885556,0.5443932647255766,-0.39242783652166896,0.5806425561146978,0.02011152913161,0.9459897702779726,-0.8987802766394066,-0.49463216370218044,-0.615527724591012,0.4749722980573179,0.4747612332146466,-0.8391841736923066,-0.17557885061206815,0.7115280482940498,-0.4453145218134455,0.44835809312566,-0.5489932638162056,-0.18901066722688079,-0.061970858619164605,0.014117182164602608],"Bias":-0.04020986672668361,"ActivationFunction":{"$type":"MyMachineLearningLibrary.ReluActivationFunction","Leak":0.001}},{"$type":"MyMachineLearningLibrary.DensePerceptron","Output":-4.077440949516787,"Weights":[-0.34809149805880746,-0.24652824575781054,-0.6345871483650545,-0.02745654714712421,-0.021277551389093832,0.95689546929858,-0.7372635473847374,-0.10859554408890129,-0.9060326228302884,-0.8757682129071033,0.8091709742323299,-0.25455647743681475,-0.683925634274657,-0.38593003924417085,-0.8517660470232852,0.15037753589011138,-0.8219071277357829,0.6875373925508588,-0.8559961728140842,-0.9500122837113454,-0.5364161715085995,-0.6293843416839179,-0.43943626690118365,-0.4490892617952186,-0.43127459355883113],"Bias":0.9919877094930913,"ActivationFunction":{"$type":"MyMachineLearningLibrary.ReluActivationFunction","Leak":0.001}},{"$type":"MyMachineLearningLibrary.DensePerceptron","Output":0.09268212285699429,"Weights":[0.5969677505630675,-0.8834146783278952,0.17132237601443542,0.9812219938504716,1.0003042856878146,-0.7324809434843403,-0.6986955206251984,-0.21429402632957337,0.5737114214169713,0.7589352057345903,-0.15504180989621338,0.0311705232217271,0.16508214935758186,-0.10468702300056061,-0.4236264448677584,-0.9251347976917236,0.42133617637209936,-0.4116701667793914,0.3845537693416657,-0.764510154711829,-0.5538724604049692,-0.41952638919121193,-0.7831140036664428,0.40884447575058114,1.0045459699579722],"Bias":0.999970088792117,"ActivationFunction":{"$type":"MyMachineLearningLibrary.ReluActivationFunction","Leak":0.001}},{"$type":"MyMachineLearningLibrary.DensePerceptron","Output":-3.890102206924214,"Weights":[0.5353957607664338,-0.7557417479355815,0.29178412322443026,-0.179933901619787,-0.8686589924626095,-0.704376475941149,0.40060375017802985,-0.7213600315044605,-0.32008603213493286,-0.9384333697717804,0.8779735475366869,0.7308362087924165,0.05110754057103916,0.40392525562914466,0.11787609501100751,0.31458944245480025,-0.32847539449794233,0.21764773747587735,-0.23686301098200707,-0.2337661076865893,-0.22943487414817784,0.9158886928130141,0.3836355444191404,-0.1738654956268396,-0.6952495158665017],"Bias":0.5137753332979229,"ActivationFunction":{"$type":"MyMachineLearningLibrary.ReluActivationFunction","Leak":0.001}},{"$type":"MyMachineLearningLibrary.DensePerceptron","Output":2.4735207963083017,"Weights":[0.4984236161079979,0.14848520009822688,0.590067261714789,-0.46332468355370804,0.7981953063366822,0.3420401870216658,0.7434087654165854,0.4957817387992032,-0.13858537960919068,-0.8252134092147868,0.3630933011419134,0.6916204156173053,0.9078257964667217,-0.0022823618512974398,0.28860288179342436,-0.9103242847882527,-0.46789448858797655,-0.6759442489603696,0.7746471552571179,0.4569814204250117,0.014140892929280629,-0.008448304513534698,-0.7230914151615374,-0.42881495292811017,0.8610862805105594],"Bias":-0.7289407541716719,"ActivationFunction":{"$type":"MyMachineLearningLibrary.ReluActivationFunction","Leak":0.001}},{"$type":"MyMachineLearningLibrary.DensePerceptron","Output":-1.80221888921856,"Weights":[-0.15149995504333402,0.1491379010144563,-0.13177869570092818,0.163529587519161,-0.9819519451094718,0.29421894764861706,0.7559550891519666,-0.917496954427122,-0.9150753416927196,-0.975276443222344,-0.6344138547781515,-0.83233422739847,0.7101567337298794,-0.9165292862592974,-0.871519050289477,0.9907288654502209,0.3927817470077749,0.17366280617378102,0.9064618191913753,0.4818810552008689,-0.3730562827963766,0.6443482092368995,0.2463785401345586,-0.8010234662430047,0.911180216857032],"Bias":-0.7590692760001613,"ActivationFunction":{"$type":"MyMachineLearningLibrary.ReluActivationFunction","Leak":0.001}},{"$type":"MyMachineLearningLibrary.DensePerceptron","Output":2.856116211606469,"Weights":[0.3895268919641336,0.05948229848813176,0.6955553173412519,0.41291541938327564,0.7077396143903498,0.785695766718747,-0.9149741624637096,0.4454343432928997,0.7319188755481081,0.425561811703536,0.9559215210366033,-0.12890389355799042,-0.5569801823918432,-0.085169941306159,0.8892689806796756,0.6037588774485493,0.9405948033366667,-0.03139437004126404,-0.9964617564895749,-0.19106251282742764,0.8911779355957264,-0.6925415583173092,-0.2398738696343651,-0.8634304292166671,0.7294778899640019],"Bias":-0.6156770871538189,"ActivationFunction":{"$type":"MyMachineLearningLibrary.ReluActivationFunction","Leak":0.001}},{"$type":"MyMachineLearningLibrary.DensePerceptron","Output":-0.13581394694598514,"Weights":[0.16594932403754384,0.8533844804792087,0.29758131733973947,0.281061998694179,0.2620344524551674,-0.3658281491060875,-0.1465046952722797,-0.29006313037005177,0.8509377882590545,-0.27655772175784277,-0.7104293615120046,-0.6093726967741416,0.7860012457520119,-0.13478742952386702,0.08069199186959354,-0.9557574263833917,-0.8036229199328339,-0.6430408962329699,-0.08670996127873024,-0.8231641812802328,-0.28251250126289384,0.809531235553438,0.3444155232026472,0.15684714512766432,-0.4447625584299724],"Bias":1.0026634283510067,"ActivationFunction":{"$type":"MyMachineLearningLibrary.ReluActivationFunction","Leak":0.001}},{"$type":"MyMachineLearningLibrary.DensePerceptron","Output":0.6465925420151171,"Weights":[0.4996214071245045,-0.9473958922414055,0.5428682110443542,0.7749124596073234,0.9350925068918733,0.38687260133927637,0.04129873864122123,-0.6498429040706842,-0.8288777234604122,0.5217784850608949,0.36533059557840053,-0.5218908078318159,-0.7467513237352987,-0.9029384348566847,0.1877049785212759,0.15888499244956233,0.9750110863681981,0.8699658658657138,-0.81854833029775,0.5605842897210468,-0.9637370203323337,-0.42500112578588534,0.7582354228373829,0.11483566226144229,-0.7743476194990687],"Bias":0.9164791670346993,"ActivationFunction":{"$type":"MyMachineLearningLibrary.ReluActivationFunction","Leak":0.001}},{"$type":"MyMachineLearningLibrary.DensePerceptron","Output":-4.23341298712432,"Weights":[-0.5552367375026053,-0.3162429554992487,0.07333759751435305,-0.5751292065910384,-0.7965453787402601,-0.712635935759973,-0.7436575162182855,0.3983661165006615,0.7558627772098788,0.026684951206731738,-0.1378107334494607,-0.05692055233030353,-0.6612884340618997,-0.5549366358259319,-0.9113322372300738,0.39141187232807967,-0.2573961153867732,0.1074377576514102,-0.26694825214773593,-0.5415339218271917,0.0003982267096166314,-0.4380711268699342,-0.7674952266477423,-0.668750855127264,-0.35687251899777966],"Bias":0.1190158901940796,"ActivationFunction":{"$type":"MyMachineLearningLibrary.ReluActivationFunction","Leak":0.001}},{"$type":"MyMachineLearningLibrary.DensePerceptron","Output":-3.0902541584804224,"Weights":[-0.4213727601050433,-0.49114791284841713,-0.26635554732358824,-0.06893881161486122,-0.1188898448540465,-0.6879373416613591,-0.5330793448571055,-0.08247929323390536,0.9620340715045776,-0.6627827842822961,-0.8324137499839149,0.09839464544653458,0.2731596831295982,-0.5144395422937964,0.4147020998324654,0.38481625314781875,0.42577568008837946,0.5405269981282437,-0.9612666274114572,-0.6515186176531809,-0.01834920510365155,0.3721214748246232,0.47310634315036587,0.28508304633493536,-0.6238053973226854],"Bias":0.7154983820147154,"ActivationFunction":{"$type":"MyMachineLearningLibrary.ReluActivationFunction","Leak":0.001}},{"$type":"MyMachineLearningLibrary.DensePerceptron","Output":-1.1098136950948907,"Weights":[-0.42243586813691447,-0.15396092007769585,-0.12057965485499716,-0.07378513208314376,0.7179209539754231,-0.49665945366375,0.5045525419720791,0.7668919999601502,-0.4902864757432639,0.8443994217746035,-0.7756645387057405,0.5472469216123564,-0.3708666645727508,0.048347364105504664,-0.20556381446671393,0.5882999175442649,-0.09512532375341412,-0.7790893378877453,0.13487909181395857,-0.6410053043633198,0.5858680506629912,0.4466468508017125,0.03887488031851248,-0.4253300848567754,-0.025625169863464844],"Bias":-1.0058233111099888,"ActivationFunction":{"$type":"MyMachineLearningLibrary.ReluActivationFunction","Leak":0.001}},{"$type":"MyMachineLearningLibrary.DensePerceptron","Output":0.1339276631720523,"Weights":[0.9254872523015292,0.5212827447356444,0.09120572951415888,-0.9964017658675938,0.97882547000876,0.9239827786307206,0.9422613796285895,-0.5059630525115894,0.0853681304883692,0.6816539999902892,0.29403288999726385,-0.35994732180804145,-0.5303096003218938,-0.7379262536273756,0.8346098481723632,-0.3533574806981693,-0.07496505369859706,0.11739969879022101,0.9046314512073895,-0.8287809342675035,0.14040238847876033,-0.5119408554562213,-0.1629834974710866,-0.8765562780965946,-0.3333442815563412],"Bias":0.1780489259686733,"ActivationFunction":{"$type":"MyMachineLearningLibrary.ReluActivationFunction","Leak":0.001}}],"Gradients":{"Values":[[0],[0],[0],[0],[0],[0],[0],[0],[0],[0],[0],[0],[0],[0],[0],[0],[0],[0],[0],[0]],"RowLength":20,"ColoumnLength":1,"ElementCount":20,"Sum":0,"Average":0,"Max":0},"Weights":{"Values":[[0.45676759358586744,0.8295962887168414,0.28210798341741555,0.2590971266101768,-0.3426472497117082,0.9771028131985792,0.8256130796693048,0.4973186580457481,-0.4352188397820592,0.3018663388653259,0.26842982323012704,-0.45654416704102724,-0.7280835827341442,0.2300549910051353,-0.5770908174434162,0.24408173356139126,-0.17121732697814054,0.16445469598692922,0.5236122556983072,0.35409206446847347,-0.5027762082834281,0.699507701436573,0.5080276351562772,-0.7018594972617026,-0.6404242757604892],[-0.6250022396559628,0.10273941041712627,-0.7209890195008073,0.3963614842563054,0.8161249851263935,0.8438810286772915,-0.9202198873449896,0.9701521872447583,0.5515376038757057,0.7151985566541182,-0.11620451901166326,0.341300532079134,0.11986149716524795,-0.013028139233591139,-0.7377460834222546,-0.4631629406665781,0.5746024894990767,-0.6083501695835217,-0.040046853712789175,0.05026250873438726,-0.25991276101487576,0.5899528021140784,0.15863229128500425,-0.9925644231114304,0.9899996402497251],[0.7263892394110609,-0.24795658652006064,-0.3663365283252668,0.03733908023331548,0.556765727949504,-0.5405420877653715,0.5179048347300415,-0.8466288650675615,-0.03829073088306908,0.7934905038809816,-0.35509075423106173,-0.10050559277003332,0.2362684496282662,0.3041546692061926,0.4233537666832315,0.15907775211699304,-0.5847452246740318,0.8024716120792121,-0.3113012206930117,0.6389074563207918,0.4421008688792586,0.5110317461536169,-0.7450269192671464,0.3965182498108998,-0.10872583804503103],[0.2775393392269996,-0.24534792352177423,0.24559121812961773,-0.6439705357620819,0.949571648017868,0.23884867595856477,-0.6761953554308471,0.09993456362488519,-0.10591685456884294,-0.06922014150580344,0.1779877756527043,0.7788973734516241,0.43633290422837395,-0.8048083857216424,0.6973131429369815,0.5147868072806766,0.575197171296398,-0.3159489689140858,0.7330338649890837,0.6292973176290615,0.37085405802975174,0.42905394567804567,-0.038046098789962735,-0.568108773336323,-0.9830834100569962],[0.9956200989214553,0.4631234288383953,0.8708054693387701,0.13546461476738686,-0.19706640160701955,-0.6517150827499372,0.9028776737009787,0.30090964743681636,-0.39205532093800144,0.4969569291826169,-0.3806694844188003,-0.5476766785704368,0.8780986932456865,-0.9340819561657305,-0.49509472392812504,-0.8279200789752807,0.7275687051008184,0.557765947526078,-0.3349281016380726,-0.27809162313741026,-0.7581449810517588,-0.27624313814781387,0.021572399299379416,0.7865519245467291,0.8529800150496414],[0.34765006640379315,-0.618319907622074,0.9596631285635231,0.45454393108959457,0.8441131379661794,0.20555914253567423,0.6130389722161637,-0.8205699464358533,0.968589879312467,-0.9688190035305737,0.8637533627014505,0.8428211612191088,0.583566497628977,0.5725964038089469,0.2417329358972201,0.36814244422653,0.5652833800921685,0.5360767336749535,-0.8902077042758331,-0.645034923064644,0.05608405375003297,0.41549700861254935,-0.5765113585894339,0.021950949680312724,-0.8061769508164216],[0.8277202291462198,-0.862165353854125,0.927103222508346,0.9787567114653121,-0.38775207212353663,0.3685330429153314,0.30848964825893554,-0.3453133424106058,0.22717907576389412,-0.6205738095968041,-0.971837184086056,-0.9967920920804639,-1.0081834902872786,-0.9654008127113107,-0.30124344854651114,-0.8808307119990985,-0.0484225706458826,0.4260382697759465,-0.9844406291937065,-0.3255770409101141,-0.9684925887289808,-0.15419434021115874,-0.3629356625643514,-0.6903688843993023,-0.5217740683699956],[-0.37175224199856083,0.391597466010466,0.28772036433334836,0.19995854385387868,0.8552851837579044,0.592775250885556,0.5443932647255766,-0.39242783652166896,0.5806425561146978,0.02011152913161,0.9459897702779726,-0.8987802766394066,-0.49463216370218044,-0.615527724591012,0.4749722980573179,0.4747612332146466,-0.8391841736923066,-0.17557885061206815,0.7115280482940498,-0.4453145218134455,0.44835809312566,-0.5489932638162056,-0.18901066722688079,-0.061970858619164605,0.014117182164602608],[-0.34809149805880746,-0.24652824575781054,-0.6345871483650545,-0.02745654714712421,-0.021277551389093832,0.95689546929858,-0.7372635473847374,-0.10859554408890129,-0.9060326228302884,-0.8757682129071033,0.8091709742323299,-0.25455647743681475,-0.683925634274657,-0.38593003924417085,-0.8517660470232852,0.15037753589011138,-0.8219071277357829,0.6875373925508588,-0.8559961728140842,-0.9500122837113454,-0.5364161715085995,-0.6293843416839179,-0.43943626690118365,-0.4490892617952186,-0.43127459355883113],[0.5969677505630675,-0.8834146783278952,0.17132237601443542,0.9812219938504716,1.0003042856878146,-0.7324809434843403,-0.6986955206251984,-0.21429402632957337,0.5737114214169713,0.7589352057345903,-0.15504180989621338,0.0311705232217271,0.16508214935758186,-0.10468702300056061,-0.4236264448677584,-0.9251347976917236,0.42133617637209936,-0.4116701667793914,0.3845537693416657,-0.764510154711829,-0.5538724604049692,-0.41952638919121193,-0.7831140036664428,0.40884447575058114,1.0045459699579722],[0.5353957607664338,-0.7557417479355815,0.29178412322443026,-0.179933901619787,-0.8686589924626095,-0.704376475941149,0.40060375017802985,-0.7213600315044605,-0.32008603213493286,-0.9384333697717804,0.8779735475366869,0.7308362087924165,0.05110754057103916,0.40392525562914466,0.11787609501100751,0.31458944245480025,-0.32847539449794233,0.21764773747587735,-0.23686301098200707,-0.2337661076865893,-0.22943487414817784,0.9158886928130141,0.3836355444191404,-0.1738654956268396,-0.6952495158665017],[0.4984236161079979,0.14848520009822688,0.590067261714789,-0.46332468355370804,0.7981953063366822,0.3420401870216658,0.7434087654165854,0.4957817387992032,-0.13858537960919068,-0.8252134092147868,0.3630933011419134,0.6916204156173053,0.9078257964667217,-0.0022823618512974398,0.28860288179342436,-0.9103242847882527,-0.46789448858797655,-0.6759442489603696,0.7746471552571179,0.4569814204250117,0.014140892929280629,-0.008448304513534698,-0.7230914151615374,-0.42881495292811017,0.8610862805105594],[-0.15149995504333402,0.1491379010144563,-0.13177869570092818,0.163529587519161,-0.9819519451094718,0.29421894764861706,0.7559550891519666,-0.917496954427122,-0.9150753416927196,-0.975276443222344,-0.6344138547781515,-0.83233422739847,0.7101567337298794,-0.9165292862592974,-0.871519050289477,0.9907288654502209,0.3927817470077749,0.17366280617378102,0.9064618191913753,0.4818810552008689,-0.3730562827963766,0.6443482092368995,0.2463785401345586,-0.8010234662430047,0.911180216857032],[0.3895268919641336,0.05948229848813176,0.6955553173412519,0.41291541938327564,0.7077396143903498,0.785695766718747,-0.9149741624637096,0.4454343432928997,0.7319188755481081,0.425561811703536,0.9559215210366033,-0.12890389355799042,-0.5569801823918432,-0.085169941306159,0.8892689806796756,0.6037588774485493,0.9405948033366667,-0.03139437004126404,-0.9964617564895749,-0.19106251282742764,0.8911779355957264,-0.6925415583173092,-0.2398738696343651,-0.8634304292166671,0.7294778899640019],[0.16594932403754384,0.8533844804792087,0.29758131733973947,0.281061998694179,0.2620344524551674,-0.3658281491060875,-0.1465046952722797,-0.29006313037005177,0.8509377882590545,-0.27655772175784277,-0.7104293615120046,-0.6093726967741416,0.7860012457520119,-0.13478742952386702,0.08069199186959354,-0.9557574263833917,-0.8036229199328339,-0.6430408962329699,-0.08670996127873024,-0.8231641812802328,-0.28251250126289384,0.809531235553438,0.3444155232026472,0.15684714512766432,-0.4447625584299724],[0.4996214071245045,-0.9473958922414055,0.5428682110443542,0.7749124596073234,0.9350925068918733,0.38687260133927637,0.04129873864122123,-0.6498429040706842,-0.8288777234604122,0.5217784850608949,0.36533059557840053,-0.5218908078318159,-0.7467513237352987,-0.9029384348566847,0.1877049785212759,0.15888499244956233,0.9750110863681981,0.8699658658657138,-0.81854833029775,0.5605842897210468,-0.9637370203323337,-0.42500112578588534,0.7582354228373829,0.11483566226144229,-0.7743476194990687],[-0.5552367375026053,-0.3162429554992487,0.07333759751435305,-0.5751292065910384,-0.7965453787402601,-0.712635935759973,-0.7436575162182855,0.3983661165006615,0.7558627772098788,0.026684951206731738,-0.1378107334494607,-0.05692055233030353,-0.6612884340618997,-0.5549366358259319,-0.9113322372300738,0.39141187232807967,-0.2573961153867732,0.1074377576514102,-0.26694825214773593,-0.5415339218271917,0.0003982267096166314,-0.4380711268699342,-0.7674952266477423,-0.668750855127264,-0.35687251899777966],[-0.4213727601050433,-0.49114791284841713,-0.26635554732358824,-0.06893881161486122,-0.1188898448540465,-0.6879373416613591,-0.5330793448571055,-0.08247929323390536,0.9620340715045776,-0.6627827842822961,-0.8324137499839149,0.09839464544653458,0.2731596831295982,-0.5144395422937964,0.4147020998324654,0.38481625314781875,0.42577568008837946,0.5405269981282437,-0.9612666274114572,-0.6515186176531809,-0.01834920510365155,0.3721214748246232,0.47310634315036587,0.28508304633493536,-0.6238053973226854],[-0.42243586813691447,-0.15396092007769585,-0.12057965485499716,-0.07378513208314376,0.7179209539754231,-0.49665945366375,0.5045525419720791,0.7668919999601502,-0.4902864757432639,0.8443994217746035,-0.7756645387057405,0.5472469216123564,-0.3708666645727508,0.048347364105504664,-0.20556381446671393,0.5882999175442649,-0.09512532375341412,-0.7790893378877453,0.13487909181395857,-0.6410053043633198,0.5858680506629912,0.4466468508017125,0.03887488031851248,-0.4253300848567754,-0.025625169863464844],[0.9254872523015292,0.5212827447356444,0.09120572951415888,-0.9964017658675938,0.97882547000876,0.9239827786307206,0.9422613796285895,-0.5059630525115894,0.0853681304883692,0.6816539999902892,0.29403288999726385,-0.35994732180804145,-0.5303096003218938,-0.7379262536273756,0.8346098481723632,-0.3533574806981693,-0.07496505369859706,0.11739969879022101,0.9046314512073895,-0.8287809342675035,0.14040238847876033,-0.5119408554562213,-0.1629834974710866,-0.8765562780965946,-0.3333442815563412]],"RowLength":20,"ColoumnLength":25,"ElementCount":500,"Sum":-4.399284614675468,"Average":-0.008798569229350935,"Max":1.0045459699579722},"LayerOutputs":{"Values":[[2.5184283845474673],[3.296699455629761],[0.6675675597246825],[2.8193244058769436],[0.8539599819713098],[-0.002017319271816973],[-0.003998157782662225],[-0.0002725984349371474],[-0.004077440949516787],[0.09268212285699429],[-0.003890102206924214],[2.4735207963083017],[-0.00180221888921856],[2.856116211606469],[-0.00013581394694598515],[0.6465925420151171],[-0.0042334129871243196],[-0.0030902541584804225],[-0.0011098136950948908],[0.1339276631720523]],"RowLength":20,"ColoumnLength":1,"ElementCount":20,"Sum":16.334191991386376,"Average":0.8167095995693188,"Max":3.296699455629761}},{"$type":"MyMachineLearningLibrary.DenseLayer","LayerIndex":3,"Alpha":0.01,"Beta1":0.9,"Beta2":0.999,"DecayRate":1,"M":{"Values":[[0],[0],[0],[0],[0],[0],[0],[0],[0],[0],[0],[0],[0],[0],[0]],"RowLength":15,"ColoumnLength":1,"ElementCount":15,"Sum":0,"Average":0,"Max":0},"V":{"Values":[[0],[0],[0],[0],[0],[0],[0],[0],[0],[0],[0],[0],[0],[0],[0]],"RowLength":15,"ColoumnLength":1,"ElementCount":15,"Sum":0,"Average":0,"Max":0},"Epsilon":1E-08,"NumberOfPerceptrons":15,"ActivationFunction":{"$type":"MyMachineLearningLibrary.ReluActivationFunction","Leak":0.001},"Perceptrons":[{"$type":"MyMachineLearningLibrary.DensePerceptron","Output":4.414558763355758,"Weights":[-0.23172462849147482,-0.028242347675822985,0.9337147296661299,-0.12385207103742105,0.37970245956591436,-0.2213523930507766,-0.8583976560249389,-0.0469932824167171,0.2930692669250243,0.15132758262897342,0.19208715659630748,0.5381404053243352,0.004302482175501798,0.6470569592226508,0.49448501410031986,0.6744835553104349,0.5674718046589561,-0.25183903138180647,0.8011043610492832,-0.7216359908063248],"Bias":0.9606532916595094,"ActivationFunction":{"$type":"MyMachineLearningLibrary.ReluActivationFunction","Leak":0.001}},{"$type":"MyMachineLearningLibrary.DensePerceptron","Output":-1.5711335481973472,"Weights":[-0.6819784751789967,-0.4354005669565169,-0.40679191219207544,-0.08388421128348252,0.0035825692457200032,0.08834873902487897,0.5266675318906741,-0.4679033671876669,-0.9771705766384458,-0.22090855869636264,-0.08002803518741733,0.21437544125339875,0.7697213965560931,0.5899088423396833,-0.3551244699188834,0.7842361717030983,0.4482489912367615,0.46225456778444146,-0.2487487363537829,-0.645970488532183],"Bias":-0.5266577387529858,"ActivationFunction":{"$type":"MyMachineLearningLibrary.ReluActivationFunction","Leak":0.001}},{"$type":"MyMachineLearningLibrary.DensePerceptron","Output":-5.266173388952321,"Weights":[-0.4252988223691491,-0.2955930425546028,0.6020314990098581,-0.6605960927747847,0.31302138718876527,0.24278920761429781,-0.6433549264175075,0.31946765515542364,-0.0011042407759693689,0.3325020031817411,-0.5098757285153486,-0.04490885106724834,-0.0638237249562961,-0.9505552796553866,-0.8961348860709322,0.6950067531074987,0.4991467926353403,-0.7213827672958374,0.7812862722563492,0.3942563804050118],"Bias":0.2619494813206267,"ActivationFunction":{"$type":"MyMachineLearningLibrary.ReluActivationFunction","Leak":0.001}},{"$type":"MyMachineLearningLibrary.DensePerceptron","Output":-6.483374191559952,"Weights":[-0.24992099844011464,-0.7551086192276562,-0.9525604563234601,0.094611142799561,0.10935080470904592,0.6721483541400176,-0.3502830734200413,-0.6186628731424479,-0.5010738963091315,-0.12593065623483823,0.4932893976664544,-1.0075167279618347,-0.5465090933352522,-0.24955559996301444,-0.5094710631941128,-0.7864010268513325,0.8995533026247092,0.9954037577906122,0.448370917021232,0.11331670678509986],"Bias":0.6271958543974748,"ActivationFunction":{"$type":"MyMachineLearningLibrary.ReluActivationFunction","Leak":0.001}},{"$type":"MyMachineLearningLibrary.DensePerceptron","Output":3.268097267595316,"Weights":[-0.14476597217358875,0.7520990176557112,-0.06465135257634637,-0.141476777475614,-0.6589388055787913,-0.14406508871273693,-0.8196297705250396,-0.64699049892333,-0.5440320510977856,0.9409283063300315,-0.6545462656383886,0.14176713692039938,-0.6451436826145495,0.7371667419312553,0.6280442003613073,-0.19107943037212194,0.04234887134236309,0.2508488303277033,0.36140086533729004,-0.1676459823070032],"Bias":-0.2477384113692108,"ActivationFunction":{"$type":"MyMachineLearningLibrary.ReluActivationFunction","Leak":0.001}},{"$type":"MyMachineLearningLibrary.DensePerceptron","Output":-0.18434342529855402,"Weights":[0.31257441107168454,1.010797554812522,1.0062452734590903,-0.06329392689273199,-0.7236577127341519,-0.04962015013244635,-0.821490047932946,-0.6139123496651171,0.27806746197470056,0.06821083962295658,-0.8747008764978448,-0.8468119550339928,-0.5480794602313315,-0.4137417445961047,0.3145225801322388,-0.558646156780261,-0.9814335203519398,0.40368150969502536,-0.7607231958627061,0.2138372778788362],"Bias":-0.5871064983402235,"ActivationFunction":{"$type":"MyMachineLearningLibrary.ReluActivationFunction","Leak":0.001}},{"$type":"MyMachineLearningLibrary.DensePerceptron","Output":-2.5842823617203146,"Weights":[-0.1379132880905906,-0.27676167946669145,-0.7765521923055082,-0.15481190213938514,0.7097514645882897,-0.23715500758455407,-0.2691761772632179,0.08324863559316326,0.9673064505134394,0.036471086299684326,-0.8534605569068571,-0.2539781911730121,-0.022463168463509497,-0.020305360270328872,0.8482588852530227,-0.22688147545365056,-0.799892190419021,-0.7574895271552049,-0.4566197099015915,-0.9698322408304297],"Bias":-0.023767374718334865,"ActivationFunction":{"$type":"MyMachineLearningLibrary.ReluActivationFunction","Leak":0.001}},{"$type":"MyMachineLearningLibrary.DensePerceptron","Output":-1.3428292947276932,"Weights":[-0.6686940108724686,-0.8791955952001144,0.8804299155696957,0.39582486835893554,0.3180301920204728,0.33991103347740453,0.5841982879672122,-0.31571204412060294,0.17308987167322684,-0.5121275044717422,0.2843519100844707,0.6301072251214533,0.3965784062815474,0.06442236885746382,-0.2880287013951965,0.6996088084343235,0.42464604581645116,-0.7886234153222862,-0.7079894271543252,-0.36807495770875687],"Bias":-0.8299175033522787,"ActivationFunction":{"$type":"MyMachineLearningLibrary.ReluActivationFunction","Leak":0.001}},{"$type":"MyMachineLearningLibrary.DensePerceptron","Output":-10.858816629767817,"Weights":[-0.9706575101413969,-0.9884107685768492,0.818520111013799,-0.944626567996285,-0.947462502990762,0.38277985365419676,-0.9848883881551653,0.851542764483132,0.20861785940621597,-0.32831423462932174,0.31457395158060386,-0.47144066832299864,-0.37308385969900165,-0.8306765414476962,-0.6916882844284165,0.8716104979458759,0.21589764312407556,-0.5911807218647861,0.6015452062813131,-0.24935839968612275],"Bias":0.8072776360324354,"ActivationFunction":{"$type":"MyMachineLearningLibrary.ReluActivationFunction","Leak":0.001}},{"$type":"MyMachineLearningLibrary.DensePerceptron","Output":-3.819246764898221,"Weights":[0.47646409221286445,-0.8892021201647944,0.7141597761625421,-0.9852034088876179,0.5974562533146965,-0.6004556171228642,0.9471836304600015,0.20667671211527874,-0.8520347898655661,0.6595962914910016,0.9966557853256894,0.6783719148722018,0.06622106729257382,-0.693720354867426,-0.10350198749595146,0.4700654860656871,-0.9720557239194718,-0.050794893250123256,-0.2300132716496876,-0.12961286011212517],"Bias":-0.342821289901689,"ActivationFunction":{"$type":"MyMachineLearningLibrary.ReluActivationFunction","Leak":0.001}},{"$type":"MyMachineLearningLibrary.DensePerceptron","Output":-3.8996192825005043,"Weights":[-0.5419392446440592,-0.6411195390463409,0.4892609176538998,0.38603950399480763,0.26163924835987057,0.7262246083036904,-0.3314564547998953,0.19489675286405583,0.5166843464826382,0.8112783119252204,0.7685622104841319,0.05803346485499718,0.01053458459900808,-0.5211872810690352,0.9155438868468753,-0.692355031716305,-0.7037193213392223,-0.22624525789251518,-0.2920550935485351,-0.22815431568714778],"Bias":-0.31021676602386405,"ActivationFunction":{"$type":"MyMachineLearningLibrary.ReluActivationFunction","Leak":0.001}},{"$type":"MyMachineLearningLibrary.DensePerceptron","Output":-3.297977518994858,"Weights":[-0.9434483578673626,-0.10175479747427799,0.2962071771949141,-0.9793223954474285,0.652706525241866,0.6243270691824628,0.5760751761220818,0.1898437556836617,-0.9557661262646279,-0.7997461525986211,-0.8732825923646014,-0.4666052938033585,0.8518069579405361,0.8478600091206833,-0.274294673599405,-0.6916237214371994,-0.5124604284159341,-0.037808800583161106,-0.9647724283565098,-0.8740173633243603],"Bias":0.7847936036745644,"ActivationFunction":{"$type":"MyMachineLearningLibrary.ReluActivationFunction","Leak":0.001}},{"$type":"MyMachineLearningLibrary.DensePerceptron","Output":-2.042473518406506,"Weights":[-0.9244723565412093,0.7148292719343534,0.2067064946987516,0.2571677029665483,-1.018806878209817,0.17710073739077808,0.7574661513339471,0.05941620508215833,-0.7855649487953388,-0.29685203049752096,0.08442400191010052,-0.13371004253726937,0.8725206833461764,-0.9367043033350837,0.7608488639096135,0.16159526877661465,-0.914453884302227,0.261551106144114,-0.664541556301891,0.003774052316851653],"Bias":0.8627664793280182,"ActivationFunction":{"$type":"MyMachineLearningLibrary.ReluActivationFunction","Leak":0.001}},{"$type":"MyMachineLearningLibrary.DensePerceptron","Output":-4.256875954331067,"Weights":[-0.03609383178384123,-0.07221883842721716,0.7620017209602181,-0.9677724441290116,-0.8461262603607823,-0.8779244404812584,-0.5192743180455354,0.018011468934949326,0.8520836127241782,0.7810115704003466,-0.18613869265406152,0.5949785537906351,-0.3464200709709535,-0.576343535333142,-0.8485409710883911,-0.14334546791824795,-0.9597890853163816,-0.723199531148945,0.44809154178435234,-0.9241652030468266],"Bias":-0.6745281284769875,"ActivationFunction":{"$type":"MyMachineLearningLibrary.ReluActivationFunction","Leak":0.001}},{"$type":"MyMachineLearningLibrary.DensePerceptron","Output":-5.408634069810615,"Weights":[-0.7845296775646469,0.5813581301091751,-0.09891249018043541,-0.5741773785328403,0.6706782454374962,-0.8130611761404115,0.08789878275842175,0.4049515855672448,0.05579890949139598,-0.9103249235422074,0.14300321093321366,-0.9702885230919995,-0.33894239355047895,-0.7567634075998348,0.7440278877233596,-0.6378271060257531,-0.7904542319142495,-0.029916137690187243,0.285395309313368,-0.5968557374229305],"Bias":0.8969808506325063,"ActivationFunction":{"$type":"MyMachineLearningLibrary.ReluActivationFunction","Leak":0.001}}],"Gradients":{"Values":[[0],[0],[0],[0],[0],[0],[0],[0],[0],[0],[0],[0],[0],[0],[0]],"RowLength":15,"ColoumnLength":1,"ElementCount":15,"Sum":0,"Average":0,"Max":0},"Weights":{"Values":[[-0.23172462849147482,-0.028242347675822985,0.9337147296661299,-0.12385207103742105,0.37970245956591436,-0.2213523930507766,-0.8583976560249389,-0.0469932824167171,0.2930692669250243,0.15132758262897342,0.19208715659630748,0.5381404053243352,0.004302482175501798,0.6470569592226508,0.49448501410031986,0.6744835553104349,0.5674718046589561,-0.25183903138180647,0.8011043610492832,-0.7216359908063248],[-0.6819784751789967,-0.4354005669565169,-0.40679191219207544,-0.08388421128348252,0.0035825692457200032,0.08834873902487897,0.5266675318906741,-0.4679033671876669,-0.9771705766384458,-0.22090855869636264,-0.08002803518741733,0.21437544125339875,0.7697213965560931,0.5899088423396833,-0.3551244699188834,0.7842361717030983,0.4482489912367615,0.46225456778444146,-0.2487487363537829,-0.645970488532183],[-0.4252988223691491,-0.2955930425546028,0.6020314990098581,-0.6605960927747847,0.31302138718876527,0.24278920761429781,-0.6433549264175075,0.31946765515542364,-0.0011042407759693689,0.3325020031817411,-0.5098757285153486,-0.04490885106724834,-0.0638237249562961,-0.9505552796553866,-0.8961348860709322,0.6950067531074987,0.4991467926353403,-0.7213827672958374,0.7812862722563492,0.3942563804050118],[-0.24992099844011464,-0.7551086192276562,-0.9525604563234601,0.094611142799561,0.10935080470904592,0.6721483541400176,-0.3502830734200413,-0.6186628731424479,-0.5010738963091315,-0.12593065623483823,0.4932893976664544,-1.0075167279618347,-0.5465090933352522,-0.24955559996301444,-0.5094710631941128,-0.7864010268513325,0.8995533026247092,0.9954037577906122,0.448370917021232,0.11331670678509986],[-0.14476597217358875,0.7520990176557112,-0.06465135257634637,-0.141476777475614,-0.6589388055787913,-0.14406508871273693,-0.8196297705250396,-0.64699049892333,-0.5440320510977856,0.9409283063300315,-0.6545462656383886,0.14176713692039938,-0.6451436826145495,0.7371667419312553,0.6280442003613073,-0.19107943037212194,0.04234887134236309,0.2508488303277033,0.36140086533729004,-0.1676459823070032],[0.31257441107168454,1.010797554812522,1.0062452734590903,-0.06329392689273199,-0.7236577127341519,-0.04962015013244635,-0.821490047932946,-0.6139123496651171,0.27806746197470056,0.06821083962295658,-0.8747008764978448,-0.8468119550339928,-0.5480794602313315,-0.4137417445961047,0.3145225801322388,-0.558646156780261,-0.9814335203519398,0.40368150969502536,-0.7607231958627061,0.2138372778788362],[-0.1379132880905906,-0.27676167946669145,-0.7765521923055082,-0.15481190213938514,0.7097514645882897,-0.23715500758455407,-0.2691761772632179,0.08324863559316326,0.9673064505134394,0.036471086299684326,-0.8534605569068571,-0.2539781911730121,-0.022463168463509497,-0.020305360270328872,0.8482588852530227,-0.22688147545365056,-0.799892190419021,-0.7574895271552049,-0.4566197099015915,-0.9698322408304297],[-0.6686940108724686,-0.8791955952001144,0.8804299155696957,0.39582486835893554,0.3180301920204728,0.33991103347740453,0.5841982879672122,-0.31571204412060294,0.17308987167322684,-0.5121275044717422,0.2843519100844707,0.6301072251214533,0.3965784062815474,0.06442236885746382,-0.2880287013951965,0.6996088084343235,0.42464604581645116,-0.7886234153222862,-0.7079894271543252,-0.36807495770875687],[-0.9706575101413969,-0.9884107685768492,0.818520111013799,-0.944626567996285,-0.947462502990762,0.38277985365419676,-0.9848883881551653,0.851542764483132,0.20861785940621597,-0.32831423462932174,0.31457395158060386,-0.47144066832299864,-0.37308385969900165,-0.8306765414476962,-0.6916882844284165,0.8716104979458759,0.21589764312407556,-0.5911807218647861,0.6015452062813131,-0.24935839968612275],[0.47646409221286445,-0.8892021201647944,0.7141597761625421,-0.9852034088876179,0.5974562533146965,-0.6004556171228642,0.9471836304600015,0.20667671211527874,-0.8520347898655661,0.6595962914910016,0.9966557853256894,0.6783719148722018,0.06622106729257382,-0.693720354867426,-0.10350198749595146,0.4700654860656871,-0.9720557239194718,-0.050794893250123256,-0.2300132716496876,-0.12961286011212517],[-0.5419392446440592,-0.6411195390463409,0.4892609176538998,0.38603950399480763,0.26163924835987057,0.7262246083036904,-0.3314564547998953,0.19489675286405583,0.5166843464826382,0.8112783119252204,0.7685622104841319,0.05803346485499718,0.01053458459900808,-0.5211872810690352,0.9155438868468753,-0.692355031716305,-0.7037193213392223,-0.22624525789251518,-0.2920550935485351,-0.22815431568714778],[-0.9434483578673626,-0.10175479747427799,0.2962071771949141,-0.9793223954474285,0.652706525241866,0.6243270691824628,0.5760751761220818,0.1898437556836617,-0.9557661262646279,-0.7997461525986211,-0.8732825923646014,-0.4666052938033585,0.8518069579405361,0.8478600091206833,-0.274294673599405,-0.6916237214371994,-0.5124604284159341,-0.037808800583161106,-0.9647724283565098,-0.8740173633243603],[-0.9244723565412093,0.7148292719343534,0.2067064946987516,0.2571677029665483,-1.018806878209817,0.17710073739077808,0.7574661513339471,0.05941620508215833,-0.7855649487953388,-0.29685203049752096,0.08442400191010052,-0.13371004253726937,0.8725206833461764,-0.9367043033350837,0.7608488639096135,0.16159526877661465,-0.914453884302227,0.261551106144114,-0.664541556301891,0.003774052316851653],[-0.03609383178384123,-0.07221883842721716,0.7620017209602181,-0.9677724441290116,-0.8461262603607823,-0.8779244404812584,-0.5192743180455354,0.018011468934949326,0.8520836127241782,0.7810115704003466,-0.18613869265406152,0.5949785537906351,-0.3464200709709535,-0.576343535333142,-0.8485409710883911,-0.14334546791824795,-0.9597890853163816,-0.723199531148945,0.44809154178435234,-0.9241652030468266],[-0.7845296775646469,0.5813581301091751,-0.09891249018043541,-0.5741773785328403,0.6706782454374962,-0.8130611761404115,0.08789878275842175,0.4049515855672448,0.05579890949139598,-0.9103249235422074,0.14300321093321366,-0.9702885230919995,-0.33894239355047895,-0.7567634075998348,0.7440278877233596,-0.6378271060257531,-0.7904542319142495,-0.029916137690187243,0.285395309313368,-0.5968557374229305]],"RowLength":15,"ColoumnLength":20,"ElementCount":300,"Sum":-26.43964119477009,"Average":-0.0881321373159003,"Max":1.010797554812522},"LayerOutputs":{"Values":[[4.414558763355758],[-0.0015711335481973473],[-0.005266173388952322],[-0.006483374191559953],[3.268097267595316],[-0.00018434342529855403],[-0.0025842823617203145],[-0.0013428292947276932],[-0.010858816629767818],[-0.003819246764898221],[-0.0038996192825005043],[-0.003297977518994858],[-0.002042473518406506],[-0.004256875954331067],[-0.0054086340698106155]],"RowLength":15,"ColoumnLength":1,"ElementCount":15,"Sum":7.631640251001907,"Average":0.5087760167334605,"Max":4.414558763355758}},{"$type":"MyMachineLearningLibrary.DenseLayer","LayerIndex":4,"Alpha":0.01,"Beta1":0.9,"Beta2":0.999,"DecayRate":1,"M":{"Values":[[0],[0],[0],[0],[0],[0],[0],[0],[0],[0]],"RowLength":10,"ColoumnLength":1,"ElementCount":10,"Sum":0,"Average":0,"Max":0},"V":{"Values":[[0],[0],[0],[0],[0],[0],[0],[0],[0],[0]],"RowLength":10,"ColoumnLength":1,"ElementCount":10,"Sum":0,"Average":0,"Max":0},"Epsilon":1E-08,"NumberOfPerceptrons":10,"ActivationFunction":{"$type":"MyMachineLearningLibrary.ReluActivationFunction","Leak":0.001},"Perceptrons":[{"$type":"MyMachineLearningLibrary.DensePerceptron","Output":-2.231594893539284,"Weights":[-0.5678032256802071,-0.11886880550236519,0.7964884446255615,-0.7126520245977596,0.27721157557886345,0.8596737746962317,0.8537441501989815,0.01773381398453091,0.9451331433801771,-0.7722349519206173,0.692601590503058,0.22932251132192305,-0.8621687205527032,0.39891408746192974,0.16988306836882167],"Bias":-0.6175464625110543,"ActivationFunction":{"$type":"MyMachineLearningLibrary.ReluActivationFunction","Leak":0.001}},{"$type":"MyMachineLearningLibrary.DensePerceptron","Output":-1.7061933552670083,"Weights":[0.04436852948473461,-0.5977266169790882,0.9203980642808388,-0.16879310784410742,-0.7202511593293163,-0.08760553218221251,-0.14135028522010895,0.7090597136397421,-0.131238678676299,0.3158946003812464,-0.14697989475337062,0.8777326645336375,0.6518795923954108,0.07883577374279403,-0.0989285351291266],"Bias":0.45867129054680694,"ActivationFunction":{"$type":"MyMachineLearningLibrary.ReluActivationFunction","Leak":0.001}},{"$type":"MyMachineLearningLibrary.DensePerceptron","Output":1.5837471015280749,"Weights":[0.18161826194716588,-0.31631040291403806,-0.5863259846416076,-0.8863199423996075,0.14443447145191832,-0.8444356899658653,-0.18367850840786873,0.02556861333028554,0.4777514617536295,0.3272577954082942,-0.179612042088221,-0.19688273494278025,0.623641716444039,-0.12588347921680088,0.639110062330555],"Bias":0.30917996365143413,"ActivationFunction":{"$type":"MyMachineLearningLibrary.ReluActivationFunction","Leak":0.001}},{"$type":"MyMachineLearningLibrary.DensePerceptron","Output":2.9290626983132904,"Weights":[0.9178511181740444,-0.03537056127080361,0.528631246043368,0.5023277540093699,-0.2601573082572575,-0.7494961355884948,-0.8435181595827109,-0.6345213438049735,0.30630193847525855,-0.08893155419217762,-0.2550538331278396,-0.6868761049224706,-0.00010374542578367494,0.5401141910199816,0.040542780108584184],"Bias":-0.2674335220256051,"ActivationFunction":{"$type":"MyMachineLearningLibrary.ReluActivationFunction","Leak":0.001}},{"$type":"MyMachineLearningLibrary.DensePerceptron","Output":-4.498358078526043,"Weights":[-0.4899094088787177,-0.4726720829884958,-0.7271836264699229,0.21923180627198613,-0.9054741598287874,0.4353497759979136,-0.3360969407982346,-0.8731444683596143,0.2631196071642612,-0.6845490834215451,-0.35633932987194017,-0.6140905576185046,0.4980325363885615,0.870079997456812,0.4163603587933091],"Bias":0.6223747450983963,"ActivationFunction":{"$type":"MyMachineLearningLibrary.ReluActivationFunction","Leak":0.001}},{"$type":"MyMachineLearningLibrary.DensePerceptron","Output":0.6022998198665037,"Weights":[0.8470229378268775,-0.2168371327209378,0.7520453600185787,0.7095140772727071,-0.7048405167569269,-0.42310179412108806,-0.6112842273729363,-0.32711887398927025,-0.145338218113608,-0.4246964465095673,0.6867052227611018,0.5718347330805907,0.9329194964033738,0.31682329791225317,-0.7797020296825363],"Bias":-0.8271095420504713,"ActivationFunction":{"$type":"MyMachineLearningLibrary.ReluActivationFunction","Leak":0.001}},{"$type":"MyMachineLearningLibrary.DensePerceptron","Output":1.3316698940781528,"Weights":[0.1912459031512362,0.47409796075737876,0.4735800180588116,0.8007087664268093,0.2469277677268607,-0.6531229085157939,0.753693784402017,0.43296586162642686,-0.8703226463327082,0.06393256523687574,0.57955535052897,0.5311108628395204,-0.30121062599217396,-0.8848227713665545,-0.3396116150503489],"Bias":-0.32028714887915316,"ActivationFunction":{"$type":"MyMachineLearningLibrary.ReluActivationFunction","Leak":0.001}},{"$type":"MyMachineLearningLibrary.DensePerceptron","Output":-0.5282778853440787,"Weights":[0.6555266510191354,0.48692994750027907,0.22332343292455642,-0.526063610674859,-0.9258232697087265,0.17758859147217254,-0.39617020519815993,-0.4040301188919207,-0.800933436654524,-0.8462489040250528,0.36212347011060886,-0.13725126344448355,0.17694727993569517,-0.08456254270081157,0.8147282760183789],"Bias":-0.40615204750588135,"ActivationFunction":{"$type":"MyMachineLearningLibrary.ReluActivationFunction","Leak":0.001}},{"$type":"MyMachineLearningLibrary.DensePerceptron","Output":-0.19010651841286844,"Weights":[0.33622186249326846,-0.24125863125014063,0.1162165006530936,-0.08055684138424715,-0.43802739850499334,-0.17517978378734944,0.41452177033040094,-0.22501560909142676,0.5139327885664399,0.6722538798993734,0.2921645096609718,-0.311271297894463,-0.013781463826998379,-0.30776051496851936,-0.925962328629916],"Bias":-0.2406151161269998,"ActivationFunction":{"$type":"MyMachineLearningLibrary.ReluActivationFunction","Leak":0.001}},{"$type":"MyMachineLearningLibrary.DensePerceptron","Output":5.84811411699247,"Weights":[0.8459637148287844,0.3714330285857845,0.4432150484220491,-0.48421656577292815,0.5183678882655329,0.6691300431790128,-0.5419826827604876,-0.31884737433963173,0.0795913224985167,0.40498753502343743,0.3236101229142019,0.5809250520774046,-0.3080092935746918,-0.10793613847341023,-0.051935399846209034],"Bias":0.42164064152167985,"ActivationFunction":{"$type":"MyMachineLearningLibrary.ReluActivationFunction","Leak":0.001}}],"Gradients":{"Values":[[0],[0],[0],[0],[0],[0],[0],[0],[0],[0]],"RowLength":10,"ColoumnLength":1,"ElementCount":10,"Sum":0,"Average":0,"Max":0},"Weights":{"Values":[[-0.5678032256802071,-0.11886880550236519,0.7964884446255615,-0.7126520245977596,0.27721157557886345,0.8596737746962317,0.8537441501989815,0.01773381398453091,0.9451331433801771,-0.7722349519206173,0.692601590503058,0.22932251132192305,-0.8621687205527032,0.39891408746192974,0.16988306836882167],[0.04436852948473461,-0.5977266169790882,0.9203980642808388,-0.16879310784410742,-0.7202511593293163,-0.08760553218221251,-0.14135028522010895,0.7090597136397421,-0.131238678676299,0.3158946003812464,-0.14697989475337062,0.8777326645336375,0.6518795923954108,0.07883577374279403,-0.0989285351291266],[0.18161826194716588,-0.31631040291403806,-0.5863259846416076,-0.8863199423996075,0.14443447145191832,-0.8444356899658653,-0.18367850840786873,0.02556861333028554,0.4777514617536295,0.3272577954082942,-0.179612042088221,-0.19688273494278025,0.623641716444039,-0.12588347921680088,0.639110062330555],[0.9178511181740444,-0.03537056127080361,0.528631246043368,0.5023277540093699,-0.2601573082572575,-0.7494961355884948,-0.8435181595827109,-0.6345213438049735,0.30630193847525855,-0.08893155419217762,-0.2550538331278396,-0.6868761049224706,-0.00010374542578367494,0.5401141910199816,0.040542780108584184],[-0.4899094088787177,-0.4726720829884958,-0.7271836264699229,0.21923180627198613,-0.9054741598287874,0.4353497759979136,-0.3360969407982346,-0.8731444683596143,0.2631196071642612,-0.6845490834215451,-0.35633932987194017,-0.6140905576185046,0.4980325363885615,0.870079997456812,0.4163603587933091],[0.8470229378268775,-0.2168371327209378,0.7520453600185787,0.7095140772727071,-0.7048405167569269,-0.42310179412108806,-0.6112842273729363,-0.32711887398927025,-0.145338218113608,-0.4246964465095673,0.6867052227611018,0.5718347330805907,0.9329194964033738,0.31682329791225317,-0.7797020296825363],[0.1912459031512362,0.47409796075737876,0.4735800180588116,0.8007087664268093,0.2469277677268607,-0.6531229085157939,0.753693784402017,0.43296586162642686,-0.8703226463327082,0.06393256523687574,0.57955535052897,0.5311108628395204,-0.30121062599217396,-0.8848227713665545,-0.3396116150503489],[0.6555266510191354,0.48692994750027907,0.22332343292455642,-0.526063610674859,-0.9258232697087265,0.17758859147217254,-0.39617020519815993,-0.4040301188919207,-0.800933436654524,-0.8462489040250528,0.36212347011060886,-0.13725126344448355,0.17694727993569517,-0.08456254270081157,0.8147282760183789],[0.33622186249326846,-0.24125863125014063,0.1162165006530936,-0.08055684138424715,-0.43802739850499334,-0.17517978378734944,0.41452177033040094,-0.22501560909142676,0.5139327885664399,0.6722538798993734,0.2921645096609718,-0.311271297894463,-0.013781463826998379,-0.30776051496851936,-0.925962328629916],[0.8459637148287844,0.3714330285857845,0.4432150484220491,-0.48421656577292815,0.5183678882655329,0.6691300431790128,-0.5419826827604876,-0.31884737433963173,0.0795913224985167,0.40498753502343743,0.3236101229142019,0.5809250520774046,-0.3080092935746918,-0.10793613847341023,-0.051935399846209034]],"RowLength":10,"ColoumnLength":15,"ElementCount":150,"Sum":2.8462140642765617,"Average":0.01897476042851041,"Max":0.9451331433801771},"LayerOutputs":{"Values":[[-0.002231594893539284],[-0.0017061933552670085],[1.5837471015280749],[2.9290626983132904],[-0.004498358078526043],[0.6022998198665037],[1.3316698940781528],[-0.0005282778853440787],[-0.00019010651841286843],[5.84811411699247]],"RowLength":10,"ColoumnLength":1,"ElementCount":10,"Sum":12.285739100047403,"Average":1.2285739100047404,"Max":5.84811411699247}},{"$type":"MyMachineLearningLibrary.DenseLayer","LayerIndex":5,"Alpha":0.01,"Beta1":0.9,"Beta2":0.999,"DecayRate":1,"M":{"Values":[[0],[0],[0],[0],[0]],"RowLength":5,"ColoumnLength":1,"ElementCount":5,"Sum":0,"Average":0,"Max":0},"V":{"Values":[[0],[0],[0],[0],[0]],"RowLength":5,"ColoumnLength":1,"ElementCount":5,"Sum":0,"Average":0,"Max":0},"Epsilon":1E-08,"NumberOfPerceptrons":5,"ActivationFunction":{"$type":"MyMachineLearningLibrary.ReluActivationFunction","Leak":0.001},"Perceptrons":[{"$type":"MyMachineLearningLibrary.DensePerceptron","Output":0.5004725911977428,"Weights":[0.5666350208564418,0.8215542865913324,-0.7662661727608964,0.06298453315633391,-0.7867191119206838,0.7466857699810175,-0.015088365785055935,0.9339365958516267,0.7467690674283909,0.05883542404573314],"Bias":0.7558143919910393,"ActivationFunction":{"$type":"MyMachineLearningLibrary.ReluActivationFunction","Leak":0.001}},{"$type":"MyMachineLearningLibrary.DensePerceptron","Output":-2.960871534655225,"Weights":[0.6533880333970521,-0.7104871612501512,0.49873275537364264,0.34375972142927336,0.007299528841000131,-0.7721473450456448,-0.89118547078163,-0.9279857862661994,-0.43590652215050985,-0.3965170721870341],"Bias":-0.7870153321178709,"ActivationFunction":{"$type":"MyMachineLearningLibrary.ReluActivationFunction","Leak":0.001}},{"$type":"MyMachineLearningLibrary.DensePerceptron","Output":4.511183688962641,"Weights":[0.7329977970829208,-0.9172473704586619,0.7949067711357932,0.9558745909613992,-0.6233747724565737,0.940963751480639,0.5060430223432957,1.0131519529638062,-0.6422515030756546,-0.23364051136467015],"Bias":0.5756411017720877,"ActivationFunction":{"$type":"MyMachineLearningLibrary.ReluActivationFunction","Leak":0.001}},{"$type":"MyMachineLearningLibrary.DensePerceptron","Output":-0.3952202192506382,"Weights":[0.2544196266663905,0.7122256595763814,-0.8287486673748573,-0.20623574699068525,-0.259309303597907,0.6574225852858813,-0.6240489890781634,-0.2615555884249137,0.4501728595021774,0.36532390376409407],"Bias":-0.17957832078446048,"ActivationFunction":{"$type":"MyMachineLearningLibrary.ReluActivationFunction","Leak":0.001}},{"$type":"MyMachineLearningLibrary.DensePerceptron","Output":-0.3071658997070954,"Weights":[-0.7921423454555165,0.25608755521010323,-0.016150331671427338,0.7746569658450916,0.5594945515471386,0.07732873141353201,-0.7584504423907881,-0.6767695137516662,-0.8957210962722683,-0.27720654341943063],"Bias":0.03462246536075914,"ActivationFunction":{"$type":"MyMachineLearningLibrary.ReluActivationFunction","Leak":0.001}}],"Gradients":{"Values":[[0],[0],[0],[0],[0]],"RowLength":5,"ColoumnLength":1,"ElementCount":5,"Sum":0,"Average":0,"Max":0},"Weights":{"Values":[[0.5666350208564418,0.8215542865913324,-0.7662661727608964,0.06298453315633391,-0.7867191119206838,0.7466857699810175,-0.015088365785055935,0.9339365958516267,0.7467690674283909,0.05883542404573314],[0.6533880333970521,-0.7104871612501512,0.49873275537364264,0.34375972142927336,0.007299528841000131,-0.7721473450456448,-0.89118547078163,-0.9279857862661994,-0.43590652215050985,-0.3965170721870341],[0.7329977970829208,-0.9172473704586619,0.7949067711357932,0.9558745909613992,-0.6233747724565737,0.940963751480639,0.5060430223432957,1.0131519529638062,-0.6422515030756546,-0.23364051136467015],[0.2544196266663905,0.7122256595763814,-0.8287486673748573,-0.20623574699068525,-0.259309303597907,0.6574225852858813,-0.6240489890781634,-0.2615555884249137,0.4501728595021774,0.36532390376409407],[-0.7921423454555165,0.25608755521010323,-0.016150331671427338,0.7746569658450916,0.5594945515471386,0.07732873141353201,-0.7584504423907881,-0.6767695137516662,-0.8957210962722683,-0.27720654341943063]],"RowLength":5,"ColoumnLength":10,"ElementCount":50,"Sum":0.7764953277994995,"Average":0.01552990655598999,"Max":1.0131519529638062},"LayerOutputs":{"Values":[[0.5004725911977428],[-0.002960871534655225],[4.511183688962641],[-0.0003952202192506382],[-0.0003071658997070954]],"RowLength":5,"ColoumnLength":1,"ElementCount":5,"Sum":5.007993022506771,"Average":1.001598604501354,"Max":4.511183688962641}},{"$type":"MyMachineLearningLibrary.DenseLayer","LayerIndex":6,"Alpha":0.01,"Beta1":0.9,"Beta2":0.999,"DecayRate":1,"M":{"Values":[[0]],"RowLength":1,"ColoumnLength":1,"ElementCount":1,"Sum":0,"Average":0,"Max":0},"V":{"Values":[[0]],"RowLength":1,"ColoumnLength":1,"ElementCount":1,"Sum":0,"Average":0,"Max":0},"Epsilon":1E-08,"NumberOfPerceptrons":1,"ActivationFunction":{"$type":"MyMachineLearningLibrary.SigmoidActivationFunction"},"Perceptrons":[{"$type":"MyMachineLearningLibrary.DensePerceptron","Output":-0.5582536435366775,"Weights":[0.5026871467565971,0.15138615668598973,-0.3286432285819992,-0.6077557945360078,0.7456448294178301],"Bias":0.6732492055314724,"ActivationFunction":{"$type":"MyMachineLearningLibrary.SigmoidActivationFunction"}}],"Gradients":{"Values":[[0]],"RowLength":1,"ColoumnLength":1,"ElementCount":1,"Sum":0,"Average":0,"Max":0},"Weights":{"Values":[[0.5026871467565971,0.15138615668598973,-0.3286432285819992,-0.6077557945360078,0.7456448294178301]],"RowLength":1,"ColoumnLength":5,"ElementCount":5,"Sum":0.4633191097424099,"Average":0.09266382194848198,"Max":0.7456448294178301},"LayerOutputs":{"Values":[[0.3639516291155275]],"RowLength":1,"ColoumnLength":1,"ElementCount":1,"Sum":0.3639516291155275,"Average":0.3639516291155275,"Max":0.3639516291155275}}],"LearningRate":0.001,"NumberOfInputs":5,"LossFunction":{"$type":"MyMachineLearningLibrary.BinaryCrossEntropyLossFunction"}}