{"Layers":[{"$type":"MyMachineLearningLibrary.InputLayer","ActivationFunction":{"$type":"MyMachineLearningLibrary.SigmoidActivationFunction"},"LayerOutputs":{"Values":[[0.2710509633281144],[0.5554275264122589],[0.5253490104374915],[0.09250501941134448],[0.7154552980878794],[0.55349124681871],[0.5490479951397101],[0.45464474027403456],[0.7040207041670057],[0.4950201142851167]],"RowLength":10,"ColoumnLength":1,"ElementCount":10,"Sum":4.916012618361665,"Average":0.49160126183616654,"Max":0.7154552980878794},"NumberOfPerceptrons":10,"Gradients":{"Values":[[0],[0],[0],[0],[0],[0],[0],[0],[0],[0]],"RowLength":10,"ColoumnLength":1,"ElementCount":10,"Sum":0,"Average":0,"Max":0}},{"$type":"MyMachineLearningLibrary.DenseLayer","NumberOfPerceptrons":20,"ActivationFunction":{"$type":"MyMachineLearningLibrary.ReluActivationFunction","Leak":0.001},"Perceptrons":[{"$type":"MyMachineLearningLibrary.DensePerceptron","Output":-0.35396543124095214,"Weights":[-0.5625733274771804,-0.12571106276220276,0.3431897048245903,-0.3533493602324013,0.7763152982835682,-0.2410854187668424,0.10886840861344743,0.36971384269210894,0.142367660125639,-0.17444016676032775],"Bias":-0.9429848400916292,"ActivationFunction":{"$type":"MyMachineLearningLibrary.ReluActivationFunction","Leak":0.001}},{"$type":"MyMachineLearningLibrary.DensePerceptron","Output":-0.8509452184119995,"Weights":[-0.22474404228300032,-0.16422538104789294,0.06822475197996547,-0.45371569430597725,-0.5053493573006419,-0.08334769577583342,0.82101234603503,0.42846445148473244,-0.8208883990403928,0.9532232061276966],"Bias":-0.8245130779764209,"ActivationFunction":{"$type":"MyMachineLearningLibrary.ReluActivationFunction","Leak":0.001}},{"$type":"MyMachineLearningLibrary.DensePerceptron","Output":-1.1583427630141778,"Weights":[-0.650176463389692,0.2807078388743788,-0.12692368527827036,0.15930540672552562,-0.8988565636912214,-0.4399497096079528,-0.5555208199266995,-0.18053308525106448,-0.15491808014138014,-0.6786788494550142],"Bias":0.6326292368715786,"ActivationFunction":{"$type":"MyMachineLearningLibrary.ReluActivationFunction","Leak":0.001}},{"$type":"MyMachineLearningLibrary.DensePerceptron","Output":0.7766871236406182,"Weights":[-0.21367817435148442,-0.15221372792963547,0.04578918946581501,-0.5317773715515555,0.25443185012545566,-0.056145776027896534,-0.564678171606578,-0.4374672500410045,-0.6034657114723871,-0.06198772053805441],"Bias":1.7578257257210097,"ActivationFunction":{"$type":"MyMachineLearningLibrary.ReluActivationFunction","Leak":0.001}},{"$type":"MyMachineLearningLibrary.DensePerceptron","Output":-0.8334224671664949,"Weights":[-0.9410817817361828,0.9324071738313053,-0.37680417020759693,0.31239868569766055,-0.08329564143593807,-0.22044198554223285,-0.3296590788675392,-0.752464458860489,0.08773425022756137,0.9325453716532962],"Bias":-0.7458564724067297,"ActivationFunction":{"$type":"MyMachineLearningLibrary.ReluActivationFunction","Leak":0.001}},{"$type":"MyMachineLearningLibrary.DensePerceptron","Output":0.3751067185607765,"Weights":[-0.02018415662219776,0.19490338231643514,-0.20707887308269132,0.6201993597681702,0.20222834237982232,-0.5895584712572227,-0.1278967230870745,0.4183651767285811,-0.3862016718806943,0.032622818599631974],"Bias":0.6411451696574552,"ActivationFunction":{"$type":"MyMachineLearningLibrary.ReluActivationFunction","Leak":0.001}},{"$type":"MyMachineLearningLibrary.DensePerceptron","Output":1.1714303857430468,"Weights":[1.1313892541346926,0.30521111979040083,0.47941100461646025,-0.0417198698433278,0.7213006139697113,-0.3741011141921248,-0.23492715960504507,-0.5479426698179694,1.1274982209300586,0.3046852828793063],"Bias":-0.4282668352081954,"ActivationFunction":{"$type":"MyMachineLearningLibrary.ReluActivationFunction","Leak":0.001}},{"$type":"MyMachineLearningLibrary.DensePerceptron","Output":-0.6458441775909803,"Weights":[-0.8615080787776749,0.7534302300377818,0.11188833094570624,0.5082760831936618,-0.274482735214133,0.6841798333604643,-0.9342761686289766,-0.13764446534279018,-0.9792805920933916,-0.14322422238693175],"Bias":0.21696106202022122,"ActivationFunction":{"$type":"MyMachineLearningLibrary.ReluActivationFunction","Leak":0.001}},{"$type":"MyMachineLearningLibrary.DensePerceptron","Output":0.6673210653176977,"Weights":[0.04153132366675444,-0.464928894979765,-0.712124586080875,-0.698953676285898,-0.4590038226335408,-0.6846731304768355,0.09732026193811008,-0.32807382432200766,-0.42192368730641194,-0.15741580668690622],"Bias":2.5311826546761425,"ActivationFunction":{"$type":"MyMachineLearningLibrary.ReluActivationFunction","Leak":0.001}},{"$type":"MyMachineLearningLibrary.DensePerceptron","Output":1.7250435548066927,"Weights":[0.9999421840815453,-0.30453545731967435,0.18193279352615863,0.6263249945456347,1.1822495972744629,0.3631939952149312,-0.12887509828218627,0.4519352258558102,0.5518582911488248,0.5306761412753863],"Bias":-0.36318134146180303,"ActivationFunction":{"$type":"MyMachineLearningLibrary.ReluActivationFunction","Leak":0.001}},{"$type":"MyMachineLearningLibrary.DensePerceptron","Output":-0.4373379165648105,"Weights":[-0.9005875534056046,-0.14031257321322735,-0.6682141710334938,0.09144175426205173,0.830290187453314,0.6097462477590038,0.8878727658166468,-0.34090542523108047,-0.0903078196967907,-0.421252388915645],"Bias":-0.7646241208116108,"ActivationFunction":{"$type":"MyMachineLearningLibrary.ReluActivationFunction","Leak":0.001}},{"$type":"MyMachineLearningLibrary.DensePerceptron","Output":-1.9547122364596436,"Weights":[0.5978499893511233,0.5122162310132201,-0.15812655249725613,-0.20968327416393628,-0.18624270217252062,-0.9491233468155348,-0.6308859067648509,-0.6244576415536989,-0.9245918069174328,0.428646583303573],"Bias":-0.571174762663099,"ActivationFunction":{"$type":"MyMachineLearningLibrary.ReluActivationFunction","Leak":0.001}},{"$type":"MyMachineLearningLibrary.DensePerceptron","Output":1.0270722001967991,"Weights":[-0.4819133744293941,0.4808202012191015,-0.6661774740071507,0.600176478719018,0.5531353108076628,0.5800820081226172,-0.6626953125972125,0.11145194580145197,-0.07133891987438068,-0.48859851132502885],"Bias":1.0735632747832173,"ActivationFunction":{"$type":"MyMachineLearningLibrary.ReluActivationFunction","Leak":0.001}},{"$type":"MyMachineLearningLibrary.DensePerceptron","Output":-1.2038681597269927,"Weights":[0.3035155498169726,-0.9578475919886189,-0.5165575262042192,-0.6932001921833169,-1.1121197449462572,-0.4288481508628329,0.11385236035064546,-0.42833134371157644,0.7383355957608644,0.01382587466588756],"Bias":0.2199923176727572,"ActivationFunction":{"$type":"MyMachineLearningLibrary.ReluActivationFunction","Leak":0.001}},{"$type":"MyMachineLearningLibrary.DensePerceptron","Output":-1.0468320760620113,"Weights":[-0.5952052386428187,0.2360653344202567,0.2109951774954857,-0.567653907403723,0.3420491322337149,-0.7717963070772357,0.47329734551658004,-0.5701728907098093,0.0734143180690084,-0.29122714129982646],"Bias":-0.8006507223782908,"ActivationFunction":{"$type":"MyMachineLearningLibrary.ReluActivationFunction","Leak":0.001}},{"$type":"MyMachineLearningLibrary.DensePerceptron","Output":1.3962465859255595,"Weights":[0.5547222286550094,1.2606120964398377,-0.16753923382428654,0.08390531650162596,0.7848811246793325,-0.1900407558089434,0.9678912201483819,0.5064598344501069,-0.3687278160275062,0.8513022744631031],"Bias":-0.7539214272174445,"ActivationFunction":{"$type":"MyMachineLearningLibrary.ReluActivationFunction","Leak":0.001}},{"$type":"MyMachineLearningLibrary.DensePerceptron","Output":-1.117433738057425,"Weights":[-0.16609078288646706,-0.1132913357798871,-0.48747099043142006,0.1865749662066951,-0.5493666893294961,-0.03061164901199255,-0.45159168113571435,-0.09324269732152501,-0.3183524823598936,-0.8089156253849349],"Bias":0.5542283632682702,"ActivationFunction":{"$type":"MyMachineLearningLibrary.ReluActivationFunction","Leak":0.001}},{"$type":"MyMachineLearningLibrary.DensePerceptron","Output":-0.21171180184381785,"Weights":[0.7124027392668354,0.8796016371119653,-0.48470143819758027,-0.5579764390383913,-1.018861846680034,-0.6097165840970354,0.9047543809292852,-0.5929257637840535,0.22571175972664342,0.4083165017873577],"Bias":-0.10890191328482049,"ActivationFunction":{"$type":"MyMachineLearningLibrary.ReluActivationFunction","Leak":0.001}},{"$type":"MyMachineLearningLibrary.DensePerceptron","Output":-1.0827264143213333,"Weights":[-0.2628963448817953,-0.16290600538513014,0.2867826512193721,0.31691447094176756,-0.18021956569875297,-0.7554187691417645,-0.9955672396823958,-0.3777170560259272,0.8383979253971539,-0.41151497784244656],"Bias":-0.22210611810767414,"ActivationFunction":{"$type":"MyMachineLearningLibrary.ReluActivationFunction","Leak":0.001}},{"$type":"MyMachineLearningLibrary.DensePerceptron","Output":-0.7882458010660072,"Weights":[-0.8383412411581983,0.0020901182099897627,-0.919458347010764,1.236008015597536,-0.8131458755815053,-0.49177816302682437,-0.13833060711939602,-0.266544739209244,0.20539991371879668,-0.1588604326843512],"Bias":0.7916571460861739,"ActivationFunction":{"$type":"MyMachineLearningLibrary.ReluActivationFunction","Leak":0.001}}],"Gradients":{"Values":[[0],[0],[0],[0],[0],[0],[0],[0],[0],[0],[0],[0],[0],[0],[0],[0],[0],[0],[0],[0]],"RowLength":20,"ColoumnLength":1,"ElementCount":20,"Sum":0,"Average":0,"Max":0},"Weights":{"Values":[[-0.5625733274771804,-0.12571106276220276,0.3431897048245903,-0.3533493602324013,0.7763152982835682,-0.2410854187668424,0.10886840861344743,0.36971384269210894,0.142367660125639,-0.17444016676032775],[-0.22474404228300032,-0.16422538104789294,0.06822475197996547,-0.45371569430597725,-0.5053493573006419,-0.08334769577583342,0.82101234603503,0.42846445148473244,-0.8208883990403928,0.9532232061276966],[-0.650176463389692,0.2807078388743788,-0.12692368527827036,0.15930540672552562,-0.8988565636912214,-0.4399497096079528,-0.5555208199266995,-0.18053308525106448,-0.15491808014138014,-0.6786788494550142],[-0.21367817435148442,-0.15221372792963547,0.04578918946581501,-0.5317773715515555,0.25443185012545566,-0.056145776027896534,-0.564678171606578,-0.4374672500410045,-0.6034657114723871,-0.06198772053805441],[-0.9410817817361828,0.9324071738313053,-0.37680417020759693,0.31239868569766055,-0.08329564143593807,-0.22044198554223285,-0.3296590788675392,-0.752464458860489,0.08773425022756137,0.9325453716532962],[-0.02018415662219776,0.19490338231643514,-0.20707887308269132,0.6201993597681702,0.20222834237982232,-0.5895584712572227,-0.1278967230870745,0.4183651767285811,-0.3862016718806943,0.032622818599631974],[1.1313892541346926,0.30521111979040083,0.47941100461646025,-0.0417198698433278,0.7213006139697113,-0.3741011141921248,-0.23492715960504507,-0.5479426698179694,1.1274982209300586,0.3046852828793063],[-0.8615080787776749,0.7534302300377818,0.11188833094570624,0.5082760831936618,-0.274482735214133,0.6841798333604643,-0.9342761686289766,-0.13764446534279018,-0.9792805920933916,-0.14322422238693175],[0.04153132366675444,-0.464928894979765,-0.712124586080875,-0.698953676285898,-0.4590038226335408,-0.6846731304768355,0.09732026193811008,-0.32807382432200766,-0.42192368730641194,-0.15741580668690622],[0.9999421840815453,-0.30453545731967435,0.18193279352615863,0.6263249945456347,1.1822495972744629,0.3631939952149312,-0.12887509828218627,0.4519352258558102,0.5518582911488248,0.5306761412753863],[-0.9005875534056046,-0.14031257321322735,-0.6682141710334938,0.09144175426205173,0.830290187453314,0.6097462477590038,0.8878727658166468,-0.34090542523108047,-0.0903078196967907,-0.421252388915645],[0.5978499893511233,0.5122162310132201,-0.15812655249725613,-0.20968327416393628,-0.18624270217252062,-0.9491233468155348,-0.6308859067648509,-0.6244576415536989,-0.9245918069174328,0.428646583303573],[-0.4819133744293941,0.4808202012191015,-0.6661774740071507,0.600176478719018,0.5531353108076628,0.5800820081226172,-0.6626953125972125,0.11145194580145197,-0.07133891987438068,-0.48859851132502885],[0.3035155498169726,-0.9578475919886189,-0.5165575262042192,-0.6932001921833169,-1.1121197449462572,-0.4288481508628329,0.11385236035064546,-0.42833134371157644,0.7383355957608644,0.01382587466588756],[-0.5952052386428187,0.2360653344202567,0.2109951774954857,-0.567653907403723,0.3420491322337149,-0.7717963070772357,0.47329734551658004,-0.5701728907098093,0.0734143180690084,-0.29122714129982646],[0.5547222286550094,1.2606120964398377,-0.16753923382428654,0.08390531650162596,0.7848811246793325,-0.1900407558089434,0.9678912201483819,0.5064598344501069,-0.3687278160275062,0.8513022744631031],[-0.16609078288646706,-0.1132913357798871,-0.48747099043142006,0.1865749662066951,-0.5493666893294961,-0.03061164901199255,-0.45159168113571435,-0.09324269732152501,-0.3183524823598936,-0.8089156253849349],[0.7124027392668354,0.8796016371119653,-0.48470143819758027,-0.5579764390383913,-1.018861846680034,-0.6097165840970354,0.9047543809292852,-0.5929257637840535,0.22571175972664342,0.4083165017873577],[-0.2628963448817953,-0.16290600538513014,0.2867826512193721,0.31691447094176756,-0.18021956569875297,-0.7554187691417645,-0.9955672396823958,-0.3777170560259272,0.8383979253971539,-0.41151497784244656],[-0.8383412411581983,0.0020901182099897627,-0.919458347010764,1.236008015597536,-0.8131458755815053,-0.49177816302682437,-0.13833060711939602,-0.266544739209244,0.20539991371879668,-0.1588604326843512]],"RowLength":20,"ColoumnLength":10,"ElementCount":200,"Sum":-12.630118237705766,"Average":-0.06315059118852882,"Max":1.2606120964398377},"LayerOutputs":{"Values":[[-0.00035396543124095216],[-0.0008509452184119996],[-0.0011583427630141778],[0.7766871236406182],[-0.0008334224671664949],[0.3751067185607765],[1.1714303857430468],[-0.0006458441775909804],[0.6673210653176977],[1.7250435548066927],[-0.00043733791656481053],[-0.0019547122364596435],[1.0270722001967991],[-0.0012038681597269928],[-0.0010468320760620114],[1.3962465859255595],[-0.001117433738057425],[-0.00021171180184381786],[-0.0010827264143213333],[-0.0007882458010660072]],"RowLength":20,"ColoumnLength":1,"ElementCount":20,"Sum":7.127222245989665,"Average":0.35636111229948325,"Max":1.7250435548066927}},{"$type":"MyMachineLearningLibrary.DenseLayer","NumberOfPerceptrons":15,"ActivationFunction":{"$type":"MyMachineLearningLibrary.ReluActivationFunction","Leak":0.001},"Perceptrons":[{"$type":"MyMachineLearningLibrary.DensePerceptron","Output":2.95530051591314,"Weights":[0.12467920002083116,-0.28543149870971185,0.29017511615748864,1.0214638465113626,0.8945678118497524,0.861928775279557,0.7774576376278465,0.030488965425288294,0.59627851892049,0.15315850204513415,-0.19295527921083422,0.3913708735235203,0.48652680617559213,-0.07054690882790975,0.10704279586538372,-0.5148756558639003,-0.2937027393771078,0.7140999954911009,0.22439603739423516,-0.17784425937961462],"Bias":0.4865213632434786,"ActivationFunction":{"$type":"MyMachineLearningLibrary.ReluActivationFunction","Leak":0.001}},{"$type":"MyMachineLearningLibrary.DensePerceptron","Output":-1.2862363954950615,"Weights":[0.9497483124334215,0.3332139140999122,-0.6411869021173501,0.20960581344340523,-0.423819822191951,0.9473795842447859,-0.6444543734635518,0.1871144674274837,-0.02390054853101244,-0.6590971245987408,0.7858104882120245,-0.09165572531528872,0.748304093223871,-0.0930148260005464,-0.6807503264021626,-0.6342794613541922,0.7554997718816704,0.583711881273491,-0.9458587506065147,-0.5860099032025107],"Bias":0.2189655573255284,"ActivationFunction":{"$type":"MyMachineLearningLibrary.ReluActivationFunction","Leak":0.001}},{"$type":"MyMachineLearningLibrary.DensePerceptron","Output":0.1050975245234717,"Weights":[0.34326990158062975,-0.5291163230609057,-0.6502557578444752,0.15667444446050124,0.3570675183713901,-0.4987819046190778,0.15346733609559957,-0.5346301083815982,0.04187416990294029,-0.8296150324368526,0.8334789416006488,-0.6730051419032309,0.8123837131278536,0.8739749883310101,-0.4623402336578052,-0.18049454330118878,-0.45509912175496825,0.44478355366059863,-0.6963611774266211,0.29635016967566313],"Bias":0.8091089700697753,"ActivationFunction":{"$type":"MyMachineLearningLibrary.ReluActivationFunction","Leak":0.001}},{"$type":"MyMachineLearningLibrary.DensePerceptron","Output":0.9461090594355042,"Weights":[0.7139712483427961,0.1907252378693377,-0.018971996116832278,0.45893739955184404,-0.7256722838915033,0.5872283768541328,0.08839852169895682,0.0838068894495592,1.0449507311709962,0.04648068582573732,0.9494261698686728,-0.25892602296828376,0.6012947490130325,0.5755500198588933,-0.8731479588329429,-0.6881587069591996,0.09408203176268205,0.3717223981486876,-0.18187615872999277,0.29283297981788503],"Bias":-0.16862636389958513,"ActivationFunction":{"$type":"MyMachineLearningLibrary.ReluActivationFunction","Leak":0.001}},{"$type":"MyMachineLearningLibrary.DensePerceptron","Output":2.6530903294496357,"Weights":[-0.10506413373070689,-0.8248058771679493,-0.37487832934883575,0.24242059138941663,-0.773294926156008,-0.5892045926150298,0.3220397637738089,-0.8376144456762118,-0.5904693100580681,0.7557396180438543,0.2700334710572617,-0.292454875887979,0.8273154115495995,-0.48971926485154327,0.6123022201991049,0.4512830680294829,-0.8755112149174513,0.8320580026476471,-0.9058798434254041,0.7407617110714749],"Bias":-0.08486791265801885,"ActivationFunction":{"$type":"MyMachineLearningLibrary.ReluActivationFunction","Leak":0.001}},{"$type":"MyMachineLearningLibrary.DensePerceptron","Output":0.9077747001003952,"Weights":[-0.42461756533286343,0.16966815441237706,-0.17096072177105015,-0.41910145001531135,0.7442945061013986,0.3479525299622545,-0.002353734044411025,-0.9068279115205071,0.6009704294566978,0.7104427065257262,0.5403303250093665,-0.9860828785020985,0.43396271547975407,0.5188479993787309,0.08741198307278135,-0.7151376783417887,0.7119535078815894,-0.40061992348998965,0.788921314762973,-0.29331292141130116],"Bias":0.0319389608437082,"ActivationFunction":{"$type":"MyMachineLearningLibrary.ReluActivationFunction","Leak":0.001}},{"$type":"MyMachineLearningLibrary.DensePerceptron","Output":0.05899862528036655,"Weights":[0.6572373842037974,0.8991720043081305,0.10123743358085623,0.6991473073354479,-0.42459602105245264,-0.18507928676863772,-0.2724836488766943,-0.029631990497683076,-0.3956032798982424,0.002612917283736466,-0.7961354599814989,0.0704740442562662,0.9504421524256399,-0.9946222184963751,-0.09726402228184702,-0.8232858513645483,-0.23767914653509756,0.4369869843556646,-0.5934416408930864,-0.748032401631902],"Bias":0.33525485036622493,"ActivationFunction":{"$type":"MyMachineLearningLibrary.ReluActivationFunction","Leak":0.001}},{"$type":"MyMachineLearningLibrary.DensePerceptron","Output":1.0425675539930328,"Weights":[0.6383848311866146,-0.6021932515511019,0.5938770787832311,-0.6717830665495897,0.6896451319592564,0.7657523153323513,0.09065183464815407,-0.598012809937995,-0.9523158125183117,0.7822700844609609,0.3760395271938137,-0.9287631201950298,0.6717983196013453,-0.9874266161124302,-0.09623965429728337,-0.6503542221627248,-0.028475414206083106,-0.3000506407178787,0.3100890852602375,0.693433111259646],"Bias":0.6734327001947389,"ActivationFunction":{"$type":"MyMachineLearningLibrary.ReluActivationFunction","Leak":0.001}},{"$type":"MyMachineLearningLibrary.DensePerceptron","Output":3.180269773833023,"Weights":[0.830209652482161,0.8867496932098143,0.3850646623285219,-0.6355342104085596,-0.15055818028717233,0.4269985696506067,-0.33409152783758683,-0.7711802367090765,0.13478313069099487,1.0473208809477739,-0.702337229027039,0.04747620842462722,0.32154246966947203,-0.8194432570961719,0.050644564689080095,0.7484446386761998,0.6397936931603012,0.18248667465742058,0.32881805318553164,-0.6710624443222044],"Bias":0.6334800931468777,"ActivationFunction":{"$type":"MyMachineLearningLibrary.ReluActivationFunction","Leak":0.001}},{"$type":"MyMachineLearningLibrary.DensePerceptron","Output":1.1510966024836489,"Weights":[-0.612392167525758,0.30569295514277145,-0.8649304695651812,0.5932291893335155,0.06329750569844761,0.8686014791159848,-0.1297431511902131,-0.8671307867287638,1.344346604643501,-0.6010347966212101,-0.6255460882046092,-0.9736704579529534,0.8667623890280157,0.9247734103516468,0.45898103680362684,-0.5517330224168775,-0.7335191249377648,-0.4838097713235671,-0.39675977240611016,0.157430029287765],"Bias":0.5331001496053038,"ActivationFunction":{"$type":"MyMachineLearningLibrary.ReluActivationFunction","Leak":0.001}},{"$type":"MyMachineLearningLibrary.DensePerceptron","Output":-0.06798680676140112,"Weights":[0.7626784570304276,0.03957847298918398,0.8062588158321249,-0.40060304598879176,0.8236932696308056,-0.01174579598962934,0.570025385865534,-0.331130425410412,0.25863733647438036,-0.15156058329106076,-0.9837953291548998,0.8625008815844596,-0.08222572350806516,-0.0496414772535703,0.30190230410302066,0.3277118091144189,-0.6288275356348935,0.31138995502780714,-0.22618644460062692,0.36048462703139766],"Bias":-0.7018183207659303,"ActivationFunction":{"$type":"MyMachineLearningLibrary.ReluActivationFunction","Leak":0.001}},{"$type":"MyMachineLearningLibrary.DensePerceptron","Output":0.34545244846017537,"Weights":[-0.7529886164915643,0.09287978421661441,-0.46407361287815835,0.11573521801329778,-0.5542464549511028,-0.0747473891049831,-0.18165145097779672,-0.346887904725948,0.5356854697746389,-0.13836481865828507,0.6439045739166304,-0.28498799902717986,0.2637290327927697,0.8663902029656347,-0.7049473405090609,0.5945213846970508,0.4510814625269554,-0.21002748669583243,-0.02452386387932975,0.5022993801228671],"Bias":-0.7239073159934398,"ActivationFunction":{"$type":"MyMachineLearningLibrary.ReluActivationFunction","Leak":0.001}},{"$type":"MyMachineLearningLibrary.DensePerceptron","Output":-1.1285273314432474,"Weights":[0.9587738642708168,-0.397270128452632,0.526397136517243,0.8661094443398585,-0.06838400259009036,-0.8892901955806825,-0.5606529593176295,0.7147974836797025,0.9528336541116472,0.6314144532114585,0.2923016589276302,-0.6832617031210447,-0.5183771787303767,0.07197202765535189,-0.8918740564520083,-0.7931137453710818,-0.8669152416410283,-0.05061437974467754,-0.23434662864771807,0.48680679605996297],"Bias":-0.8980374404691724,"ActivationFunction":{"$type":"MyMachineLearningLibrary.ReluActivationFunction","Leak":0.001}},{"$type":"MyMachineLearningLibrary.DensePerceptron","Output":0.8085802805301728,"Weights":[0.47089647293609893,0.8934030815593985,0.1426390366288431,-0.791103389580971,-0.24245541955191233,-0.6327207114269376,0.6130474029316297,-0.9534877025752666,0.25748496092620904,-0.9337887386605095,0.5418746103586569,0.0882477996766405,0.20627154523764488,-0.05906318312206861,0.12477965081608497,0.9937327447788059,0.92966545304316,0.6754903450063016,-0.3200265356502007,-0.19098572156737387],"Bias":0.7832896661929301,"ActivationFunction":{"$type":"MyMachineLearningLibrary.ReluActivationFunction","Leak":0.001}},{"$type":"MyMachineLearningLibrary.DensePerceptron","Output":-0.3942483011341273,"Weights":[0.035689928266487224,-0.4102933130583764,-0.836407467157241,0.5427799397029474,0.5024286654120479,-0.4712249172877774,0.6644963990781683,0.8783024533616388,-0.5438607854401035,0.01165559961175332,-0.9033598049186751,-0.8036434143879295,-0.3169337353704936,-0.015290905875782912,0.004468582550535315,-0.7354815080616436,-0.09662503806325404,0.5829931708586898,0.10090613393581668,-0.7517974944752402],"Bias":0.27501359712053774,"ActivationFunction":{"$type":"MyMachineLearningLibrary.ReluActivationFunction","Leak":0.001}}],"Gradients":{"Values":[[0],[0],[0],[0],[0],[0],[0],[0],[0],[0],[0],[0],[0],[0],[0]],"RowLength":15,"ColoumnLength":1,"ElementCount":15,"Sum":0,"Average":0,"Max":0},"Weights":{"Values":[[0.12467920002083116,-0.28543149870971185,0.29017511615748864,1.0214638465113626,0.8945678118497524,0.861928775279557,0.7774576376278465,0.030488965425288294,0.59627851892049,0.15315850204513415,-0.19295527921083422,0.3913708735235203,0.48652680617559213,-0.07054690882790975,0.10704279586538372,-0.5148756558639003,-0.2937027393771078,0.7140999954911009,0.22439603739423516,-0.17784425937961462],[0.9497483124334215,0.3332139140999122,-0.6411869021173501,0.20960581344340523,-0.423819822191951,0.9473795842447859,-0.6444543734635518,0.1871144674274837,-0.02390054853101244,-0.6590971245987408,0.7858104882120245,-0.09165572531528872,0.748304093223871,-0.0930148260005464,-0.6807503264021626,-0.6342794613541922,0.7554997718816704,0.583711881273491,-0.9458587506065147,-0.5860099032025107],[0.34326990158062975,-0.5291163230609057,-0.6502557578444752,0.15667444446050124,0.3570675183713901,-0.4987819046190778,0.15346733609559957,-0.5346301083815982,0.04187416990294029,-0.8296150324368526,0.8334789416006488,-0.6730051419032309,0.8123837131278536,0.8739749883310101,-0.4623402336578052,-0.18049454330118878,-0.45509912175496825,0.44478355366059863,-0.6963611774266211,0.29635016967566313],[0.7139712483427961,0.1907252378693377,-0.018971996116832278,0.45893739955184404,-0.7256722838915033,0.5872283768541328,0.08839852169895682,0.0838068894495592,1.0449507311709962,0.04648068582573732,0.9494261698686728,-0.25892602296828376,0.6012947490130325,0.5755500198588933,-0.8731479588329429,-0.6881587069591996,0.09408203176268205,0.3717223981486876,-0.18187615872999277,0.29283297981788503],[-0.10506413373070689,-0.8248058771679493,-0.37487832934883575,0.24242059138941663,-0.773294926156008,-0.5892045926150298,0.3220397637738089,-0.8376144456762118,-0.5904693100580681,0.7557396180438543,0.2700334710572617,-0.292454875887979,0.8273154115495995,-0.48971926485154327,0.6123022201991049,0.4512830680294829,-0.8755112149174513,0.8320580026476471,-0.9058798434254041,0.7407617110714749],[-0.42461756533286343,0.16966815441237706,-0.17096072177105015,-0.41910145001531135,0.7442945061013986,0.3479525299622545,-0.002353734044411025,-0.9068279115205071,0.6009704294566978,0.7104427065257262,0.5403303250093665,-0.9860828785020985,0.43396271547975407,0.5188479993787309,0.08741198307278135,-0.7151376783417887,0.7119535078815894,-0.40061992348998965,0.788921314762973,-0.29331292141130116],[0.6572373842037974,0.8991720043081305,0.10123743358085623,0.6991473073354479,-0.42459602105245264,-0.18507928676863772,-0.2724836488766943,-0.029631990497683076,-0.3956032798982424,0.002612917283736466,-0.7961354599814989,0.0704740442562662,0.9504421524256399,-0.9946222184963751,-0.09726402228184702,-0.8232858513645483,-0.23767914653509756,0.4369869843556646,-0.5934416408930864,-0.748032401631902],[0.6383848311866146,-0.6021932515511019,0.5938770787832311,-0.6717830665495897,0.6896451319592564,0.7657523153323513,0.09065183464815407,-0.598012809937995,-0.9523158125183117,0.7822700844609609,0.3760395271938137,-0.9287631201950298,0.6717983196013453,-0.9874266161124302,-0.09623965429728337,-0.6503542221627248,-0.028475414206083106,-0.3000506407178787,0.3100890852602375,0.693433111259646],[0.830209652482161,0.8867496932098143,0.3850646623285219,-0.6355342104085596,-0.15055818028717233,0.4269985696506067,-0.33409152783758683,-0.7711802367090765,0.13478313069099487,1.0473208809477739,-0.702337229027039,0.04747620842462722,0.32154246966947203,-0.8194432570961719,0.050644564689080095,0.7484446386761998,0.6397936931603012,0.18248667465742058,0.32881805318553164,-0.6710624443222044],[-0.612392167525758,0.30569295514277145,-0.8649304695651812,0.5932291893335155,0.06329750569844761,0.8686014791159848,-0.1297431511902131,-0.8671307867287638,1.344346604643501,-0.6010347966212101,-0.6255460882046092,-0.9736704579529534,0.8667623890280157,0.9247734103516468,0.45898103680362684,-0.5517330224168775,-0.7335191249377648,-0.4838097713235671,-0.39675977240611016,0.157430029287765],[0.7626784570304276,0.03957847298918398,0.8062588158321249,-0.40060304598879176,0.8236932696308056,-0.01174579598962934,0.570025385865534,-0.331130425410412,0.25863733647438036,-0.15156058329106076,-0.9837953291548998,0.8625008815844596,-0.08222572350806516,-0.0496414772535703,0.30190230410302066,0.3277118091144189,-0.6288275356348935,0.31138995502780714,-0.22618644460062692,0.36048462703139766],[-0.7529886164915643,0.09287978421661441,-0.46407361287815835,0.11573521801329778,-0.5542464549511028,-0.0747473891049831,-0.18165145097779672,-0.346887904725948,0.5356854697746389,-0.13836481865828507,0.6439045739166304,-0.28498799902717986,0.2637290327927697,0.8663902029656347,-0.7049473405090609,0.5945213846970508,0.4510814625269554,-0.21002748669583243,-0.02452386387932975,0.5022993801228671],[0.9587738642708168,-0.397270128452632,0.526397136517243,0.8661094443398585,-0.06838400259009036,-0.8892901955806825,-0.5606529593176295,0.7147974836797025,0.9528336541116472,0.6314144532114585,0.2923016589276302,-0.6832617031210447,-0.5183771787303767,0.07197202765535189,-0.8918740564520083,-0.7931137453710818,-0.8669152416410283,-0.05061437974467754,-0.23434662864771807,0.48680679605996297],[0.47089647293609893,0.8934030815593985,0.1426390366288431,-0.791103389580971,-0.24245541955191233,-0.6327207114269376,0.6130474029316297,-0.9534877025752666,0.25748496092620904,-0.9337887386605095,0.5418746103586569,0.0882477996766405,0.20627154523764488,-0.05906318312206861,0.12477965081608497,0.9937327447788059,0.92966545304316,0.6754903450063016,-0.3200265356502007,-0.19098572156737387],[0.035689928266487224,-0.4102933130583764,-0.836407467157241,0.5427799397029474,0.5024286654120479,-0.4712249172877774,0.6644963990781683,0.8783024533616388,-0.5438607854401035,0.01165559961175332,-0.9033598049186751,-0.8036434143879295,-0.3169337353704936,-0.015290905875782912,0.004468582550535315,-0.7354815080616436,-0.09662503806325404,0.5829931708586898,0.10090613393581668,-0.7517974944752402]],"RowLength":15,"ColoumnLength":20,"ElementCount":300,"Sum":7.494405021145058,"Average":0.024981350070483525,"Max":1.344346604643501},"LayerOutputs":{"Values":[[2.95530051591314],[-0.0012862363954950615],[0.1050975245234717],[0.9461090594355042],[2.6530903294496357],[0.9077747001003952],[0.05899862528036655],[1.0425675539930328],[3.180269773833023],[1.1510966024836489],[-6.798680676140112E-05],[0.34545244846017537],[-0.0011285273314432475],[0.8085802805301728],[-0.0003942483011341273]],"RowLength":15,"ColoumnLength":1,"ElementCount":15,"Sum":14.151460415167731,"Average":0.9434306943445154,"Max":3.180269773833023}},{"$type":"MyMachineLearningLibrary.DenseLayer","NumberOfPerceptrons":10,"ActivationFunction":{"$type":"MyMachineLearningLibrary.ReluActivationFunction","Leak":0.001},"Perceptrons":[{"$type":"MyMachineLearningLibrary.DensePerceptron","Output":1.3299108150683798,"Weights":[0.3278031240960528,0.4460225213739289,-0.15571662012570206,0.2518214724516545,0.8553993005537986,-0.9317920061406999,0.5738065554945554,-0.9979613218608202,0.2871354912194195,-0.28842776818961535,0.09952104212438845,0.014977132273282156,-0.8350499771284219,-0.9996611366069873,-0.6114124704325997],"Bias":-0.0563690573075958,"ActivationFunction":{"$type":"MyMachineLearningLibrary.ReluActivationFunction","Leak":0.001}},{"$type":"MyMachineLearningLibrary.DensePerceptron","Output":0.699995893353882,"Weights":[0.9724657586115085,0.6324127931980387,-0.5491471453344667,-0.2597922681795962,-0.5110613514488366,0.1852899388578386,-0.5549507016436886,0.7716366663266513,-0.6619394998027025,0.04639745081903745,-0.32993205193871633,0.12178619219109325,0.6845643421025261,0.46520846823062645,0.03546198685336911],"Bias":0.18060668687996137,"ActivationFunction":{"$type":"MyMachineLearningLibrary.ReluActivationFunction","Leak":0.001}},{"$type":"MyMachineLearningLibrary.DensePerceptron","Output":2.995555876184645,"Weights":[-0.6064491351365798,0.3425864191795725,-0.7164212637803266,-0.7818739238851874,0.6788012030376265,-0.05890006887423616,-0.6339230568916101,1.1583215103800943,1.051160088241577,-1.3930927261265202,-0.7472490034193908,0.169019825854474,-0.9591629662862096,0.12198308337747422,-0.13552684986289165],"Bias":0.7879325279006489,"ActivationFunction":{"$type":"MyMachineLearningLibrary.ReluActivationFunction","Leak":0.001}},{"$type":"MyMachineLearningLibrary.DensePerceptron","Output":-1.83493571342421,"Weights":[-0.19785921316285096,-0.04097072247489739,0.6713585289262943,0.2748003748290563,0.5441317542589638,0.020886919036517036,-0.16908495118585623,0.5312233401514945,-0.7723566058962725,-0.6067438179535001,-0.7297533658165263,-0.9040274942664301,-0.1423212440161665,-0.4920360770971131,-0.6744226838179461],"Bias":0.27714022697822677,"ActivationFunction":{"$type":"MyMachineLearningLibrary.ReluActivationFunction","Leak":0.001}},{"$type":"MyMachineLearningLibrary.DensePerceptron","Output":-2.5297985969094254,"Weights":[-0.5864841968106502,0.09777455500452326,-0.3963827804136291,-0.9031471322935447,-0.962742658147964,-0.8102644670751948,-0.9664212517328522,0.06262698927425542,0.6969480802616832,0.32019687412170705,-0.5924427992057131,0.7630366342119014,-0.6396637559742412,0.6581664932726105,-0.8612129089112213],"Bias":-0.0007312123931727121,"ActivationFunction":{"$type":"MyMachineLearningLibrary.ReluActivationFunction","Leak":0.001}},{"$type":"MyMachineLearningLibrary.DensePerceptron","Output":3.587002997134648,"Weights":[0.19376328470900778,0.32097234282919623,0.17067282973206657,0.6947567195410043,0.5695695711984293,0.431416950067155,-0.4358134197105611,0.7350239840701293,0.2943750715144617,-1.0174818032824213,-0.3165211783538638,-0.28044171975200993,-0.7040388671807652,-0.5099314821441191,0.8940971150571779],"Bias":0.43992582292458376,"ActivationFunction":{"$type":"MyMachineLearningLibrary.ReluActivationFunction","Leak":0.001}},{"$type":"MyMachineLearningLibrary.DensePerceptron","Output":-3.243044351853084,"Weights":[0.4507945244282516,-0.6511658011823607,-0.9960072004246873,-0.9920090662226427,0.14004838571626452,-0.8205041167570745,-0.35191720175408636,-0.8281481630334302,-0.6640129509922629,-0.044865475553520155,-0.7255252352970233,-0.9974319624097362,0.9966844107050723,0.15799237330180685,0.5431896762185433],"Bias":0.10603657340720407,"ActivationFunction":{"$type":"MyMachineLearningLibrary.ReluActivationFunction","Leak":0.001}},{"$type":"MyMachineLearningLibrary.DensePerceptron","Output":0.5038127369669111,"Weights":[-0.06104394197805604,0.2708812915866521,0.9956389888378666,-0.5761183452442865,0.5445255389238665,-0.26205249293032445,-0.6624661345304327,0.2208750839377475,-0.7245770072189625,0.6662756070185836,0.1248532826346507,0.006569605497844663,-0.006374353740534413,0.7510015912378327,-0.02972424198450212],"Bias":0.6548869856626115,"ActivationFunction":{"$type":"MyMachineLearningLibrary.ReluActivationFunction","Leak":0.001}},{"$type":"MyMachineLearningLibrary.DensePerceptron","Output":3.633675185239007,"Weights":[0.3285486729258417,1.0073617018060306,-0.15553548410273985,0.9113760589326427,0.2761783054102658,0.9111671244866627,-0.11909721008254145,-0.5476835304875184,-0.3495199880729171,0.750786004124928,-0.2757153034437879,0.8322724962794513,0.4767485803134328,-0.2931473162428028,-0.680999057125376],"Bias":1.0334228015470555,"ActivationFunction":{"$type":"MyMachineLearningLibrary.ReluActivationFunction","Leak":0.001}},{"$type":"MyMachineLearningLibrary.DensePerceptron","Output":6.677014593335566,"Weights":[1.027054154486286,0.1882363059322759,-0.3506952601848047,1.0295020884697275,0.17340127733313448,0.9356084835442195,-0.6094187042763413,0.6963827140507199,0.5167465876744942,-0.4221474658735373,-0.7578778177201363,-0.6551987322505801,0.46212998043503056,-0.17076805619487598,-0.9656280713942668],"Bias":-0.0875363937599725,"ActivationFunction":{"$type":"MyMachineLearningLibrary.ReluActivationFunction","Leak":0.001}}],"Gradients":{"Values":[[0],[0],[0],[0],[0],[0],[0],[0],[0],[0]],"RowLength":10,"ColoumnLength":1,"ElementCount":10,"Sum":0,"Average":0,"Max":0},"Weights":{"Values":[[0.3278031240960528,0.4460225213739289,-0.15571662012570206,0.2518214724516545,0.8553993005537986,-0.9317920061406999,0.5738065554945554,-0.9979613218608202,0.2871354912194195,-0.28842776818961535,0.09952104212438845,0.014977132273282156,-0.8350499771284219,-0.9996611366069873,-0.6114124704325997],[0.9724657586115085,0.6324127931980387,-0.5491471453344667,-0.2597922681795962,-0.5110613514488366,0.1852899388578386,-0.5549507016436886,0.7716366663266513,-0.6619394998027025,0.04639745081903745,-0.32993205193871633,0.12178619219109325,0.6845643421025261,0.46520846823062645,0.03546198685336911],[-0.6064491351365798,0.3425864191795725,-0.7164212637803266,-0.7818739238851874,0.6788012030376265,-0.05890006887423616,-0.6339230568916101,1.1583215103800943,1.051160088241577,-1.3930927261265202,-0.7472490034193908,0.169019825854474,-0.9591629662862096,0.12198308337747422,-0.13552684986289165],[-0.19785921316285096,-0.04097072247489739,0.6713585289262943,0.2748003748290563,0.5441317542589638,0.020886919036517036,-0.16908495118585623,0.5312233401514945,-0.7723566058962725,-0.6067438179535001,-0.7297533658165263,-0.9040274942664301,-0.1423212440161665,-0.4920360770971131,-0.6744226838179461],[-0.5864841968106502,0.09777455500452326,-0.3963827804136291,-0.9031471322935447,-0.962742658147964,-0.8102644670751948,-0.9664212517328522,0.06262698927425542,0.6969480802616832,0.32019687412170705,-0.5924427992057131,0.7630366342119014,-0.6396637559742412,0.6581664932726105,-0.8612129089112213],[0.19376328470900778,0.32097234282919623,0.17067282973206657,0.6947567195410043,0.5695695711984293,0.431416950067155,-0.4358134197105611,0.7350239840701293,0.2943750715144617,-1.0174818032824213,-0.3165211783538638,-0.28044171975200993,-0.7040388671807652,-0.5099314821441191,0.8940971150571779],[0.4507945244282516,-0.6511658011823607,-0.9960072004246873,-0.9920090662226427,0.14004838571626452,-0.8205041167570745,-0.35191720175408636,-0.8281481630334302,-0.6640129509922629,-0.044865475553520155,-0.7255252352970233,-0.9974319624097362,0.9966844107050723,0.15799237330180685,0.5431896762185433],[-0.06104394197805604,0.2708812915866521,0.9956389888378666,-0.5761183452442865,0.5445255389238665,-0.26205249293032445,-0.6624661345304327,0.2208750839377475,-0.7245770072189625,0.6662756070185836,0.1248532826346507,0.006569605497844663,-0.006374353740534413,0.7510015912378327,-0.02972424198450212],[0.3285486729258417,1.0073617018060306,-0.15553548410273985,0.9113760589326427,0.2761783054102658,0.9111671244866627,-0.11909721008254145,-0.5476835304875184,-0.3495199880729171,0.750786004124928,-0.2757153034437879,0.8322724962794513,0.4767485803134328,-0.2931473162428028,-0.680999057125376],[1.027054154486286,0.1882363059322759,-0.3506952601848047,1.0295020884697275,0.17340127733313448,0.9356084835442195,-0.6094187042763413,0.6963827140507199,0.5167465876744942,-0.4221474658735373,-0.7578778177201363,-0.6551987322505801,0.46212998043503056,-0.17076805619487598,-0.9656280713942668]],"RowLength":10,"ColoumnLength":15,"ElementCount":150,"Sum":-8.547173923311915,"Average":-0.056981159488746096,"Max":1.1583215103800943},"LayerOutputs":{"Values":[[1.3299108150683798],[0.699995893353882],[2.995555876184645],[-0.00183493571342421],[-0.0025297985969094253],[3.587002997134648],[-0.003243044351853084],[0.5038127369669111],[3.633675185239007],[6.677014593335566]],"RowLength":10,"ColoumnLength":1,"ElementCount":10,"Sum":19.41936031862085,"Average":1.941936031862085,"Max":6.677014593335566}},{"$type":"MyMachineLearningLibrary.DenseLayer","NumberOfPerceptrons":5,"ActivationFunction":{"$type":"MyMachineLearningLibrary.ReluActivationFunction","Leak":0.001},"Perceptrons":[{"$type":"MyMachineLearningLibrary.DensePerceptron","Output":5.464153753858544,"Weights":[-0.35493632634405775,-0.2980264299810309,-0.5256233688319977,0.13363320052924246,0.7482589388549168,-0.797618352524393,-0.4410530010793961,-0.6854507869545989,1.0976440169113562,0.9163720774685598],"Bias":0.8193649019998153,"ActivationFunction":{"$type":"MyMachineLearningLibrary.ReluActivationFunction","Leak":0.001}},{"$type":"MyMachineLearningLibrary.DensePerceptron","Output":3.8956669006505242,"Weights":[-0.5021985776987239,-0.1392311546411517,-0.9464578436817563,-0.22269260958727352,-0.7895231970214732,-0.501478608907998,0.7026857819151368,0.5354313838371302,1.4366839383355354,0.613226959410966],"Bias":-0.28982114274947307,"ActivationFunction":{"$type":"MyMachineLearningLibrary.ReluActivationFunction","Leak":0.001}},{"$type":"MyMachineLearningLibrary.DensePerceptron","Output":2.5428671651693313,"Weights":[-0.732339352485615,-0.2437048200004898,1.2860386407170503,-0.724591529700176,-0.9653177281477314,0.4936146945578618,0.6861871055925529,-0.004463342242024031,-0.2610885652680138,-0.11260564777629953],"Bias":-0.23436179366146345,"ActivationFunction":{"$type":"MyMachineLearningLibrary.ReluActivationFunction","Leak":0.001}},{"$type":"MyMachineLearningLibrary.DensePerceptron","Output":2.3883286180788943,"Weights":[0.04284886608371619,-0.33474441722903986,0.9113656815695499,0.5278664375998166,0.3721366008432542,-0.5530101935074819,0.23809589255711075,-0.9267089191205397,0.9345019316922653,-0.12424830452043151],"Bias":-0.27723058421890706,"ActivationFunction":{"$type":"MyMachineLearningLibrary.ReluActivationFunction","Leak":0.001}},{"$type":"MyMachineLearningLibrary.DensePerceptron","Output":4.515483286066156,"Weights":[0.22946854125657276,-0.11315621202194208,1.101916107341577,-0.7867425605429823,-0.8573414324468204,-0.7944514668021593,-0.0936505358043025,0.5965183248798858,-0.25317348354242586,0.817962365077739],"Bias":-1.0076986919772988,"ActivationFunction":{"$type":"MyMachineLearningLibrary.ReluActivationFunction","Leak":0.001}}],"Gradients":{"Values":[[0],[0],[0],[0],[0]],"RowLength":5,"ColoumnLength":1,"ElementCount":5,"Sum":0,"Average":0,"Max":0},"Weights":{"Values":[[-0.35493632634405775,-0.2980264299810309,-0.5256233688319977,0.13363320052924246,0.7482589388549168,-0.797618352524393,-0.4410530010793961,-0.6854507869545989,1.0976440169113562,0.9163720774685598],[-0.5021985776987239,-0.1392311546411517,-0.9464578436817563,-0.22269260958727352,-0.7895231970214732,-0.501478608907998,0.7026857819151368,0.5354313838371302,1.4366839383355354,0.613226959410966],[-0.732339352485615,-0.2437048200004898,1.2860386407170503,-0.724591529700176,-0.9653177281477314,0.4936146945578618,0.6861871055925529,-0.004463342242024031,-0.2610885652680138,-0.11260564777629953],[0.04284886608371619,-0.33474441722903986,0.9113656815695499,0.5278664375998166,0.3721366008432542,-0.5530101935074819,0.23809589255711075,-0.9267089191205397,0.9345019316922653,-0.12424830452043151],[0.22946854125657276,-0.11315621202194208,1.101916107341577,-0.7867425605429823,-0.8573414324468204,-0.7944514668021593,-0.0936505358043025,0.5965183248798858,-0.25317348354242586,0.817962365077739]],"RowLength":5,"ColoumnLength":10,"ElementCount":50,"Sum":0.3368287186194705,"Average":0.00673657437238941,"Max":1.4366839383355354},"LayerOutputs":{"Values":[[5.464153753858544],[3.8956669006505242],[2.5428671651693313],[2.3883286180788943],[4.515483286066156]],"RowLength":5,"ColoumnLength":1,"ElementCount":5,"Sum":18.80649972382345,"Average":3.7612999447646898,"Max":5.464153753858544}},{"$type":"MyMachineLearningLibrary.DenseLayer","NumberOfPerceptrons":2,"ActivationFunction":{"$type":"MyMachineLearningLibrary.SoftmaxActivationFunction"},"Perceptrons":[{"$type":"MyMachineLearningLibrary.DensePerceptron","Output":16.12748987465819,"Weights":[0.22517879873564536,0.6028526484504919,1.1627085040166354,0.4768236273392864,1.7308107021775032],"Bias":0.6376915559523108,"ActivationFunction":{"$type":"MyMachineLearningLibrary.SoftmaxActivationFunction"}},{"$type":"MyMachineLearningLibrary.DensePerceptron","Output":19.05157415618596,"Weights":[0.9695083097818896,1.810385127002342,-0.07231719300690982,0.5392377861383457,1.247581983474473],"Bias":-0.03600732503672361,"ActivationFunction":{"$type":"MyMachineLearningLibrary.SoftmaxActivationFunction"}}],"Gradients":{"Values":[[0],[0]],"RowLength":2,"ColoumnLength":1,"ElementCount":2,"Sum":0,"Average":0,"Max":0},"Weights":{"Values":[[0.22517879873564536,0.6028526484504919,1.1627085040166354,0.4768236273392864,1.7308107021775032],[0.9695083097818896,1.810385127002342,-0.07231719300690982,0.5392377861383457,1.247581983474473]],"RowLength":2,"ColoumnLength":5,"ElementCount":10,"Sum":8.692770294109703,"Average":0.8692770294109703,"Max":1.810385127002342},"LayerOutputs":{"Values":[[0.050975751960373336],[0.9490242480396267]],"RowLength":2,"ColoumnLength":1,"ElementCount":2,"Sum":1,"Average":0.5,"Max":0.9490242480396267}}],"LearningRate":1E-05,"NumberOfInputs":10,"LossFunction":{"$type":"MyMachineLearningLibrary.CategoricalCrossEntropyLossFunction"}}