{"Layers":[{"$type":"MyMachineLearningLibrary.InputLayer","ActivationFunction":null,"LayerOutputs":{"Values":[[0.023569927265857382],[0.9239881510094957],[0.06789646299692986],[0.011125122195242754],[0.8379694354146305],[0.6288549167727304],[0.937139180952102],[0.08280459445350574],[0.5473131602635467],[0.724387598123119]],"RowLength":10,"ColoumnLength":1,"ElementCount":10,"Sum":4.78504854944716,"Average":0.47850485494471606},"NumberOfPerceptrons":10,"Gradients":{"Values":[[0],[0],[0],[0],[0],[0],[0],[0],[0],[0]],"RowLength":10,"ColoumnLength":1,"ElementCount":10,"Sum":0,"Average":0}},{"$type":"MyMachineLearningLibrary.DenseLayer","ActivationFunction":{"$type":"MyMachineLearningLibrary.SigmoidActivationFunction"},"LayerOutputs":{"Values":[[0.039509437862534545],[0.007190868525577835],[0.012274498585365534],[0.014659896834980308],[0.9735967783870421],[0.01589322255086134],[0.9867693229144471],[0.9926922782851779],[0.0021986754165000395],[0.9917711703844061],[0.9957743195414893],[0.986302527685551],[0.0013142403084495185],[0.991038827358699],[0.9914145922121238],[0.0016768897753164922],[0.988811293289282],[0.9870440046856781],[0.9891019384117572],[0.004229620337121087]],"RowLength":20,"ColoumnLength":1,"ElementCount":20,"Sum":10.97326440335236,"Average":0.548663220167618},"Weights":{"Values":[[14.128799511141803,14.891660212591377,16.57888179728948,16.73971640617805,15.995375239208025,13.919335922397817,16.460533294817502,14.352699618709991,16.387159026283538,15.845241721884676],[13.045473343040303,10.70959318096463,13.498108809293809,12.230125623275109,13.278357089058108,10.785403167505974,11.769701733939161,11.883962537781985,11.993305628442421,10.942358031455754],[18.482644743358552,19.43327413076933,20.352752176562376,19.82183890681653,19.095988179204994,19.898614211470196,20.349052882396283,19.486312237702442,19.70334883572105,19.22489874678231],[22.124564036045253,21.674779727338052,21.301171926760624,20.83146990516554,20.40844904857623,19.578997503484427,20.48302242459421,18.575490472997146,20.2500338576071,20.794741374433368],[-15.046844676632317,-15.517083863056435,-17.173834777611173,-15.50578669278749,-15.690533152371321,-14.696127324726982,-16.571083253925718,-15.616918310422067,-16.738104341628436,-15.71109420662164],[13.287261501661737,12.891176313522994,14.388735874472845,13.28839900370387,12.753763217516434,13.173308851569104,13.430022823043206,13.334584018173539,13.450168593829122,12.974210964074171],[-20.046645893085433,-19.312502007756333,-18.811498049807597,-18.47434221408003,-18.384866238122775,-17.800197309691715,-18.52872661811625,-17.44330872500814,-17.76323246858535,-18.123372104343215],[-17.595621265547933,-15.859291722787624,-17.47180944266964,-16.083495667283078,-17.086963803378172,-15.504068561733586,-16.083511429908594,-15.957428612887766,-16.035752706894154,-16.010357753651764],[21.407918365852392,19.80757958846556,18.93803090346075,20.360082289116306,18.36673153811917,18.076753059914378,17.99641579896884,18.48020716271521,17.409533102860483,18.576341394498314],[-14.619290922640365,-13.910867545136794,-16.407864167518063,-15.542071267937384,-15.098579401662455,-14.366185924124025,-15.16530981452977,-14.847583534896776,-15.301888238945434,-14.38710747271548],[-15.634527639005272,-14.664017950196563,-17.158516219709465,-16.411259318292974,-15.850428359215659,-15.627468895126828,-15.896037016150162,-16.28763189529312,-15.649601974640138,-15.170840724300595],[-18.549416278314823,-19.237980840246927,-19.36259058567831,-17.8541680034834,-17.50356971369545,-18.37510027780595,-18.443235794095198,-18.36120502690736,-18.530431883977933,-18.70605723273724],[21.188289020956482,20.30532184655545,20.74916141135698,20.664690982631903,18.56943795147999,21.017850984604838,19.136425377656895,20.377788217436507,18.57435733325285,19.655125814993344],[-14.981922053941801,-14.6206267593048,-17.13063062376735,-16.263832900418695,-16.04102481345398,-15.378359634717897,-16.303559637946805,-16.00165344949103,-16.14112319681887,-14.933403314637307],[-15.201607186630412,-13.388896857882857,-15.915733944247599,-14.455533342734547,-15.97387434354584,-13.139318320481276,-14.317912679009275,-14.020568593840665,-15.074562243211503,-13.232663047446785],[23.368849182549724,21.169082985132334,21.034916334770813,22.087538675617317,21.26770091612979,20.083929698791895,20.42701300703311,20.779801681768472,19.533584702746708,20.347196676440873],[-16.40542419855854,-16.553679538680637,-17.1085593545778,-17.617163179168337,-16.565722624910073,-15.639439422885772,-17.088113942613358,-16.439596479852852,-16.956372191466343,-15.424045255082964],[-20.986372542475454,-19.880900762352127,-18.574068445407644,-19.44316823736054,-19.114095774096544,-17.06972420378591,-18.309956669272832,-17.43303648943392,-17.526948639600146,-18.629337045891344],[-19.032226314520678,-17.69920002468862,-18.24135687712694,-17.80536097232006,-18.802670738065096,-16.856437845702693,-17.6266158818483,-17.32448960405641,-17.534122072607122,-17.478751226347566],[19.444129550812928,20.063724516307758,22.274599509223236,21.688213259373715,19.591632141038797,21.516043915550995,21.67059105630342,20.312773009590327,20.479683433854646,19.90817422997232]],"RowLength":20,"ColoumnLength":10,"ElementCount":200,"Sum":-216.2629115998702,"Average":-1.081314557999351},"Biases":{"Values":[[-77.8136688333352],[-60.59708740264698],[-98.29085316381018],[-102.72875287296584],[79.39269484078363],[-66.89623245466076],[92.37015440941423],[82.18150043202466],[-94.57532900482195],[75.20145812214305],[79.63767949155489],[92.72228777986007],[-100.33574442924929],[79.2804870214124],[72.78326209835114],[-104.91926581574921],[83.06643309289315],[93.1164482354299],[89.31476175116707],[-103.78003804953785]],"RowLength":20,"ColoumnLength":1,"ElementCount":20,"Sum":109.13019524825692,"Average":5.456509762412846},"NumberOfPerceptrons":20,"Gradients":{"Values":[[0],[0],[0],[0],[0],[0],[0],[0],[0],[0],[0],[0],[0],[0],[0],[0],[0],[0],[0],[0]],"RowLength":20,"ColoumnLength":1,"ElementCount":20,"Sum":0,"Average":0}},{"$type":"MyMachineLearningLibrary.DenseLayer","ActivationFunction":{"$type":"MyMachineLearningLibrary.SigmoidActivationFunction"},"LayerOutputs":{"Values":[[0.999811651087292],[0.00012008820475509288],[1.2219124089649955E-11],[6.861284577661691E-05],[0.9999999999940121],[0.9999779254304589],[9.22605500800037E-13],[0.9995956504234439],[1.7189284446320707E-11],[1.506867660457565E-11],[0.9999999984732828],[0.9998599722036782],[0.9998879317102819],[0.9998562954758523],[0.9999999998735423]],"RowLength":15,"ColoumnLength":1,"ElementCount":15,"Sum":8.999178125767775,"Average":0.5999452083845184},"Weights":{"Values":[[-0.9954548725224188,-1.4291480311655418,-0.7824749284145259,-1.0717714756474475,0.5236363073200676,-1.3748457334100948,1.075838626332922,1.6890167578464135,-2.186682027272063,0.812933010826822,0.4965617506031144,1.0429238115547863,-0.5329943108373146,0.9392137969095036,0.9109675295747335,-0.6759473647438252,0.9352623381561477,0.8204538041318535,0.5743361482423375,-1.9676094450880728],[2.917380384117211,2.8173600847676106,3.218561188177548,2.9854926491373632,-1.6702777355170018,2.000005258298664,-1.5666524672208066,-1.5770071058328559,1.8879193607558793,-0.73943239273876,-1.280553593977399,-0.9752904707817562,2.651165440602154,-0.9928915914396983,-0.123811110874466,2.985896399040359,-1.704565088495275,-1.6512768223284324,-0.3644572765249904,2.8584827951116014],[0.5081516306602224,1.4027356871602086,0.7143837191492812,1.0591386736046615,-2.421467352612765,-0.015347260702923362,-2.8566602572174333,-1.8506088398907237,0.9271672356852988,-2.4644684077492616,-2.010458043770456,-2.369012536071936,1.0067848423881511,-1.4619856676094432,-1.7720471397132385,0.7304274612523041,-2.5838917071889225,-2.7971867991862753,-2.3597477226213255,1.8059096633424168],[3.17393011528618,1.5549544292141249,3.4306397381785474,3.4959142322719536,-0.0892219960842666,2.4521227015023723,-1.8890906162244727,-1.5089513753667771,3.8385723005587287,0.031439434926922034,-1.012136327243932,-1.003939777896212,3.2311947104381926,-1.4818790855194517,-1.3382769224575546,4.227470044068829,-0.8441767041069901,-1.0615241084864528,-2.3402247810176986,3.5807959242668255],[-0.4939879932093488,0.1930107389673961,-1.8129486403063333,-1.8695684954656038,3.171618363769048,0.19690112133990348,2.4771776271189294,2.650765926652926,0.3691112465490083,1.3628440169013372,2.101669425799979,3.490914965415906,-1.4195048086319468,1.97807303649534,1.5518696638850906,-1.907161188228014,1.5765565807414221,2.8058457100234167,2.3543551594176666,-1.2521949263149401],[-2.7535432220776213,-2.5650349965214083,-3.7403116392416993,-4.210880869814103,-0.14642597971755844,-2.626592103867219,1.0875746285095749,0.7250909950222324,-3.2233131478484087,1.3859993370937636,1.2022165266125422,2.0010462760458876,-4.288543431859571,1.7865849909913705,1.3880599263159157,-3.636292690580448,0.48108095238604925,2.257986366467979,1.967188966981436,-3.8123139556991577],[0.6177856494679448,0.07846051608735999,0.9260017932600767,0.7208846171201949,-3.277389678143474,0.10385646702610078,-2.2313827130606403,-2.991001709336918,-0.11716735983321235,-3.1728744566351974,-1.2387435249190402,-3.3373286697026407,1.439823664557538,-1.886014072906536,-1.952040189979081,2.3926134417157976,-2.5126133091148257,-2.5422688872961463,-2.360181169528891,2.2466695782814137],[-0.9714387252202537,-2.184027808555766,-2.017911751392737,-2.6525187621390516,0.5966382335728054,-1.7340371049239736,1.1795366350597671,0.7194838368044019,-2.83506806933212,0.33545987456737913,1.349963329805517,0.6090606526235587,-3.152464337710523,1.3364464408998762,0.8846119644455793,-2.8715304660555527,1.7131734761851174,0.7338131075769885,1.0807916014378578,-2.575633692550532],[-0.43639138820425266,0.38463169974134276,1.222421069256238,2.0479514984762788,-2.535019823361159,0.39172245419414947,-2.7096107202850552,-2.5442344400206958,0.7402228800167497,-2.3302499627307087,-2.08063399703094,-2.1996986010853505,0.16183254796522956,-1.2529225987356232,-1.7062074840084211,2.2352411155339356,-1.9358142210820637,-2.542688352144464,-1.9600557283035986,2.1360050443760596],[0.6626441851070796,0.1085837040531139,1.5761347729252602,0.7615997887444,-1.4511870608160875,-0.24693414974343875,-2.1897390354092963,-1.6985016342452004,0.7118536647359395,-2.398102887500705,-2.095886570685665,-2.688899460898327,0.6436717156016019,-2.223770391347036,-2.746897543807644,2.3173631125925103,-2.859226736680037,-2.7071258711354154,-1.6525291048282476,1.2592484202740077],[0.6817325753598502,-1.014730921005342,-0.8443443785649726,-1.3969700606884028,0.8110145000039648,-1.1483872651739124,2.0906873759803886,1.777355025432976,-1.0571642644978907,1.3695968729063246,2.304735087446769,1.8810503358247825,-1.5822282862545682,1.399837386526096,1.6821783499735317,-0.2544487429029633,0.9888342949269188,3.005416024356946,2.412929695615067,-0.948837156260327],[-1.0362292147426435,0.641095140441107,-1.9195525511366667,-0.441952783591236,0.45298309911719553,-1.0634367075783067,1.6583521293843995,1.3620226138873206,-0.9068492205374014,1.5651663612805515,0.02433434687010771,0.1403617610971036,-0.29733338128477793,0.48664731606294964,0.8054600557809047,-1.495671465714635,-0.018621307285490527,2.0934191226080547,1.0977747044524744,-1.581321635990005],[-2.9575691661106487,-2.027965452179843,-2.4199060089709716,-3.5919097726388185,1.2263924344975623,-2.197160843556302,1.549444208754043,0.3689664404618928,-3.544241840161798,1.2372093328211846,1.025715324806693,1.2230568704406397,-3.489899035752167,1.2009619253645976,0.9322424408765057,-3.0220774272391355,1.2537182877829567,0.7049434081561746,1.8772508917349808,-3.6469415625292196],[-0.596301055923751,0.4913348289487501,-1.5784971111177328,-1.4648633233100736,1.6036877852790241,0.4466730812606003,0.817635776049304,0.0028514349164363312,-0.5945636479932979,0.9758575260799749,1.314866915340053,0.3846330714815542,-1.6634752745198749,0.14305846062587968,1.6326963495787616,-1.754733759930993,1.0991626328971904,0.0029854907495735035,1.4721743238421512,-1.703309828733563],[0.6459831654488042,0.2211271774309479,-1.7288451884935871,-1.2430545714871497,2.6773769793587294,-0.2453209562792008,1.0500368000696654,2.0179620110479304,-1.046626351947117,0.9517218977116114,2.6248626909570136,2.5529487582748045,-0.32240086221280534,1.9178727683024246,2.1495629406302044,-1.821685177866714,1.939076601773762,2.304267021364266,2.202263049892453,-1.8104665818963743]],"RowLength":15,"ColoumnLength":20,"ElementCount":300,"Sum":-34.95947336004136,"Average":-0.11653157786680453},"Biases":{"Values":[[-1.025313235599408],[3.1881301751604414],[-0.5425853718398062],[2.5175687469359582],[0.7082868808123439],[-2.9600536927267838],[-0.6088453079112948],[-2.4413176847619456],[-1.3223114215335074],[-0.5454138986317685],[0.8269340388459248],[-0.5906035009991725],[-3.0727946128330856],[-0.4188683871959645],[0.6972428376791351]],"RowLength":15,"ColoumnLength":1,"ElementCount":15,"Sum":-5.589944434598933,"Average":-0.3726629623065955},"NumberOfPerceptrons":15,"Gradients":{"Values":[[0],[0],[0],[0],[0],[0],[0],[0],[0],[0],[0],[0],[0],[0],[0]],"RowLength":15,"ColoumnLength":1,"ElementCount":15,"Sum":0,"Average":0}},{"$type":"MyMachineLearningLibrary.DenseLayer","ActivationFunction":{"$type":"MyMachineLearningLibrary.SigmoidActivationFunction"},"LayerOutputs":{"Values":[[0.9980333469926247],[0.0010100786828799648],[0.0005589088275256051],[0.0005805217616227189],[0.0005115518161646035],[0.9987631579504017],[0.9991632190793929],[0.9996884623794345],[0.9978709504477807],[0.0017235418821225231]],"RowLength":10,"ColoumnLength":1,"ElementCount":10,"Sum":4.99790373981995,"Average":0.499790373981995},"Weights":{"Values":[[1.2030179498127327,-0.9290243671505444,-0.28141654214432643,-2.483953213998178,0.6525672969485181,1.524830629057747,-1.1153634547076565,0.833500170280552,-0.672024013610909,-0.9684612792235539,0.4140002409727499,-0.06634530273963607,1.735888307417039,0.7540555923297311,-0.15114072346091664],[0.1872472035613847,1.0876018030667616,1.2156631537618248,1.8520998454168665,-0.37017572146861355,-1.0011119873628804,0.6785999646077211,-0.411982657319318,1.2446081292995972,0.5180979693151377,-0.683621278160233,-0.8269713651384905,-1.2359109984192924,-1.247719562054108,-1.2972306399450648],[-0.5290985940658491,1.016480854262385,1.6569296761907168,1.3638381532886794,-0.7482264294393883,-1.006356274528553,1.1337295677466623,-1.3456982481063768,0.775322397854054,0.265723904236794,-1.4698894893194043,-0.3114039248365261,-0.7026221843196307,0.1349834174128757,-1.5865019607050777],[-1.3746685340410252,1.4898158885315955,1.5758072088431614,1.1137079501512575,-1.5305807122853639,-0.6344908059355155,0.9773943519504358,-1.1473243739815875,1.1046438256740307,0.573174765392187,-0.36302849899372336,0.11371215927271204,-0.4440309991695761,-0.22125472826687909,-1.2968237252369719],[-0.6573361646834468,0.5678439305971513,1.4273734200063608,0.9175855001483376,-1.6813380886518288,-1.345311278425413,1.5381669822639752,-0.7480051906920947,1.0564599068531257,0.2189358756271988,0.14696075122982333,-0.7151331222898294,-1.2441613846893484,-0.6873615418403158,-1.382773147968463],[1.322262898931056,-0.9604179966758388,-1.0977059438966466,-1.5595083435578807,0.5488080694784537,0.37790651711394313,-0.5942113721744747,0.04815925138800869,-0.5138814396708271,-1.614533707044774,0.9982505777242445,1.3539429082090562,0.8964404381338358,0.6606084871014986,0.4796366981434377],[0.049009320321630245,-1.4769317654502534,-0.49622238023545345,-0.8591670678719134,0.8696890695299329,2.360948017181925,-1.7364011423610128,0.6024388399711419,-1.4425564707527463,-0.2825734424933376,0.5551511128211128,1.2402280380417396,1.456746769402699,0.5897495805553931,0.5292930639673032],[-0.38687010754438994,-0.4708959523250558,-0.7896651213315617,-1.091903483627092,0.7940040255713464,1.5738229585405938,-1.5096267738953568,0.9788361075563745,-0.9774281588499093,-1.6105172419132545,1.2303431278600012,0.28090502364612896,1.3909446451204737,0.527558027783352,1.3878958969851642],[0.7295993647199522,-1.8531380141818627,-0.3621991805268987,-1.9748317972441558,1.1687278184657315,2.239243690112657,-0.21526910977255112,1.3566399830167908,-1.2954811131208184,-1.648572057440508,0.7566109664655727,-0.3983985728751636,1.658843368043361,-0.38173953705570024,-0.16153330353361883],[-0.8937359481946597,1.5874103044917462,1.3328590168648338,1.5770008757877014,-0.8146413621387422,-2.1163844680911557,1.102180425336317,-1.0497000455021706,-0.22241316536777236,1.2948508539437018,-0.4823204799758131,-0.4197220855799657,-1.407150694693598,-0.2879181054793981,-0.0013370312575041094]],"RowLength":10,"ColoumnLength":15,"ElementCount":150,"Sum":-1.3954616113696514,"Average":-0.00930307740913101},"Biases":{"Values":[[-0.669747714437066],[-0.010084161424781765],[0.0748639587721344],[-0.5535701619072428],[0.7359837196426057],[0.008824611298887812],[-1.16717975319518],[0.2969993264256914],[-0.8168767800093333],[1.1100652083726308]],"RowLength":10,"ColoumnLength":1,"ElementCount":10,"Sum":-0.990721746461654,"Average":-0.0990721746461654},"NumberOfPerceptrons":10,"Gradients":{"Values":[[0],[0],[0],[0],[0],[0],[0],[0],[0],[0]],"RowLength":10,"ColoumnLength":1,"ElementCount":10,"Sum":0,"Average":0}},{"$type":"MyMachineLearningLibrary.DenseLayer","ActivationFunction":{"$type":"MyMachineLearningLibrary.SigmoidActivationFunction"},"LayerOutputs":{"Values":[[0.0035228746805448423],[0.005054976375485964],[0.9954714917699169],[0.9943005716551986],[0.006463178488003099]],"RowLength":5,"ColoumnLength":1,"ElementCount":5,"Sum":2.0048130929691492,"Average":0.40096261859382987},"Weights":{"Values":[[-1.7434456557195737,1.2426448667685865,1.336528678889596,1.3717572863331662,0.05588101983794926,0.1724075189958264,-1.0743413050714243,-1.192995360293476,-2.0068901650340107,1.534719422832499],[-0.08235135106548726,1.49239805715511,0.3850199298358092,0.14944242971129149,2.1078064063419446,-1.107269344175009,-1.5680804484798356,-1.8317268185501787,-0.5665161327266823,1.216967041956946],[0.2818493926343483,0.17446058481866047,-1.173052370687649,-1.1171118358259302,-1.6018327501463459,1.3934221459654585,1.8403037798006017,1.5602299863387783,0.7350726468541525,-1.2264072382348912],[0.6557662413209021,-0.679039278849353,-0.9982914181780168,-0.6179728018843833,-1.1510848875548,0.8454266840437016,1.516630036457608,0.7169930036350634,1.3146179289644961,-1.7488164658294696],[-1.5604442245369667,1.0535522110890985,0.7533296017207197,1.2752868618133268,0.9932257728533503,-0.5547001393246199,-1.2159982702690508,-0.6750101847676042,-1.6916594430352192,0.23108695572917967]],"RowLength":5,"ColoumnLength":10,"ElementCount":50,"Sum":-0.7782113975418068,"Average":-0.015564227950836135},"Biases":{"Values":[[0.18608493856829833],[-0.13597574476795624],[-0.4081241900402742],[0.12407202098951407],[0.6509460724092121]],"RowLength":5,"ColoumnLength":1,"ElementCount":5,"Sum":0.417003097158794,"Average":0.0834006194317588},"NumberOfPerceptrons":5,"Gradients":{"Values":[[0],[0],[0],[0],[0]],"RowLength":5,"ColoumnLength":1,"ElementCount":5,"Sum":0,"Average":0}},{"$type":"MyMachineLearningLibrary.DenseLayer","ActivationFunction":{"$type":"MyMachineLearningLibrary.SigmoidActivationFunction"},"LayerOutputs":{"Values":[[0.014195068742523334]],"RowLength":1,"ColoumnLength":1,"ElementCount":1,"Sum":0.014195068742523334,"Average":0.014195068742523334},"Weights":{"Values":[[2.2061304208365016,1.6299872702380989,-1.8939474356904327,-1.6005459292031845,1.351465440025593]],"RowLength":1,"ColoumnLength":5,"ElementCount":5,"Sum":1.6930897662065763,"Average":0.3386179532413153},"Biases":{"Values":[[-0.7885156815802573]],"RowLength":1,"ColoumnLength":1,"ElementCount":1,"Sum":-0.7885156815802573,"Average":-0.7885156815802573},"NumberOfPerceptrons":1,"Gradients":{"Values":[[0]],"RowLength":1,"ColoumnLength":1,"ElementCount":1,"Sum":0,"Average":0}}],"LearningRate":0.0001,"NumberOfInputs":10,"LossFunction":{"$type":"MyMachineLearningLibrary.BinaryCrossEntropyLossFunction"}}