{"Layers":[{"$type":"MyMachineLearningLibrary.InputLayer","ActivationFunction":null,"LayerOutputs":{"Values":[[0.07370138364395806],[0.46728848607237095],[0.29475907457657546],[0.38671714684121083],[0.6948465449090676],[0.8927739832273462],[0.8104686178731821],[0.253392200632122],[0.11871662007815253],[0.33178929033133164]],"RowLength":10,"ColoumnLength":1,"ElementCount":10,"Sum":4.324453348185317,"Average":0.4324453348185317},"NumberOfPerceptrons":10,"Gradients":{"Values":[[0],[0],[0],[0],[0],[0],[0],[0],[0],[0]],"RowLength":10,"ColoumnLength":1,"ElementCount":10,"Sum":0,"Average":0}},{"$type":"MyMachineLearningLibrary.DenseLayer","ActivationFunction":{"$type":"MyMachineLearningLibrary.SigmoidActivationFunction"},"LayerOutputs":{"Values":[[0.9999889833864968],[0.9999891312324604],[0.9999787098826864],[8.594545475177057E-06],[6.790454802326047E-05],[0.9999889171608478],[0.9999631307029461],[0.9999558136988438],[5.9994263560499995E-06],[0.9999911180202004],[2.7806408630588224E-06],[0.999989022216163],[1.587893411957715E-05],[3.6210610011039193E-06],[1.555980743485131E-05],[0.9999932569788822],[0.9999548671976796],[3.3611679926221845E-05],[0.9999777643401055],[0.9998550903791927]],"RowLength":20,"ColoumnLength":1,"ElementCount":20,"Sum":11.999779755839704,"Average":0.5999889877919852},"Weights":{"Values":[[-19.089238073061548,-17.99886554573928,-18.17968181972642,-19.2896129941934,-19.024359823089217,-19.602928674930137,-18.753154718577747,-19.039051922318507,-18.174925044261467,-18.219766066701737],[-18.5416440707232,-17.539084991843794,-17.941036946498283,-18.62912219091437,-18.228373191027288,-19.19464699122787,-18.664526308733347,-18.967840137364416,-18.481694621262204,-17.922155723912162],[-17.375296529392134,-17.78576476548341,-17.1891871886382,-18.516758258370807,-17.659369454089,-19.076827971572293,-18.62719295352648,-18.59346091600901,-17.837889910328325,-19.243023731541783],[19.503271485933332,18.17355542098398,18.17697658487558,19.29971330070962,18.878945648241938,20.004638191898906,19.551255922648128,19.963848516551423,18.75870643640062,18.414886768003253],[15.17753401241443,15.287895114879753,14.873868846266662,15.755667886469315,15.540042173241126,15.833513511592747,15.571152167789238,15.928348763695011,15.453657983727199,15.982702306443619],[-18.84542148351955,-18.242748849184352,-18.26149647405372,-19.095992739887986,-18.884208351466164,-19.93059292185953,-18.912514509815075,-19.57563599111239,-18.49102344414987,-18.36823664354702],[-16.641543097831928,-17.241241465713795,-16.296792202068147,-17.50094462850209,-16.88627144663996,-17.590237925889774,-17.762449860531774,-17.196489388706738,-16.688128437065565,-17.977979838060023],[-16.486333777387056,-16.904232346718903,-16.08418559728367,-16.870547012339205,-16.71369313491522,-17.16957321237762,-17.347431789925135,-16.76084516666794,-16.364564240263757,-17.3070884068664],[19.389763636173097,19.005221975186785,18.240408803206392,19.618125507729122,19.623118853089256,19.016035026899623,19.825704091060878,18.794632462780047,18.911446070557435,19.894997126603016],[-18.89475022807906,-18.285485885411543,-18.57304418721568,-19.383108026182544,-19.021051831527423,-20.042340490456848,-19.200647499514115,-20.00152932860591,-18.881906206498446,-18.53253360363726],[20.922889957428595,19.80696984901996,20.205499689838426,20.987491418305563,20.740737138146628,21.693978212344714,20.713979996185515,21.0200695751912,20.52033181013506,20.114497429860258],[-18.79347058029503,-18.357422314221598,-18.324857870719654,-19.310486262865822,-18.98963598644401,-19.934202653634483,-18.93324314697245,-19.565760214345115,-18.50840156431969,-18.39606954275609],[17.968876271518607,17.80082598178635,17.060152310315047,18.37036174915158,17.912597875392105,18.282207953659466,19.057993449264234,17.843327383042475,17.895968629253108,19.088684504036685],[20.30732822324069,19.13325233799932,19.790290531437755,20.41543773017407,19.8332199588064,20.936343254825225,20.42998046734867,20.635633602581244,19.905666190711642,19.570508017571388],[16.830177947787337,16.556115245393315,16.918010184187995,17.420271647624165,16.73818008529159,17.71064649004808,16.779836328361185,18.303901552474933,17.438100934968478,17.19510964502673],[-19.46958242974369,-18.337539107280854,-18.753217664159394,-19.594971951801885,-19.21424153996818,-20.21303455481917,-19.36472720742468,-19.91440286519058,-18.9503559681705,-18.8688454242911],[-15.815336751480293,-15.866374028031384,-15.593572429514358,-16.50321110013926,-16.016448176618393,-16.558339304342482,-16.212378613711675,-16.694992440837193,-16.079466268862117,-16.50791147235335],[16.404979717526427,16.353357148927007,16.005944882663215,16.85039562604124,16.36450881645034,17.318720288977197,16.830119761298977,17.230173377818055,16.636682323706196,16.980937354576042],[-17.638527016559312,-16.42299582118562,-16.338670751033753,-17.799924009567945,-17.296445171421542,-17.632472326064057,-17.090105009318094,-17.638436879506997,-16.7648187172118,-16.593222830689115],[-14.423314844705798,-14.890347627690296,-13.956109465117128,-15.472870376774695,-14.688867848194143,-15.405516570744647,-15.514644040866049,-14.96884740858907,-14.654717370841205,-15.923239175041267]],"RowLength":20,"ColoumnLength":10,"ElementCount":200,"Sum":-671.0770104492021,"Average":-3.3553850522460107},"Biases":{"Values":[[92.9978862498957],[91.36063092243897],[90.18865363011388],[-94.63423034677027],[-77.06423555067789],[93.58418208285651],[85.19967367248441],[83.34002880618301],[-95.58565793438929],[94.66923532231407],[-102.66609900198655],[93.84716180170564],[-90.01934395641513],[-99.81018606309534],[-85.22616134995619],[95.6637263568592],[80.23194519115393],[-82.8335875512681],[84.963899096804],[74.3078693243667]],"RowLength":20,"ColoumnLength":1,"ElementCount":20,"Sum":332.51539070261725,"Average":16.625769535130864},"NumberOfPerceptrons":20,"Gradients":{"Values":[[0],[0],[0],[0],[0],[0],[0],[0],[0],[0],[0],[0],[0],[0],[0],[0],[0],[0],[0],[0]],"RowLength":20,"ColoumnLength":1,"ElementCount":20,"Sum":0,"Average":0}},{"$type":"MyMachineLearningLibrary.DenseLayer","ActivationFunction":{"$type":"MyMachineLearningLibrary.SigmoidActivationFunction"},"LayerOutputs":{"Values":[[0.999995481761526],[2.4453499423625964E-05],[1.1077783316511489E-07],[1.3611455206112366E-05],[1.6207396132502878E-05],[1.000085861036112E-15],[1],[0.9999756993671255],[0.9999872835772959],[0.9999403904538523],[4.870985502738639E-13],[0.9999872422656505],[1.8732366418111689E-06],[0.9999999998856473],[2.5269544243771917E-15]],"RowLength":15,"ColoumnLength":1,"ElementCount":15,"Sum":6.999942353676825,"Average":0.46666282357845495},"Weights":{"Values":[[1.6696592299261772,1.3876451158490377,0.7402826580060639,-1.9116617739510977,-1.8513376413177345,2.3690667717488556,1.1930214012424891,0.0839861643736591,-3.227148365814723,0.5838548320828739,-2.7500139426490446,2.241982508551996,-1.6941165204996647,-2.6807369547415645,-3.3164220179874064,1.0455526456482198,0.08186307832533213,-2.7149178475996196,1.4909010498732047,0.28600748428370876],[-1.4988989241850894,-0.8311615740305524,-1.808222275857438,3.0151918212833695,0.9642984223165187,-1.684407399387279,-0.08887800743781836,-0.3007510414694538,2.601049156610457,-0.961960606335577,2.810028920686916,-1.3889106934651558,2.0903457775676086,1.9299918928046955,1.0635655777234925,-1.8407600698197877,-1.0250541633253176,1.632946406888806,-1.116018728695819,0.13932842947961205],[-0.9859257190149747,-1.2834220837794914,-1.6761460558189163,0.71487656947522,0.8387029073074539,-1.5034518154195686,-1.7575141109791077,-0.3319324570486318,1.2550278330046793,-2.580339006739902,2.460487268382094,-0.8388696195214655,0.8022575018821637,1.1225482974669172,0.7786205100749249,-0.974418166397872,-1.2544232370571609,1.1413237458630765,-1.422809328031116,-0.6181449896265265],[-1.500796153854325,-1.0865299788971998,-1.2464071244323538,2.123715898012532,1.9993506276509505,-1.8587035249641983,0.30523938618205254,-0.9396061811550374,1.248547815924215,-1.3268131621809165,2.958166650625061,-0.9034517547585074,2.74901270206416,2.879208988998879,1.5338886768544524,-1.7227743670500828,-1.231359153262669,3.041794335107512,0.37650270434679034,-0.8683892179584337],[-1.3406225362688744,-1.5124188809570067,-0.9432800633195249,2.3500349072456057,1.2986364204857785,-2.099681560938002,-0.8504647478054317,-0.3996606496799757,1.3989915640696002,-1.1822178041919242,2.9492010065042646,-1.1623241437474605,2.651877082690498,2.1617515930874194,2.699967972066033,-1.4225886562718575,-0.201840209322238,1.5322246860756739,-0.9063570708825771,-0.8307076122092978],[-2.8370097042118028,-2.3579950726865806,-2.500011846761312,0.9649350139983555,2.108407853727018,-2.748426801150498,-2.0826772553607515,-2.907388876823286,1.7197555280822978,-2.7940949561109,1.4569647047470684,-2.812783824887458,0.6737500536011753,1.770212943211893,1.114417396598955,-2.7620593004473855,-2.518244735511587,0.6836177488996241,-2.6849235864065655,-3.181505917947457],[3.5117018108177196,2.499793546828838,3.0533164974014104,-2.019536374589363,-0.8763143073610601,1.961370456352163,3.2510363065292323,3.7061029303283037,-1.1591416959198695,3.8099808030123286,-1.773533899310076,3.235120006890288,-1.787272750666782,-1.2046856945970643,-1.3345300400921347,2.562085533542669,4.4184265734482775,-0.9824648233757227,3.247312708984857,2.176762117263921],[2.396372081425407,0.3101965459842922,1.1677311520028575,-1.866829670216274,-1.9941758000636325,1.8695446175275001,0.9620018266926849,0.010157056761757155,-1.8566502575095203,1.4636732513615796,-3.0968792649067014,0.689483852788886,-2.4704640600541072,-2.0485535430252564,-1.6324664376834308,0.6410488934219338,-0.07324929496349787,-2.2819037239034943,1.8728286920647028,0.14573127297389502],[1.1366199494962181,2.0992218837724748,0.7351674242117013,-3.214957839224613,-2.3475737002032537,1.23319762976655,1.2356692905516256,1.3873430997607827,-1.872790167368483,0.9903621859734604,-3.292068569189723,1.6866354626843103,-1.366840746195979,-2.4132680827859123,-2.037700997543621,0.5107679752076704,1.1632760774282522,-2.5186557211772955,0.17087907816435,0.8729604159464794],[0.12159290316969937,0.8099226939166965,1.3917034988653647,-1.256847501129463,-1.9539933484872383,0.11413379287956608,1.502770000516657,0.24628011958587448,-2.2565073001829483,1.096267369370639,-1.6165243706911159,1.2731990904629296,-1.390016876026253,-1.9011288507800301,-1.659067787526477,1.9390598070588265,0.9889971127526763,-2.6812833865781207,1.1982566346459729,-0.08214599745454784],[-2.431600730138501,-2.8719170547497463,-1.8804856905981497,1.1732112036981497,0.48052624101661606,-1.425857294224869,-1.9166729162803897,-2.0305221243629394,0.8928106852711472,-1.7421274173105852,1.9357723520334857,-2.878312079200926,1.417219848533204,1.0199149545720443,1.156662756239797,-2.627543297722502,-2.544209877598326,0.635747875629764,-2.566784247039059,-2.819588503737989],[0.5797730991067301,1.5402098281627106,0.7806922743186072,-1.991380693628343,-1.550965299690217,1.2654492139471103,1.6246403747993792,0.6309908310544006,-0.39000686390740147,1.214563067017252,-0.1257536170219187,0.5071634010708861,-1.86278126330454,-0.4872348383268582,-0.9682512826273502,1.5145544710813288,0.19162677726469554,-1.053628229478629,0.42340806433630646,1.4970048207436668],[-0.9744891802397753,-1.6170404366984639,-1.1346894156803842,3.5873506382141658,1.6698316482080795,-1.978768690427453,-0.32948815537617004,-1.5257900854449997,1.8677991061848414,-1.9434889595283258,3.452780679578291,-2.0706859192257303,3.2145866462934385,3.183827402729914,1.6797810358848195,-2.048862366302652,-0.49757402428038544,1.8809846636116896,-0.022120715466021762,-0.8780421700741161],[1.9033592469008977,1.7019876733166672,1.8188594846610644,-2.1570875268738754,-1.0968576977374902,1.3229961865820346,2.2718844585803923,1.749402902910966,-1.5110879922227436,1.4808818854510468,-0.33491391708941814,1.143383750345415,-0.11640451440631581,-1.198856076006639,-1.8119241987971961,0.7681559466863228,3.0030459012978405,0.04011586317697286,2.3513636894588346,2.4940542863413953],[-2.537946967692744,-2.970966414107987,-2.790752060634307,1.2789968137930074,1.2298992016611137,-3.300602694253991,-3.1383924003792245,-2.9496520328076854,2.0226238282229674,-3.5470383328512227,1.0897633698493052,-2.142405970715681,0.5933540282781978,1.6266218189186104,1.5084400954813806,-2.1330031576666477,-2.6294058607602744,-0.027068567378806703,-1.7627732216062328,-2.3847775099849122]],"RowLength":15,"ColoumnLength":20,"ElementCount":300,"Sum":-29.122770342169805,"Average":-0.09707590114056601},"Biases":{"Values":[[-0.8658521557896091],[1.7865694831943297],[-0.7888603415668629],[0.7978412944395199],[1.8215627828900145],[-2.352846447322055],[2.3173714998555206],[-0.8300205150076685],[-1.9487576050719986],[-0.8718919085251441],[-0.6157272163997516],[-0.5001060656140995],[1.8325242721594115],[0.8833278306655232],[-1.3251676676947697]],"RowLength":15,"ColoumnLength":1,"ElementCount":15,"Sum":-0.6600327597876396,"Average":-0.044002183985842644},"NumberOfPerceptrons":15,"Gradients":{"Values":[[0],[0],[0],[0],[0],[0],[0],[0],[0],[0],[0],[0],[0],[0],[0]],"RowLength":15,"ColoumnLength":1,"ElementCount":15,"Sum":0,"Average":0}},{"$type":"MyMachineLearningLibrary.DenseLayer","ActivationFunction":{"$type":"MyMachineLearningLibrary.SigmoidActivationFunction"},"LayerOutputs":{"Values":[[0.0007451426184746878],[0.9990673140002865],[0.9977185247582626],[0.9991617143210854],[0.998931724564829],[0.9979669238999607],[0.0009542941104749778],[5.0580100547167814E-05],[0.9991655689149499],[0.9976580200244378]],"RowLength":10,"ColoumnLength":1,"ElementCount":10,"Sum":6.991419807313309,"Average":0.6991419807313309},"Weights":{"Values":[[-1.5585428892945992,1.0248423715380706,-0.18299453215830955,0.7895966701181194,1.1992251929771742,1.9192393683739726,-2.1315188021684395,-1.4285117900074116,-0.7752512003242303,-0.637417050689671,0.16456143206707494,-0.3826953892736738,0.3121336193924629,0.09141281854435161,2.1323089759749885],[0.24756304651194722,-0.9656328068979375,0.04554040233951222,-0.6928021215018462,-1.560986676115118,-0.9323954595174855,2.378331320218893,0.28836682881625053,1.442411964993105,0.5121420768678511,-1.0350947016113783,0.7959381244040009,-1.9200878449944456,0.4463106744096825,-1.0096829687455677],[0.32444249846419343,-1.1640680854327234,-0.8245732543581675,-1.3486198322813363,-0.843489733686877,-0.2143780843824303,1.194501543318883,1.138167153450011,0.4349106598794812,0.4594323130995973,-0.7078044723326088,0.6397666308532824,-0.45372661873291437,1.9226012410828075,-0.622440639557782],[0.421507895164604,-0.6001587473165114,0.1134235166501858,0.42342512709089714,-0.03541246445689568,-1.8223849622966384,1.5358143767527923,1.5333425992566017,1.8935297232087693,0.43687276793999524,-1.3912056051207438,-0.0768690691747855,-0.862348122825411,1.2862520407372797,-1.7407029952823923],[0.4515229959759216,-0.8265091986860812,-0.05900027184794626,-1.3331680267257664,-0.3569353265573889,-0.7079503185030095,1.6130751015162421,1.048685901944722,0.8058998068523359,0.013079839271181691,-1.5785165395256542,1.2695529492523903,-1.0411287106210165,1.2658224551552277,-0.9659308273603762],[1.559119401327433,-1.001614864498059,-0.6896062715548061,-0.4851489595289173,-1.701435878739329,-0.914729947351512,0.6909378153595018,0.8768132960533256,1.7217474505277315,1.1441787832365997,-0.819797225952444,0.6346980888598852,-1.7710107311337262,-0.48283014564539856,-0.7582546656021354],[-1.3286404107548042,0.8049756603897659,1.685127286137151,0.47646495755350626,0.5620607605641359,1.2182232451445363,-0.055022199219459195,-0.6997713127842107,-0.7427948372994451,-0.7026088187231311,0.8782393097758041,-0.9949620504796579,1.044297222850916,-1.4868031716830596,1.2273795397468674],[-1.6611400137625496,0.3832879246744005,0.9938538332725009,0.24462907772002454,-0.6113868401273633,1.9547294713395045,-3.0356180724907817,-0.8568053524356144,-0.4044028580932703,-1.3987325702161182,1.7254143220055724,0.13346974448040785,0.41222619303734165,-1.6421283234937312,1.8827119113501822],[0.518667006035582,0.012147424804289412,-1.022964964556512,-1.7255435982579213,-1.5520961192188716,-1.1885182496836197,2.0790922591340633,0.061197746376426894,1.5362560071961735,0.7014418312257983,-0.5214822578084684,1.1588567213908427,-1.2404579171820618,0.2764735342076519,-0.649439504384998],[0.5475253773363536,-0.5986184212955019,-0.688538692017378,-2.0912762319529623,-1.384068951896284,-0.6998204163810262,0.8718857811462019,0.5305275464983145,1.1259313239105542,0.06444906835837587,-0.04137287188804706,1.2500965223021265,-2.0928370164089647,0.8046904069386864,-0.4607376719918143]],"RowLength":10,"ColoumnLength":15,"ElementCount":150,"Sum":-7.184576670126133,"Average":-0.047897177800840886},"Biases":{"Values":[[-0.3788154995720222],[0.8655738886306892],[-0.033041477380984854],[0.052962032615526226],[0.3731026231162327],[0.051694086771838184],[-0.9431055410790466],[-1.026663121125241],[0.7560712593893396],[0.8594268140351988]],"RowLength":10,"ColoumnLength":1,"ElementCount":10,"Sum":0.57720506540153,"Average":0.057720506540153003},"NumberOfPerceptrons":10,"Gradients":{"Values":[[0],[0],[0],[0],[0],[0],[0],[0],[0],[0]],"RowLength":10,"ColoumnLength":1,"ElementCount":10,"Sum":0,"Average":0}},{"$type":"MyMachineLearningLibrary.DenseLayer","ActivationFunction":{"$type":"MyMachineLearningLibrary.SigmoidActivationFunction"},"LayerOutputs":{"Values":[[0.9914001180433158],[0.9973589684113743],[0.002600334526864192],[0.032685524252730865],[0.9973514348913041]],"RowLength":5,"ColoumnLength":1,"ElementCount":5,"Sum":3.021396380125589,"Average":0.6042792760251178},"Weights":{"Values":[[-1.2638388874733242,1.3784381905894376,1.2791612030473196,1.1054109815759297,-0.0889926175650873,1.50797821006225,-1.226564225690855,-1.2524747578007729,0.3087631721894588,-0.13486760175435608],[-2.085353236486459,1.2176905648318055,0.16120880844765428,0.7051151507766984,1.1367813173717056,1.0129673173506428,-0.36131634570644144,-2.412073855999823,1.3097390538375637,0.8331518059252715],[0.8555149534880501,-1.9822584541996984,-0.5364598837660937,-0.8667172715242397,-0.730380531212402,-0.23086726071924818,1.6006141535052354,2.933936884275849,-1.3993237716959344,-0.12391023710105843],[0.8567230956997505,-0.319179986123697,-0.2895645049076576,-0.6684524876539413,-0.14806475009776948,-0.6599239371665062,1.5644250798001547,1.0624324705737265,-0.2579635600037047,-0.8267907874891448],[-1.6757071258037064,0.6225148600132504,0.5353867446597308,0.5702849204135485,0.8232945025833978,1.5329076565404631,-0.9044921306936264,-1.9875204203508146,1.320500864146022,1.3270501843502962]],"RowLength":5,"ColoumnLength":10,"ElementCount":50,"Sum":5.128933517068851,"Average":0.10257867034137702},"Biases":{"Values":[[-0.5983029941407075],[-0.4322796180412279],[-0.08841413519874769],[-0.22500648907781085],[-0.7881562783376703]],"RowLength":5,"ColoumnLength":1,"ElementCount":5,"Sum":-2.1321595147961645,"Average":-0.4264319029592329},"NumberOfPerceptrons":5,"Gradients":{"Values":[[0],[0],[0],[0],[0]],"RowLength":5,"ColoumnLength":1,"ElementCount":5,"Sum":0,"Average":0}},{"$type":"MyMachineLearningLibrary.DenseLayer","ActivationFunction":{"$type":"MyMachineLearningLibrary.SigmoidActivationFunction"},"LayerOutputs":{"Values":[[0.012230864192925975]],"RowLength":1,"ColoumnLength":1,"ElementCount":1,"Sum":0.012230864192925975,"Average":0.012230864192925975},"Weights":{"Values":[[-0.9250547543437607,-2.2384766732970878,2.540184347374134,0.569094228466927,-2.2856493279601553]],"RowLength":1,"ColoumnLength":5,"ElementCount":5,"Sum":-2.339902179759943,"Average":-0.46798043595198857},"Biases":{"Values":[[1.0125669511945024]],"RowLength":1,"ColoumnLength":1,"ElementCount":1,"Sum":1.0125669511945024,"Average":1.0125669511945024},"NumberOfPerceptrons":1,"Gradients":{"Values":[[0]],"RowLength":1,"ColoumnLength":1,"ElementCount":1,"Sum":0,"Average":0}}],"LearningRate":0.0001,"NumberOfInputs":10,"LossFunction":{"$type":"MyMachineLearningLibrary.BinaryCrossEntropyLossFunction"}}